tree
version=v4
num_class=1
num_tree_per_iteration=1
label_index=0
max_feature_idx=303
objective=regression
feature_names=Column_0 Column_1 Column_2 Column_3 Column_4 Column_5 Column_6 Column_7 Column_8 Column_9 Column_10 Column_11 Column_12 Column_13 Column_14 Column_15 Column_16 Column_17 Column_18 Column_19 Column_20 Column_21 Column_22 Column_23 Column_24 Column_25 Column_26 Column_27 Column_28 Column_29 Column_30 Column_31 Column_32 Column_33 Column_34 Column_35 Column_36 Column_37 Column_38 Column_39 Column_40 Column_41 Column_42 Column_43 Column_44 Column_45 Column_46 Column_47 Column_48 Column_49 Column_50 Column_51 Column_52 Column_53 Column_54 Column_55 Column_56 Column_57 Column_58 Column_59 Column_60 Column_61 Column_62 Column_63 Column_64 Column_65 Column_66 Column_67 Column_68 Column_69 Column_70 Column_71 Column_72 Column_73 Column_74 Column_75 Column_76 Column_77 Column_78 Column_79 Column_80 Column_81 Column_82 Column_83 Column_84 Column_85 Column_86 Column_87 Column_88 Column_89 Column_90 Column_91 Column_92 Column_93 Column_94 Column_95 Column_96 Column_97 Column_98 Column_99 Column_100 Column_101 Column_102 Column_103 Column_104 Column_105 Column_106 Column_107 Column_108 Column_109 Column_110 Column_111 Column_112 Column_113 Column_114 Column_115 Column_116 Column_117 Column_118 Column_119 Column_120 Column_121 Column_122 Column_123 Column_124 Column_125 Column_126 Column_127 Column_128 Column_129 Column_130 Column_131 Column_132 Column_133 Column_134 Column_135 Column_136 Column_137 Column_138 Column_139 Column_140 Column_141 Column_142 Column_143 Column_144 Column_145 Column_146 Column_147 Column_148 Column_149 Column_150 Column_151 Column_152 Column_153 Column_154 Column_155 Column_156 Column_157 Column_158 Column_159 Column_160 Column_161 Column_162 Column_163 Column_164 Column_165 Column_166 Column_167 Column_168 Column_169 Column_170 Column_171 Column_172 Column_173 Column_174 Column_175 Column_176 Column_177 Column_178 Column_179 Column_180 Column_181 Column_182 Column_183 Column_184 Column_185 Column_186 Column_187 Column_188 Column_189 Column_190 Column_191 Column_192 Column_193 Column_194 Column_195 Column_196 Column_197 Column_198 Column_199 Column_200 Column_201 Column_202 Column_203 Column_204 Column_205 Column_206 Column_207 Column_208 Column_209 Column_210 Column_211 Column_212 Column_213 Column_214 Column_215 Column_216 Column_217 Column_218 Column_219 Column_220 Column_221 Column_222 Column_223 Column_224 Column_225 Column_226 Column_227 Column_228 Column_229 Column_230 Column_231 Column_232 Column_233 Column_234 Column_235 Column_236 Column_237 Column_238 Column_239 Column_240 Column_241 Column_242 Column_243 Column_244 Column_245 Column_246 Column_247 Column_248 Column_249 Column_250 Column_251 Column_252 Column_253 Column_254 Column_255 Column_256 Column_257 Column_258 Column_259 Column_260 Column_261 Column_262 Column_263 Column_264 Column_265 Column_266 Column_267 Column_268 Column_269 Column_270 Column_271 Column_272 Column_273 Column_274 Column_275 Column_276 Column_277 Column_278 Column_279 Column_280 Column_281 Column_282 Column_283 Column_284 Column_285 Column_286 Column_287 Column_288 Column_289 Column_290 Column_291 Column_292 Column_293 Column_294 Column_295 Column_296 Column_297 Column_298 Column_299 Column_300 Column_301 Column_302 Column_303
feature_infos=[81310.699999999997:83767.600000000006] [81709.5:83996.800000000003] [80772.699999999997:83591.100000000006] [81522.600000000006:83767.600000000006] [16.216999999999999:519567.147] [1342952.9776999999:42766023081.626999] [305:26512] [5.7539999999999996:347301.33399999997] [476723.58399999997:28858521227.433701] none [-0.020451608180643201:0.0132035732442443] [81883.960000000006:83564.040000000037] [82166.260000000024:83413.000000000015] [82360.255000000019:83180.785000000003] none [81973.912592592591:83513.117133512729] [82283.729012061973:83278.058493636257] [82387.500000000015:83070.89543111778] [33.531226560563695:58.019623309803073] [-137.01371223118622:254.65997695669648] [-72.674571718987352:274.62720548778049] [-82.73620407882413:-17.459272261954844] [83078.6344177641:84300.378536378921] [82360.255000000019:83180.785000000003] [81157.015235594765:82575.676433630069] [0.0062734365927687467:0.03375053706821065] [253.34828807906607:801.11625624739452] [-397993.72600000002:2962719.5389999999] [124.6237999999712:476604.57559999998] [0.0010740497966491706:4.8898893446436151] [-0.013208158449546703:0.012170745952455819] [-0.00908231454745978:0.013404662460696937] none [-0.020451608180643288:0.013203573244244371] [-0.025012902485878952:0.017534134671490342] [-0.020575429625927399:0.021171315149312031] [0.00028438960984421442:0.012198083257131851] [0.00030429044592285515:0.0089761194103503417] [1843.48:1975.4300000000001] [1847.51:2130] [1831.1500000000001:1925.1700000000001] [1843.48:1979.4400000000001] [206473.20999999999:9172138.0199999996] [402697375.54528999:17096335181.288879] [5545:34835] [122622.27099999999:6781066.5700000003] [245015594.66835001:12556405265.35063] none [-0.031741300569858202:0.052322675994938797] [1847.8700000000019:1913.0639999999999] [1853.7180000000003:1901.4169999999999] [1866.329500000001:1892] none [1850.2178421019441:1913.9579122085047] [1856.2475615255096:1904.1793636363636] [1864.2028330845246:1892] [37.95975647493605:59.976986541215538] [-10.22640284146587:3.917675945936935] [-8.3644613548140594:-1.5897812789880268] none [1897.4220420825523:1953.4428993456488] [1866.329500000001:1892] [1826.7845406227193:1856.4549984977227] [0.027836701666582839:0.064950210724787322] [23.160945130404205:136.28826530612247] [-50803285.997999996:12465436.407999998] [2450287.5629999996:6946710.4572000001] [0.06601264629508527:2.1706536822159834] [-0.020924209017690543:0.047127730708354854] [-0.015287118897024832:0.015325095969289659] none [-0.031741300569858244:0.052322675994938894] [-0.046720284524916167:0.069996486391524115] [-0.03337307521319155:0.046381561558386686] [0.0024713458640333065:0.026540429759473735] [0.0043339811666184072:0.020312621111825798] [596.11099999999999:602.34199999999998] none none [596.11099999999999:602.34199999999998] [0.32000000000000001:1420.03] [190.75551999999999:850519.83193999995] [1:357] [0:634.50999999999999] [0:382192.02241999999] none none [597.35719999999992:602.3420000000001] [597.35719999999992:601.11369999999977] [598.61235000000011:599.84960000000012] none [596.66486666666663:602.05953075301591] [597.35719999999992:601.26926025260434] [598.29674923907373:600.37860898318718] [44.738757264453412:60.000000000000007] none none none [604.7030621512904:605.95470823490575] [598.61235000000011:599.84960000000012] [592.52163784869072:593.74449176509449] none [5.2515049419000386:6.1362266031154471] [-444.61999999999989:1131.02] [27.809999999999995:393.00799999999992] [0.0016914392033321353:4.4933977258833604] [-0.0082928544834285356:0.0083447558680134204] [-0.0057161509598934179:0.0062304929058010217] none none none none [0:0.0057252076472585744] [0.0042990257650694936:0.0055090836271848211] none none none none [0:236251] [0:207499.25330000001] [0:7] none none none none none none [0.87829999999999975:0.87832499999999969] none [0.87829999999999997:0.87838683127572015] [0.87830000000000008:0.87836333521679466] [0.87829999999999975:0.87833937223883529] [0:100] [-5.44827801918224e-06:8.9481345363351394e-06] [-4.450025049887629e-06:1.4253289957324692e-05] none [0.87829999999999975:0.87832499999999969] [0.87829999999999975:0.87832499999999969] [0.87829999999999975:0.87832499999999969] none [0:1.2074010935068243e-05] [-162956:137] [0:85165.399999999994] [0:5] none none none none none none none none [123.59999999999999:145.90000000000001] [135.09999999999999:145.90000000000001] [116.09999999999999:139] [116.09999999999999:145.90000000000001] [1:4843] [139:655476.90000000002] [1:593] [0:2938] [0:408373.79999999999] none [-0.17012151536812009:0.12459546925566339] [122.22:141.17999999999998] [124.56999999999998:140.5] [128.32999999999998:138.46999999999989] none [124.91012345679013:142.18992177288871] [125.833641827744:140.4399784615722] [128.32999999999998:138.41474948229273] [42.45105779143536:57.666126246674679] [-0.61774545078250753:4.1758674123702235] none [-2.0393783377981829:0.70971359005390156] [142.24159228844869:150.5158306657454] [128.32999999999998:138.46999999999989] [114.27633111849431:127.19913490453813] [0.13538208864917398:0.23507337233806389] [5.6498525790258958:15.950000000000006] [-4128:5994] [158.80000000000001:2155] [0.00051041241322988978:3.7531486146095716] [-0.10361334156886981:0.095598674869853406] [-0.095244977597917946:0.10262998790810185] none [-0.17012151536812015:0.12459546925566345] [-0.11508220157255189:0.12459546925566345] [-0.14010989010989006:0.19638242894056868] [0.00040452182979170277:0.083886297551424238] [0.0003892513121405356:0.06659721885433538] none none none none [0:1481789] [0:281539.90999999997] [0:6] none none none none none [0.18999999999999997:0.19201200000000002] [0.18999999999999997:0.1910065] none [0.19:0.1963743605028592] [0.18999999999999997:0.19352266517501815] [0.19002849999999999:0.19185749191674994] none [-0.00011123358752271328:2.2523045820926901e-05] [-8.6208555203468241e-05:0.00036175638018283592] [-0.00033923333436190902:1.3109151873769961e-05] [0.18999999999999997:0.19926926533613518] [0.18999999999999997:0.1910065] [0.18266809200726891:0.18999999999999997] [0:0.086744257582938675] [0.00027657696416179262:0.0029629605774709614] [-2494:526] [0:411699.79999999999] [0:5] none [-0.0052694541808786521:0.094203600401033372] none none none none none [0:0.031622776601683757] [14.067:14.087] [14.067:14.087] none [14.067:14.087] [0:42656.010000000002] [0:600606.11276000005] [0:55] [0:25263.5] [0:355886.92450000002] none none [14.066999999999984:14.086200000000002] [14.068999999999985:14.084200000000001] [14.071000000000003:14.079650000000004] none [14.067323500726483:14.085333939233141] [14.068419772902541:14.082851880968255] [14.070348269361384:14.079333063386418] [41.362055469129345:54.731277772396794] none none none [14.087000000001121:14.098108376467623] [14.071000000000003:14.079650000000004] [14.054669697215409:14.061273112355874] [0.0022741809396798151:0.002841514528905369] [0.0098778147919487223:0.01760512052106003] [-70887.639999999999:3.5499999999999998] [2.4328983272425829e-12:12041.762000000002] [0:4.6785525007699604] [-0.0011361215650067535:0.0011370904697614037] [-0.00089491178726697207:0.00085257548845474318] none none none none [0:0.00077873399801680276] [0.00042962017011337355:0.0007493371389701765] none none none none none none none none none none none none none none none none none none none none none none none none none none none none [0:118.40000000000001] none none none none none none none none none
tree_sizes=326 330 327 329 333 334 334 330 329 331 332 332 331 332 331 335 331 330 330 334 330 332 332 330 331 331 331 331 334 333 329 335 330 333 329 331 331 332 331 328 333 331 331 334 331 331 334 331 328 332 332 332 333 332 332 331 334 331 330 330 333 331 335 331 329 334 330 334 333 331 336 334 332 329 334 335 330 335 334 330 331 332 331 332 334 335 330 335 331 335 335 332 330 333 333 329 330 336 329 332

Tree=0
num_leaves=2
num_cat=0
split_feature=18
split_gain=9.80479e-10
threshold=53.999668577393059
decision_type=2
left_child=-1
right_child=-2
leaf_value=-2.917082412897979e-07 5.6947937313648416e-07
leaf_weight=39 20
leaf_count=39 20
internal_value=2.19764e-10
internal_weight=59
internal_count=59
is_linear=0
shrinkage=1


Tree=1
num_leaves=2
num_cat=0
split_feature=50
split_gain=1.04176e-09
threshold=1884.3325000000007
decision_type=2
left_child=-1
right_child=-2
leaf_value=3.3586961115538038e-07 -5.2570897240832932e-07
leaf_weight=36 23
leaf_count=36 23
internal_value=-6.16607e-15
internal_weight=59
internal_count=59
is_linear=0
shrinkage=0.1


Tree=2
num_leaves=2
num_cat=0
split_feature=8
split_gain=9.9554e-10
threshold=14546600344.694252
decision_type=2
left_child=-1
right_child=-2
leaf_value=2.9416169533501258e-07 -5.7361529652411043e-07
leaf_weight=39 20
leaf_count=39 20
internal_value=3.17938e-15
internal_weight=59
internal_count=59
is_linear=0
shrinkage=0.1


Tree=3
num_leaves=2
num_cat=0
split_feature=65
split_gain=1.02897e-09
threshold=-1404704.2405000022
decision_type=2
left_child=-1
right_child=-2
leaf_value=-2.9906027003644111e-07 5.831675390766123e-07
leaf_weight=39 20
leaf_count=39 20
internal_value=4.23917e-15
internal_weight=59
internal_count=59
is_linear=0
shrinkage=0.1


Tree=4
num_leaves=2
num_cat=0
split_feature=69
split_gain=9.96337e-10
threshold=-0.0017459885485017754
decision_type=2
left_child=-1
right_child=-2
leaf_value=-2.9427940450050422e-07 5.7384486806810742e-07
leaf_weight=39 20
leaf_count=39 20
internal_value=9.92953e-15
internal_weight=59
internal_count=59
is_linear=0
shrinkage=0.1


Tree=5
num_leaves=2
num_cat=0
split_feature=113
split_gain=1.00649e-09
threshold=0.0050265253194724325
decision_type=2
left_child=-1
right_child=-2
leaf_value=5.7676120306382479e-07 -2.9577497862658512e-07
leaf_weight=20 39
leaf_count=20 39
internal_value=-1.78238e-15
internal_weight=59
internal_count=59
is_linear=0
shrinkage=0.1


Tree=6
num_leaves=2
num_cat=0
split_feature=30
split_gain=1.01897e-09
threshold=-0.0020456328976023448
decision_type=2
left_child=-1
right_child=-2
leaf_value=-5.8032481675240888e-07 2.9760245919801374e-07
leaf_weight=20 39
leaf_count=20 39
internal_value=-7.22586e-15
internal_weight=59
internal_count=59
is_linear=0
shrinkage=0.1


Tree=7
num_leaves=2
num_cat=0
split_feature=42
split_gain=1.00208e-09
threshold=4238030.3090000013
decision_type=2
left_child=-1
right_child=-2
leaf_value=-5.5437858139027547e-07 3.0636709973619924e-07
leaf_weight=21 38
leaf_count=21 38
internal_value=-7.10543e-15
internal_weight=59
internal_count=59
is_linear=0
shrinkage=0.1


Tree=8
num_leaves=2
num_cat=0
split_feature=91
split_gain=9.74872e-10
threshold=599.51086103848183
decision_type=2
left_child=-1
right_child=-2
leaf_value=3.1344269388768768e-07 -5.2715362147378906e-07
leaf_weight=37 22
leaf_count=37 22
internal_value=2.40862e-17
internal_weight=59
internal_count=59
is_linear=0
shrinkage=0.1


Tree=9
num_leaves=2
num_cat=0
split_feature=239
split_gain=9.67255e-10
threshold=14.075100000000001
decision_type=2
left_child=-1
right_child=-2
leaf_value=-3.0099713258455028e-07 5.4466146975430872e-07
leaf_weight=38 21
leaf_count=38 21
internal_value=-2.93852e-15
internal_weight=59
internal_count=59
is_linear=0
shrinkage=0.1


Tree=10
num_leaves=2
num_cat=0
split_feature=257
split_gain=9.89676e-10
threshold=0.82117182892050733
decision_type=2
left_child=-1
right_child=-2
leaf_value=2.9329401534447735e-07 -5.7192330153554845e-07
leaf_weight=39 20
leaf_count=39 20
internal_value=9.62243e-15
internal_weight=59
internal_count=59
is_linear=0
shrinkage=0.1


Tree=11
num_leaves=2
num_cat=0
split_feature=182
split_gain=9.3098e-10
threshold=0.0099616874028980468
decision_type=2
left_child=-1
right_child=-2
leaf_value=-2.952989879944605e-07 5.3435055633599406e-07
leaf_weight=38 21
leaf_count=38 21
internal_value=2.36045e-15
internal_weight=59
internal_count=59
is_linear=0
shrinkage=0.1


Tree=12
num_leaves=2
num_cat=0
split_feature=152
split_gain=9.40535e-10
threshold=135.50000000000003
decision_type=2
left_child=-1
right_child=-2
leaf_value=2.8591976092597953e-07 -5.5754352917603006e-07
leaf_weight=39 20
leaf_count=39 20
internal_value=1.56937e-15
internal_weight=59
internal_count=59
is_linear=0
shrinkage=0.1


Tree=13
num_leaves=2
num_cat=0
split_feature=163
split_gain=9.64393e-10
threshold=135.35000000000005
decision_type=2
left_child=-1
right_child=-2
leaf_value=-3.0055155617135731e-07 5.4385517901642919e-07
leaf_weight=38 21
leaf_count=38 21
internal_value=-6.35876e-15
internal_weight=59
internal_count=59
is_linear=0
shrinkage=0.1


Tree=14
num_leaves=2
num_cat=0
split_feature=75
split_gain=9.28613e-10
threshold=0.0082669454796146184
decision_type=2
left_child=-1
right_child=-2
leaf_value=-5.336709858958616e-07 2.94923437576796e-07
leaf_weight=21 38
leaf_count=21 38
internal_value=-1.28635e-15
internal_weight=59
internal_count=59
is_linear=0
shrinkage=0.1


Tree=15
num_leaves=2
num_cat=0
split_feature=259
split_gain=9.34147e-10
threshold=-0.0005328773488823545
decision_type=2
left_child=-1
right_child=-2
leaf_value=-2.9580086512145214e-07 5.3525873348852265e-07
leaf_weight=38 21
leaf_count=38 21
internal_value=8.96006e-15
internal_weight=59
internal_count=59
is_linear=0
shrinkage=0.1


Tree=16
num_leaves=2
num_cat=0
split_feature=239
split_gain=9.0233e-10
threshold=14.071500000000002
decision_type=2
left_child=-1
right_child=-2
leaf_value=-5.2606446853385003e-07 2.9071982743728897e-07
leaf_weight=21 38
leaf_count=21 38
internal_value=-6.72193e-15
internal_weight=59
internal_count=59
is_linear=0
shrinkage=0.1


Tree=17
num_leaves=2
num_cat=0
split_feature=7
split_gain=9.31166e-10
threshold=165978.34000000003
decision_type=2
left_child=-1
right_child=-2
leaf_value=5.3440410797953695e-07 -2.9532858606348543e-07
leaf_weight=21 38
leaf_count=21 38
internal_value=-4.81724e-17
internal_weight=59
internal_count=59
is_linear=0
shrinkage=0.1


Tree=18
num_leaves=2
num_cat=0
split_feature=153
split_gain=8.86761e-10
threshold=139.05000000000004
decision_type=2
left_child=-1
right_child=-2
leaf_value=2.8820079764668136e-07 -5.2150619619965936e-07
leaf_weight=38 21
leaf_count=38 21
internal_value=3.2268e-15
internal_weight=59
internal_count=59
is_linear=0
shrinkage=0.1


Tree=19
num_leaves=2
num_cat=0
split_feature=112
split_gain=8.7681e-10
threshold=0.0056659825411721444
decision_type=2
left_child=-1
right_child=-2
leaf_value=-3.0813386323479285e-07 4.8229648146132058e-07
leaf_weight=36 23
leaf_count=36 23
internal_value=-4.81724e-17
internal_weight=59
internal_count=59
is_linear=0
shrinkage=0.1


Tree=20
num_leaves=2
num_cat=0
split_feature=83
split_gain=8.81834e-10
threshold=23.515000000000004
decision_type=2
left_child=-1
right_child=-2
leaf_value=4.3554976643613346e-07 -3.431604273740341e-07
leaf_weight=26 33
leaf_count=26 33
internal_value=-2.98311e-15
internal_weight=59
internal_count=59
is_linear=0
shrinkage=0.1


Tree=21
num_leaves=2
num_cat=0
split_feature=159
split_gain=9.00014e-10
threshold=407.50000000000006
decision_type=2
left_child=-1
right_child=-2
leaf_value=3.0116819487289292e-07 -5.0651015780803474e-07
leaf_weight=37 22
leaf_count=37 22
internal_value=-4.43186e-15
internal_weight=59
internal_count=59
is_linear=0
shrinkage=0.1


Tree=22
num_leaves=2
num_cat=0
split_feature=65
split_gain=8.76787e-10
threshold=-1404704.2405000022
decision_type=2
left_child=-1
right_child=-2
leaf_value=-2.7606022164524313e-07 5.3831742147458778e-07
leaf_weight=39 20
leaf_count=39 20
internal_value=-3.63852e-15
internal_weight=59
internal_count=59
is_linear=0
shrinkage=0.1


Tree=23
num_leaves=2
num_cat=0
split_feature=29
split_gain=8.52115e-10
threshold=0.96666316539911945
decision_type=2
left_child=-1
right_child=-2
leaf_value=4.137293565257231e-07 -3.4908414177081686e-07
leaf_weight=27 32
leaf_count=27 32
internal_value=1.51743e-15
internal_weight=59
internal_count=59
is_linear=0
shrinkage=0.1


Tree=24
num_leaves=2
num_cat=0
split_feature=239
split_gain=8.61802e-10
threshold=14.071500000000002
decision_type=2
left_child=-1
right_child=-2
leaf_value=-5.1411457847330033e-07 2.8411596701971576e-07
leaf_weight=21 38
leaf_count=21 38
internal_value=1.01493e-14
internal_weight=59
internal_count=59
is_linear=0
shrinkage=0.1


Tree=25
num_leaves=2
num_cat=0
split_feature=50
split_gain=8.89206e-10
threshold=1876.4495000000004
decision_type=2
left_child=-1
right_child=-2
leaf_value=5.2222455134856969e-07 -2.8859777860122305e-07
leaf_weight=21 38
leaf_count=21 38
internal_value=-1.44517e-16
internal_weight=59
internal_count=59
is_linear=0
shrinkage=0.1


Tree=26
num_leaves=2
num_cat=0
split_feature=53
split_gain=8.29613e-10
threshold=1886.1683520762047
decision_type=2
left_child=-1
right_child=-2
leaf_value=-2.6853108974952041e-07 5.2363560314461217e-07
leaf_weight=39 20
leaf_count=39 20
internal_value=-7.41253e-15
internal_weight=59
internal_count=59
is_linear=0
shrinkage=0.1


Tree=27
num_leaves=2
num_cat=0
split_feature=142
split_gain=8.32568e-10
threshold=3382.0000000000005
decision_type=2
left_child=-1
right_child=-2
leaf_value=-4.8716185545381249e-07 2.8966380162464216e-07
leaf_weight=22 37
leaf_count=22 37
internal_value=-2.7097e-15
internal_weight=59
internal_count=59
is_linear=0
shrinkage=0.1


Tree=28
num_leaves=2
num_cat=0
split_feature=69
split_gain=8.5061e-10
threshold=-0.0017459885485017754
decision_type=2
left_child=-1
right_child=-2
leaf_value=-2.7190789311522421e-07 5.3022038802197359e-07
leaf_weight=39 20
leaf_count=39 20
internal_value=-1.20431e-15
internal_weight=59
internal_count=59
is_linear=0
shrinkage=0.1


Tree=29
num_leaves=2
num_cat=0
split_feature=113
split_gain=8.0969e-10
threshold=0.0050265253194724325
decision_type=2
left_child=-1
right_child=-2
leaf_value=5.1730992261411763e-07 -2.6528713867253083e-07
leaf_weight=20 39
leaf_count=20 39
internal_value=7.46672e-16
internal_weight=59
internal_count=59
is_linear=0
shrinkage=0.1


Tree=30
num_leaves=2
num_cat=0
split_feature=8
split_gain=8.19121e-10
threshold=14546600344.694252
decision_type=2
left_child=-1
right_child=-2
leaf_value=2.6682754904728568e-07 -5.2031369008886945e-07
leaf_weight=39 20
leaf_count=39 20
internal_value=1.03571e-14
internal_weight=59
internal_count=59
is_linear=0
shrinkage=0.1


Tree=31
num_leaves=2
num_cat=0
split_feature=30
split_gain=7.96486e-10
threshold=0.00046465745920265539
decision_type=2
left_child=-1
right_child=-2
leaf_value=-2.6311510787571441e-07 5.1307445544157563e-07
leaf_weight=39 20
leaf_count=39 20
internal_value=-1.66646e-15
internal_weight=59
internal_count=59
is_linear=0
shrinkage=0.1


Tree=32
num_leaves=2
num_cat=0
split_feature=42
split_gain=7.90649e-10
threshold=4238030.3090000013
decision_type=2
left_child=-1
right_child=-2
leaf_value=-4.9243391596779225e-07 2.7213453258331069e-07
leaf_weight=21 38
leaf_count=21 38
internal_value=4.81724e-17
internal_weight=59
internal_count=59
is_linear=0
shrinkage=0.1


Tree=33
num_leaves=2
num_cat=0
split_feature=71
split_gain=7.84213e-10
threshold=-0.003037502115140311
decision_type=2
left_child=-1
right_child=-2
leaf_value=-4.9042557216964832e-07 2.7102466453087756e-07
leaf_weight=21 38
leaf_count=21 38
internal_value=4.01035e-15
internal_weight=59
internal_count=59
is_linear=0
shrinkage=0.1


Tree=34
num_leaves=2
num_cat=0
split_feature=91
split_gain=8.03399e-10
threshold=599.51086103848183
decision_type=2
left_child=-1
right_child=-2
leaf_value=2.8454442692030759e-07 -4.785520222195704e-07
leaf_weight=37 22
leaf_count=37 22
internal_value=-1.1742e-14
internal_weight=59
internal_count=59
is_linear=0
shrinkage=0.1


Tree=35
num_leaves=2
num_cat=0
split_feature=159
split_gain=7.7887e-10
threshold=92.500000000000014
decision_type=2
left_child=-1
right_child=-2
leaf_value=4.8875207528995133e-07 -2.7009983130567072e-07
leaf_weight=21 38
leaf_count=21 38
internal_value=-1.44517e-16
internal_weight=59
internal_count=59
is_linear=0
shrinkage=0.1


Tree=36
num_leaves=2
num_cat=0
split_feature=83
split_gain=7.78243e-10
threshold=23.515000000000004
decision_type=2
left_child=-1
right_child=-2
leaf_value=4.0916812387501105e-07 -3.2237490132453759e-07
leaf_weight=26 33
leaf_count=26 33
internal_value=-8.86372e-15
internal_weight=59
internal_count=59
is_linear=0
shrinkage=0.1


Tree=37
num_leaves=2
num_cat=0
split_feature=105
split_gain=7.84691e-10
threshold=0.27118914470634864
decision_type=2
left_child=-1
right_child=-2
leaf_value=-4.9057493092569925e-07 2.7110720137607221e-07
leaf_weight=21 38
leaf_count=21 38
internal_value=1.74324e-15
internal_weight=59
internal_count=59
is_linear=0
shrinkage=0.1


Tree=38
num_leaves=2
num_cat=0
split_feature=239
split_gain=7.75803e-10
threshold=14.071500000000002
decision_type=2
left_child=-1
right_child=-2
leaf_value=-4.877889623735482e-07 2.6956757905155795e-07
leaf_weight=21 38
leaf_count=21 38
internal_value=-3.48958e-15
internal_weight=59
internal_count=59
is_linear=0
shrinkage=0.1


Tree=39
num_leaves=2
num_cat=0
split_feature=50
split_gain=7.71126e-10
threshold=1876.4495000000004
decision_type=2
left_child=-1
right_child=-2
leaf_value=4.8631616250206986e-07 -2.687536573824601e-07
leaf_weight=21 38
leaf_count=21 38
internal_value=7.3222e-15
internal_weight=59
internal_count=59
is_linear=0
shrinkage=0.1


Tree=40
num_leaves=2
num_cat=0
split_feature=219
split_gain=7.52419e-10
threshold=0.0052969650577642576
decision_type=2
left_child=-1
right_child=-2
leaf_value=-3.632164139674614e-07 3.5110920211541463e-07
leaf_weight=29 30
leaf_count=29 30
internal_value=9.89933e-16
internal_weight=59
internal_count=59
is_linear=0
shrinkage=0.1


Tree=41
num_leaves=2
num_cat=0
split_feature=159
split_gain=7.34058e-10
threshold=343.00000000000006
decision_type=2
left_child=-1
right_child=-2
leaf_value=3.0246125637531535e-07 -4.1134730435032907e-07
leaf_weight=34 25
leaf_count=34 25
internal_value=1.83055e-15
internal_weight=59
internal_count=59
is_linear=0
shrinkage=0.1


Tree=42
num_leaves=2
num_cat=0
split_feature=83
split_gain=7.21347e-10
threshold=23.515000000000004
decision_type=2
left_child=-1
right_child=-2
leaf_value=3.9392750493378191e-07 -3.1036712824026513e-07
leaf_weight=26 33
leaf_count=26 33
internal_value=-1.75679e-15
internal_weight=59
internal_count=59
is_linear=0
shrinkage=0.1


Tree=43
num_leaves=2
num_cat=0
split_feature=112
split_gain=7.21753e-10
threshold=0.0056659825411721444
decision_type=2
left_child=-1
right_child=-2
leaf_value=-2.7956388441749725e-07 4.3757826576473278e-07
leaf_weight=36 23
leaf_count=36 23
internal_value=4.63659e-15
internal_weight=59
internal_count=59
is_linear=0
shrinkage=0.1


Tree=44
num_leaves=2
num_cat=0
split_feature=153
split_gain=7.39317e-10
threshold=139.05000000000004
decision_type=2
left_child=-1
right_child=-2
leaf_value=2.631522859269054e-07 -4.7618033865622541e-07
leaf_weight=38 21
leaf_count=38 21
internal_value=-4.17895e-15
internal_weight=59
internal_count=59
is_linear=0
shrinkage=0.1


Tree=45
num_leaves=2
num_cat=0
split_feature=40
split_gain=7.43442e-10
threshold=1873.7750000000003
decision_type=2
left_child=-1
right_child=-2
leaf_value=-2.7372100175638038e-07 4.6034893747498079e-07
leaf_weight=37 22
leaf_count=37 22
internal_value=-7.46672e-15
internal_weight=59
internal_count=59
is_linear=0
shrinkage=0.1


Tree=46
num_leaves=2
num_cat=0
split_feature=182
split_gain=7.23409e-10
threshold=0.0099616874028980468
decision_type=2
left_child=-1
right_child=-2
leaf_value=-2.6030584254649034e-07 4.7102963199292737e-07
leaf_weight=38 21
leaf_count=38 21
internal_value=4.32347e-15
internal_weight=59
internal_count=59
is_linear=0
shrinkage=0.1


Tree=47
num_leaves=2
num_cat=0
split_feature=246
split_gain=7.03649e-10
threshold=46.919639666932007
decision_type=2
left_child=-1
right_child=-2
leaf_value=-4.6455178734493621e-07 2.5672598709698755e-07
leaf_weight=21 38
leaf_count=21 38
internal_value=-4.1624e-16
internal_weight=59
internal_count=59
is_linear=0
shrinkage=0.1


Tree=48
num_leaves=2
num_cat=0
split_feature=163
split_gain=7.00613e-10
threshold=135.35000000000005
decision_type=2
left_child=-1
right_child=-2
leaf_value=-2.561715124845645e-07 4.635484717344493e-07
leaf_weight=38 21
leaf_count=38 21
internal_value=7.3222e-15
internal_weight=59
internal_count=59
is_linear=0
shrinkage=0.1


Tree=49
num_leaves=2
num_cat=0
split_feature=294
split_gain=7.06308e-10
threshold=0.70000000000000007
decision_type=2
left_child=-1
right_child=-2
leaf_value=-2.6679739183556131e-07 4.4870471118876116e-07
leaf_weight=37 22
leaf_count=37 22
internal_value=2.51249e-15
internal_weight=59
internal_count=59
is_linear=0
shrinkage=0.1


Tree=50
num_leaves=2
num_cat=0
split_feature=29
split_gain=6.96272e-10
threshold=0.96666316539911945
decision_type=2
left_child=-1
right_child=-2
leaf_value=3.7398696395872258e-07 -3.1555151576156963e-07
leaf_weight=27 32
leaf_count=27 32
internal_value=-8.09296e-15
internal_weight=59
internal_count=59
is_linear=0
shrinkage=0.1


Tree=51
num_leaves=2
num_cat=0
split_feature=152
split_gain=7.06916e-10
threshold=135.50000000000003
decision_type=2
left_child=-1
right_child=-2
leaf_value=2.4787946621859717e-07 -4.8336496805134743e-07
leaf_weight=39 20
leaf_count=39 20
internal_value=-3.02545e-15
internal_weight=59
internal_count=59
is_linear=0
shrinkage=0.1


Tree=52
num_leaves=2
num_cat=0
split_feature=257
split_gain=6.76182e-10
threshold=0.82117182892050733
decision_type=2
left_child=-1
right_child=-2
leaf_value=2.4243123740519973e-07 -4.7274091841131849e-07
leaf_weight=39 20
leaf_count=39 20
internal_value=-1.85464e-15
internal_weight=59
internal_count=59
is_linear=0
shrinkage=0.1


Tree=53
num_leaves=2
num_cat=0
split_feature=180
split_gain=6.93352e-10
threshold=1157.2000000000003
decision_type=2
left_child=-1
right_child=-2
leaf_value=-3.0428506725208784e-07 3.8620795171832126e-07
leaf_weight=33 26
leaf_count=33 26
internal_value=-8.04479e-15
internal_weight=59
internal_count=59
is_linear=0
shrinkage=0.1


Tree=54
num_leaves=2
num_cat=0
split_feature=239
split_gain=6.90719e-10
threshold=14.071500000000002
decision_type=2
left_child=-1
right_child=-2
leaf_value=-4.6026385993919965e-07 2.5435633996700724e-07
leaf_weight=21 38
leaf_count=21 38
internal_value=-2.37249e-15
internal_weight=59
internal_count=59
is_linear=0
shrinkage=0.1


Tree=55
num_leaves=2
num_cat=0
split_feature=73
split_gain=6.51351e-10
threshold=-0.014498282735929678
decision_type=2
left_child=-1
right_child=-2
leaf_value=-4.6397957291333115e-07 2.379382454347041e-07
leaf_weight=20 39
leaf_count=20 39
internal_value=1.9269e-15
internal_weight=59
internal_count=59
is_linear=0
shrinkage=0.1


Tree=56
num_leaves=2
num_cat=0
split_feature=113
split_gain=6.80777e-10
threshold=0.0050265253194724325
decision_type=2
left_child=-1
right_child=-2
leaf_value=4.7434442882021702e-07 -2.4325354827872468e-07
leaf_weight=20 39
leaf_count=20 39
internal_value=3.28024e-15
internal_weight=59
internal_count=59
is_linear=0
shrinkage=0.1


Tree=57
num_leaves=2
num_cat=0
split_feature=142
split_gain=6.55708e-10
threshold=3382.0000000000005
decision_type=2
left_child=-1
right_child=-2
leaf_value=-4.3233343240765204e-07 2.5706312404613408e-07
leaf_weight=22 37
leaf_count=22 37
internal_value=1.30065e-15
internal_weight=59
internal_count=59
is_linear=0
shrinkage=0.1


Tree=58
num_leaves=2
num_cat=0
split_feature=38
split_gain=6.34203e-10
threshold=1886.2450000000001
decision_type=2
left_child=-1
right_child=-2
leaf_value=-2.6206002286717955e-07 4.1018090831148313e-07
leaf_weight=36 23
leaf_count=36 23
internal_value=1.15162e-15
internal_weight=59
internal_count=59
is_linear=0
shrinkage=0.1


Tree=59
num_leaves=2
num_cat=0
split_feature=8
split_gain=6.58202e-10
threshold=14546600344.694252
decision_type=2
left_child=-1
right_child=-2
leaf_value=2.3918628285056727e-07 -4.6641326179042153e-07
leaf_weight=39 20
leaf_count=39 20
internal_value=-3.46841e-15
internal_weight=59
internal_count=59
is_linear=0
shrinkage=0.1


Tree=60
num_leaves=2
num_cat=0
split_feature=112
split_gain=6.5042e-10
threshold=0.0056659825411721444
decision_type=2
left_child=-1
right_child=-2
leaf_value=-2.6538951146311738e-07 4.1539230575743143e-07
leaf_weight=36 23
leaf_count=36 23
internal_value=1.05042e-14
internal_weight=59
internal_count=59
is_linear=0
shrinkage=0.1


Tree=61
num_leaves=2
num_cat=0
split_feature=256
split_gain=6.52704e-10
threshold=2098.0080000000003
decision_type=2
left_child=-1
right_child=-2
leaf_value=4.0166175961549775e-07 -2.7542520464456692e-07
leaf_weight=24 35
leaf_count=24 35
internal_value=1.15614e-15
internal_weight=59
internal_count=59
is_linear=0
shrinkage=0.1


Tree=62
num_leaves=2
num_cat=0
split_feature=34
split_gain=6.47828e-10
threshold=-0.00082340116663948127
decision_type=2
left_child=-1
right_child=-2
leaf_value=-4.4574453382953806e-07 2.4633252308357468e-07
leaf_weight=21 38
leaf_count=21 38
internal_value=1.13009e-14
internal_weight=59
internal_count=59
is_linear=0
shrinkage=0.1


Tree=63
num_leaves=2
num_cat=0
split_feature=159
split_gain=6.20714e-10
threshold=343.00000000000006
decision_type=2
left_child=-1
right_child=-2
leaf_value=2.7813158099246827e-07 -3.7825895549303826e-07
leaf_weight=34 25
leaf_count=34 25
internal_value=-2.2641e-15
internal_weight=59
internal_count=59
is_linear=0
shrinkage=0.1


Tree=64
num_leaves=2
num_cat=0
split_feature=83
split_gain=6.3874e-10
threshold=23.515000000000004
decision_type=2
left_child=-1
right_child=-2
leaf_value=3.7068626609263555e-07 -2.9205583736206002e-07
leaf_weight=26 33
leaf_count=26 33
internal_value=4.83831e-15
internal_weight=59
internal_count=59
is_linear=0
shrinkage=0.1


Tree=65
num_leaves=2
num_cat=0
split_feature=112
split_gain=6.08564e-10
threshold=0.0056659825411721444
decision_type=2
left_child=-1
right_child=-2
leaf_value=-2.5670817270414168e-07 4.0180410307940576e-07
leaf_weight=36 23
leaf_count=36 23
internal_value=2.60131e-15
internal_weight=59
internal_count=59
is_linear=0
shrinkage=0.1


Tree=66
num_leaves=2
num_cat=0
split_feature=93
split_gain=6.28877e-10
threshold=599.03289988053336
decision_type=2
left_child=-1
right_child=-2
leaf_value=2.4270283667249258e-07 -4.3917655995259904e-07
leaf_weight=38 21
leaf_count=38 21
internal_value=5.85596e-16
internal_weight=59
internal_count=59
is_linear=0
shrinkage=0.1


Tree=67
num_leaves=2
num_cat=0
split_feature=188
split_gain=6.22464e-10
threshold=0.039860374301572236
decision_type=2
left_child=-1
right_child=-2
leaf_value=4.2123123504015069e-07 -2.5046181777214942e-07
leaf_weight=22 37
leaf_count=22 37
internal_value=-1.46926e-15
internal_weight=59
internal_count=59
is_linear=0
shrinkage=0.1


Tree=68
num_leaves=2
num_cat=0
split_feature=113
split_gain=6.0533e-10
threshold=0.0050265253194724325
decision_type=2
left_child=-1
right_child=-2
leaf_value=4.4728829275086922e-07 -2.2937860630615861e-07
leaf_weight=20 39
leaf_count=20 39
internal_value=3.54368e-15
internal_weight=59
internal_count=59
is_linear=0
shrinkage=0.1


Tree=69
num_leaves=2
num_cat=0
split_feature=42
split_gain=5.91237e-10
threshold=4238030.3090000013
decision_type=2
left_child=-1
right_child=-2
leaf_value=-4.2583070039438012e-07 2.3532748424546108e-07
leaf_weight=21 38
leaf_count=21 38
internal_value=-5.20262e-15
internal_weight=59
internal_count=59
is_linear=0
shrinkage=0.1


Tree=70
num_leaves=2
num_cat=0
split_feature=259
split_gain=5.91183e-10
threshold=-0.0005328773488823545
decision_type=2
left_child=-1
right_child=-2
leaf_value=-2.3531675986501306e-07 4.2581127825006409e-07
leaf_weight=38 21
leaf_count=38 21
internal_value=-5.35918e-16
internal_weight=59
internal_count=59
is_linear=0
shrinkage=0.1


Tree=71
num_leaves=2
num_cat=0
split_feature=294
split_gain=6.25482e-10
threshold=1.0000000180025095e-35
decision_type=2
left_child=-1
right_child=-2
leaf_value=-4.2225119510807088e-07 2.510682850377456e-07
leaf_weight=22 37
leaf_count=22 37
internal_value=4.30541e-15
internal_weight=59
internal_count=59
is_linear=0
shrinkage=0.1


Tree=72
num_leaves=2
num_cat=0
split_feature=153
split_gain=5.97798e-10
threshold=139.05000000000004
decision_type=2
left_child=-1
right_child=-2
leaf_value=2.3662954518289288e-07 -4.2818682674448743e-07
leaf_weight=38 21
leaf_count=38 21
internal_value=-1.09269e-14
internal_weight=59
internal_count=59
is_linear=0
shrinkage=0.1


Tree=73
num_leaves=2
num_cat=0
split_feature=6
split_gain=5.82465e-10
threshold=17252.500000000004
decision_type=2
left_child=-1
right_child=-2
leaf_value=2.2500474071963396e-07 -4.3875925058500804e-07
leaf_weight=39 20
leaf_count=39 20
internal_value=-2.0955e-15
internal_weight=59
internal_count=59
is_linear=0
shrinkage=0.1


Tree=74
num_leaves=2
num_cat=0
split_feature=71
split_gain=5.73385e-10
threshold=-0.003037502115140311
decision_type=2
left_child=-1
right_child=-2
leaf_value=-4.1935245774095078e-07 2.3174740405993899e-07
leaf_weight=21 38
leaf_count=21 38
internal_value=-4.37767e-15
internal_weight=59
internal_count=59
is_linear=0
shrinkage=0.1


Tree=75
num_leaves=2
num_cat=0
split_feature=294
split_gain=5.64929e-10
threshold=1.0000000180025095e-35
decision_type=2
left_child=-1
right_child=-2
leaf_value=-4.0129206434581416e-07 2.3860609945636216e-07
leaf_weight=22 37
leaf_count=22 37
internal_value=4.47928e-15
internal_weight=59
internal_count=59
is_linear=0
shrinkage=0.1


Tree=76
num_leaves=2
num_cat=0
split_feature=152
split_gain=5.8405e-10
threshold=135.50000000000003
decision_type=2
left_child=-1
right_child=-2
leaf_value=2.2531070074959504e-07 -4.3935586390375648e-07
leaf_weight=39 20
leaf_count=39 20
internal_value=8.67103e-16
internal_weight=59
internal_count=59
is_linear=0
shrinkage=0.1


Tree=77
num_leaves=2
num_cat=0
split_feature=259
split_gain=5.69275e-10
threshold=-0.0007352229861782299
decision_type=2
left_child=-1
right_child=-2
leaf_value=-3.6224661656092397e-07 2.6635782516075156e-07
leaf_weight=25 34
leaf_count=25 34
internal_value=1.08719e-14
internal_weight=59
internal_count=59
is_linear=0
shrinkage=0.1


Tree=78
num_leaves=2
num_cat=0
split_feature=75
split_gain=5.56971e-10
threshold=0.0089075982074673116
decision_type=2
left_child=-1
right_child=-2
leaf_value=-3.7103836378153216e-07 2.5442630416705472e-07
leaf_weight=24 35
leaf_count=24 35
internal_value=-1.43915e-15
internal_weight=59
internal_count=59
is_linear=0
shrinkage=0.1


Tree=79
num_leaves=2
num_cat=0
split_feature=28
split_gain=5.59484e-10
threshold=348370.4714000001
decision_type=2
left_child=-1
right_child=-2
leaf_value=3.0276528946160401e-07 -3.1320547386595257e-07
leaf_weight=30 29
leaf_count=30 29
internal_value=-9.87534e-16
internal_weight=59
internal_count=59
is_linear=0
shrinkage=0.1


Tree=80
num_leaves=2
num_cat=0
split_feature=239
split_gain=5.65572e-10
threshold=14.071500000000002
decision_type=2
left_child=-1
right_child=-2
leaf_value=-4.1648578073723761e-07 2.3016319558325679e-07
leaf_weight=21 38
leaf_count=21 38
internal_value=6.21725e-16
internal_weight=59
internal_count=59
is_linear=0
shrinkage=0.1


Tree=81
num_leaves=2
num_cat=0
split_feature=257
split_gain=5.4035e-10
threshold=0.82117182892050733
decision_type=2
left_child=-1
right_child=-2
leaf_value=2.1671760197687736e-07 -4.2259936300581557e-07
leaf_weight=39 20
leaf_count=39 20
internal_value=-1.32715e-14
internal_weight=59
internal_count=59
is_linear=0
shrinkage=0.1


Tree=82
num_leaves=2
num_cat=0
split_feature=180
split_gain=5.3664e-10
threshold=1157.2000000000003
decision_type=2
left_child=-1
right_child=-2
leaf_value=-2.6769798248284534e-07 3.3977051241589173e-07
leaf_weight=33 26
leaf_count=33 26
internal_value=-1.68001e-15
internal_weight=59
internal_count=59
is_linear=0
shrinkage=0.1


Tree=83
num_leaves=2
num_cat=0
split_feature=75
split_gain=5.2776e-10
threshold=0.0089075982074673116
decision_type=2
left_child=-1
right_child=-2
leaf_value=-3.6117755731387059e-07 2.4766459984805673e-07
leaf_weight=24 35
leaf_count=24 35
internal_value=-6.4551e-15
internal_weight=59
internal_count=59
is_linear=0
shrinkage=0.1


Tree=84
num_leaves=2
num_cat=0
split_feature=69
split_gain=5.35749e-10
threshold=-0.0017459885485017754
decision_type=2
left_child=-1
right_child=-2
leaf_value=-2.1579306351399579e-07 4.2079649245962977e-07
leaf_weight=39 20
leaf_count=39 20
internal_value=6.30757e-15
internal_weight=59
internal_count=59
is_linear=0
shrinkage=0.1


Tree=85
num_leaves=2
num_cat=0
split_feature=182
split_gain=5.20788e-10
threshold=0.0099616874028980468
decision_type=2
left_child=-1
right_child=-2
leaf_value=-2.2086273581952524e-07 3.9965637659818076e-07
leaf_weight=38 21
leaf_count=38 21
internal_value=-8.91189e-16
internal_weight=59
internal_count=59
is_linear=0
shrinkage=0.1


Tree=86
num_leaves=2
num_cat=0
split_feature=88
split_gain=5.16992e-10
threshold=598.61234999999999
decision_type=2
left_child=-1
right_child=-2
leaf_value=3.2226195187945452e-07 -2.7190852045742843e-07
leaf_weight=27 32
leaf_count=27 32
internal_value=7.81484e-16
internal_weight=59
internal_count=59
is_linear=0
shrinkage=0.1


Tree=87
num_leaves=2
num_cat=0
split_feature=112
split_gain=5.12587e-10
threshold=0.0056659825411721444
decision_type=2
left_child=-1
right_child=-2
leaf_value=-2.3559749619847836e-07 3.6876128381604559e-07
leaf_weight=36 23
leaf_count=36 23
internal_value=-5.68434e-15
internal_weight=59
internal_count=59
is_linear=0
shrinkage=0.1


Tree=88
num_leaves=2
num_cat=0
split_feature=256
split_gain=5.32445e-10
threshold=2098.0080000000003
decision_type=2
left_child=-1
right_child=-2
leaf_value=3.6277719240492468e-07 -2.4876149286383916e-07
leaf_weight=24 35
leaf_count=24 35
internal_value=6.22854e-15
internal_weight=59
internal_count=59
is_linear=0
shrinkage=0.1


Tree=89
num_leaves=2
num_cat=0
split_feature=221
split_gain=5.21212e-10
threshold=0.0013246061039745574
decision_type=2
left_child=-1
right_child=-2
leaf_value=-2.2918798634534783e-07 3.8545251307117471e-07
leaf_weight=37 22
leaf_count=37 22
internal_value=-3.51207e-15
internal_weight=59
internal_count=59
is_linear=0
shrinkage=0.1


Tree=90
num_leaves=2
num_cat=0
split_feature=259
split_gain=5.33623e-10
threshold=-0.0007352229861782299
decision_type=2
left_child=-1
right_child=-2
leaf_value=-3.5072013832859741e-07 2.5788246656542041e-07
leaf_weight=25 34
leaf_count=25 34
internal_value=6.86457e-15
internal_weight=59
internal_count=59
is_linear=0
shrinkage=0.1


Tree=91
num_leaves=2
num_cat=0
split_feature=159
split_gain=5.02974e-10
threshold=343.00000000000006
decision_type=2
left_child=-1
right_child=-2
leaf_value=2.5036725086893649e-07 -3.4049946280845236e-07
leaf_weight=34 25
leaf_count=34 25
internal_value=-6.89279e-16
internal_weight=59
internal_count=59
is_linear=0
shrinkage=0.1


Tree=92
num_leaves=2
num_cat=0
split_feature=83
split_gain=4.98915e-10
threshold=23.515000000000004
decision_type=2
left_child=-1
right_child=-2
leaf_value=3.2761022022388998e-07 -2.5811713736625522e-07
leaf_weight=26 33
leaf_count=26 33
internal_value=3.26669e-15
internal_weight=59
internal_count=59
is_linear=0
shrinkage=0.1


Tree=93
num_leaves=2
num_cat=0
split_feature=105
split_gain=5.11503e-10
threshold=0.27118914470634864
decision_type=2
left_child=-1
right_child=-2
leaf_value=-3.9607756245156156e-07 2.1888495566817727e-07
leaf_weight=21 38
leaf_count=21 38
internal_value=-8.40834e-15
internal_weight=59
internal_count=59
is_linear=0
shrinkage=0.1


Tree=94
num_leaves=2
num_cat=0
split_feature=219
split_gain=5.0236e-10
threshold=0.0052969650577642576
decision_type=2
left_child=-1
right_child=-2
leaf_value=-2.9678593358833745e-07 2.8689307382497497e-07
leaf_weight=29 30
leaf_count=29 30
internal_value=2.38453e-15
internal_weight=59
internal_count=59
is_linear=0
shrinkage=0.1


Tree=95
num_leaves=2
num_cat=0
split_feature=8
split_gain=4.88173e-10
threshold=14546600344.694252
decision_type=2
left_child=-1
right_child=-2
leaf_value=2.0598871706020632e-07 -4.0167797784818047e-07
leaf_weight=39 20
leaf_count=39 20
internal_value=6.92177e-15
internal_weight=59
internal_count=59
is_linear=0
shrinkage=0.1


Tree=96
num_leaves=2
num_cat=0
split_feature=38
split_gain=4.94978e-10
threshold=1886.2450000000001
decision_type=2
left_child=-1
right_child=-2
leaf_value=-2.3151514317495035e-07 3.6237153474995348e-07
leaf_weight=36 23
leaf_count=36 23
internal_value=2.45679e-15
internal_weight=59
internal_count=59
is_linear=0
shrinkage=0.1


Tree=97
num_leaves=2
num_cat=0
split_feature=34
split_gain=4.71634e-10
threshold=-0.00082340116663948127
decision_type=2
left_child=-1
right_child=-2
leaf_value=-3.8032832891520321e-07 2.1018144268066634e-07
leaf_weight=21 38
leaf_count=21 38
internal_value=-1.44668e-15
internal_weight=59
internal_count=59
is_linear=0
shrinkage=0.1


Tree=98
num_leaves=2
num_cat=0
split_feature=8
split_gain=4.67008e-10
threshold=13919764457.880352
decision_type=2
left_child=-1
right_child=-2
leaf_value=3.3975403333404621e-07 -2.3297419113634174e-07
leaf_weight=24 35
leaf_count=24 35
internal_value=1.86856e-15
internal_weight=59
internal_count=59
is_linear=0
shrinkage=0.1


Tree=99
num_leaves=2
num_cat=0
split_feature=239
split_gain=4.72902e-10
threshold=14.071500000000002
decision_type=2
left_child=-1
right_child=-2
leaf_value=-3.8083938014616643e-07 2.1046386317000031e-07
leaf_weight=21 38
leaf_count=21 38
internal_value=-3.09508e-15
internal_weight=59
internal_count=59
is_linear=0
shrinkage=0.1


end of trees

feature_importances:
Column_239=7
Column_8=5
Column_83=5
Column_112=5
Column_159=5
Column_113=4
Column_259=4
Column_42=3
Column_50=3
Column_69=3
Column_75=3
Column_152=3
Column_153=3
Column_182=3
Column_257=3
Column_294=3
Column_29=2
Column_30=2
Column_34=2
Column_38=2
Column_65=2
Column_71=2
Column_91=2
Column_105=2
Column_142=2
Column_163=2
Column_180=2
Column_219=2
Column_256=2
Column_6=1
Column_7=1
Column_18=1
Column_28=1
Column_40=1
Column_53=1
Column_73=1
Column_88=1
Column_93=1
Column_188=1
Column_221=1
Column_246=1

parameters:
[boosting: gbdt]
[objective: regression]
[metric: rmse]
[tree_learner: serial]
[device_type: cpu]
[data_sample_strategy: bagging]
[data: ]
[valid: ]
[num_iterations: 100]
[learning_rate: 0.1]
[num_leaves: 31]
[num_threads: 0]
[seed: 0]
[deterministic: 0]
[force_col_wise: 0]
[force_row_wise: 0]
[histogram_pool_size: -1]
[max_depth: -1]
[min_data_in_leaf: 20]
[min_sum_hessian_in_leaf: 0.001]
[bagging_fraction: 1]
[pos_bagging_fraction: 1]
[neg_bagging_fraction: 1]
[bagging_freq: 0]
[bagging_seed: 3]
[bagging_by_query: 0]
[feature_fraction: 1]
[feature_fraction_bynode: 1]
[feature_fraction_seed: 2]
[extra_trees: 0]
[extra_seed: 6]
[early_stopping_round: 0]
[early_stopping_min_delta: 0]
[first_metric_only: 0]
[max_delta_step: 0]
[lambda_l1: 0]
[lambda_l2: 0]
[linear_lambda: 0]
[min_gain_to_split: 0]
[drop_rate: 0.1]
[max_drop: 50]
[skip_drop: 0.5]
[xgboost_dart_mode: 0]
[uniform_drop: 0]
[drop_seed: 4]
[top_rate: 0.2]
[other_rate: 0.1]
[min_data_per_group: 100]
[max_cat_threshold: 32]
[cat_l2: 10]
[cat_smooth: 10]
[max_cat_to_onehot: 4]
[top_k: 20]
[monotone_constraints: ]
[monotone_constraints_method: basic]
[monotone_penalty: 0]
[feature_contri: ]
[forcedsplits_filename: ]
[refit_decay_rate: 0.9]
[cegb_tradeoff: 1]
[cegb_penalty_split: 0]
[cegb_penalty_feature_lazy: ]
[cegb_penalty_feature_coupled: ]
[path_smooth: 0]
[interaction_constraints: ]
[verbosity: -1]
[saved_feature_importance_type: 0]
[use_quantized_grad: 0]
[num_grad_quant_bins: 4]
[quant_train_renew_leaf: 0]
[stochastic_rounding: 1]
[linear_tree: 0]
[max_bin: 255]
[max_bin_by_feature: ]
[min_data_in_bin: 3]
[bin_construct_sample_cnt: 200000]
[data_random_seed: 1]
[is_enable_sparse: 1]
[enable_bundle: 1]
[use_missing: 1]
[zero_as_missing: 0]
[feature_pre_filter: 1]
[pre_partition: 0]
[two_round: 0]
[header: 0]
[label_column: ]
[weight_column: ]
[group_column: ]
[ignore_column: ]
[categorical_feature: ]
[forcedbins_filename: ]
[precise_float_parser: 0]
[parser_config_file: ]
[objective_seed: 5]
[num_class: 1]
[is_unbalance: 0]
[scale_pos_weight: 1]
[sigmoid: 1]
[boost_from_average: 1]
[reg_sqrt: 0]
[alpha: 0.9]
[fair_c: 1]
[poisson_max_delta_step: 0.7]
[tweedie_variance_power: 1.5]
[lambdarank_truncation_level: 30]
[lambdarank_norm: 1]
[label_gain: ]
[lambdarank_position_bias_regularization: 0]
[eval_at: ]
[multi_error_top_k: 1]
[auc_mu_weights: ]
[num_machines: 1]
[local_listen_port: 12400]
[time_out: 120]
[machine_list_filename: ]
[machines: ]
[gpu_platform_id: -1]
[gpu_device_id: -1]
[gpu_use_dp: 0]
[num_gpu: 1]

end of parameters

pandas_categorical:null
