tree
version=v4
num_class=1
num_tree_per_iteration=1
label_index=0
max_feature_idx=303
objective=regression
feature_names=Column_0 Column_1 Column_2 Column_3 Column_4 Column_5 Column_6 Column_7 Column_8 Column_9 Column_10 Column_11 Column_12 Column_13 Column_14 Column_15 Column_16 Column_17 Column_18 Column_19 Column_20 Column_21 Column_22 Column_23 Column_24 Column_25 Column_26 Column_27 Column_28 Column_29 Column_30 Column_31 Column_32 Column_33 Column_34 Column_35 Column_36 Column_37 Column_38 Column_39 Column_40 Column_41 Column_42 Column_43 Column_44 Column_45 Column_46 Column_47 Column_48 Column_49 Column_50 Column_51 Column_52 Column_53 Column_54 Column_55 Column_56 Column_57 Column_58 Column_59 Column_60 Column_61 Column_62 Column_63 Column_64 Column_65 Column_66 Column_67 Column_68 Column_69 Column_70 Column_71 Column_72 Column_73 Column_74 Column_75 Column_76 Column_77 Column_78 Column_79 Column_80 Column_81 Column_82 Column_83 Column_84 Column_85 Column_86 Column_87 Column_88 Column_89 Column_90 Column_91 Column_92 Column_93 Column_94 Column_95 Column_96 Column_97 Column_98 Column_99 Column_100 Column_101 Column_102 Column_103 Column_104 Column_105 Column_106 Column_107 Column_108 Column_109 Column_110 Column_111 Column_112 Column_113 Column_114 Column_115 Column_116 Column_117 Column_118 Column_119 Column_120 Column_121 Column_122 Column_123 Column_124 Column_125 Column_126 Column_127 Column_128 Column_129 Column_130 Column_131 Column_132 Column_133 Column_134 Column_135 Column_136 Column_137 Column_138 Column_139 Column_140 Column_141 Column_142 Column_143 Column_144 Column_145 Column_146 Column_147 Column_148 Column_149 Column_150 Column_151 Column_152 Column_153 Column_154 Column_155 Column_156 Column_157 Column_158 Column_159 Column_160 Column_161 Column_162 Column_163 Column_164 Column_165 Column_166 Column_167 Column_168 Column_169 Column_170 Column_171 Column_172 Column_173 Column_174 Column_175 Column_176 Column_177 Column_178 Column_179 Column_180 Column_181 Column_182 Column_183 Column_184 Column_185 Column_186 Column_187 Column_188 Column_189 Column_190 Column_191 Column_192 Column_193 Column_194 Column_195 Column_196 Column_197 Column_198 Column_199 Column_200 Column_201 Column_202 Column_203 Column_204 Column_205 Column_206 Column_207 Column_208 Column_209 Column_210 Column_211 Column_212 Column_213 Column_214 Column_215 Column_216 Column_217 Column_218 Column_219 Column_220 Column_221 Column_222 Column_223 Column_224 Column_225 Column_226 Column_227 Column_228 Column_229 Column_230 Column_231 Column_232 Column_233 Column_234 Column_235 Column_236 Column_237 Column_238 Column_239 Column_240 Column_241 Column_242 Column_243 Column_244 Column_245 Column_246 Column_247 Column_248 Column_249 Column_250 Column_251 Column_252 Column_253 Column_254 Column_255 Column_256 Column_257 Column_258 Column_259 Column_260 Column_261 Column_262 Column_263 Column_264 Column_265 Column_266 Column_267 Column_268 Column_269 Column_270 Column_271 Column_272 Column_273 Column_274 Column_275 Column_276 Column_277 Column_278 Column_279 Column_280 Column_281 Column_282 Column_283 Column_284 Column_285 Column_286 Column_287 Column_288 Column_289 Column_290 Column_291 Column_292 Column_293 Column_294 Column_295 Column_296 Column_297 Column_298 Column_299 Column_300 Column_301 Column_302 Column_303
feature_infos=[81310.699999999997:83767.600000000006] [81709.5:83996.800000000003] [80772.699999999997:83591.100000000006] [81522.600000000006:83767.600000000006] [16.216999999999999:519567.147] [1342952.9776999999:42766023081.626999] [305:26512] [5.7539999999999996:347301.33399999997] [476723.58399999997:28858521227.433701] none [-0.020451608180643201:0.0132035732442443] [81883.960000000006:83564.040000000037] [82166.260000000024:83413.000000000015] [82360.255000000019:83180.785000000003] none [81973.912592592591:83513.117133512729] [82283.729012061973:83278.058493636257] [82387.500000000015:83070.89543111778] [33.531226560563695:58.019623309803073] [-137.01371223118622:254.65997695669648] [-72.674571718987352:274.62720548778049] [-82.73620407882413:-17.459272261954844] [83078.6344177641:84300.378536378921] [82360.255000000019:83180.785000000003] [81157.015235594765:82575.676433630069] [0.0062734365927687467:0.03375053706821065] [253.34828807906607:801.11625624739452] [-397993.72600000002:2962719.5389999999] [124.6237999999712:476604.57559999998] [0.0010740497966491706:4.8898893446436151] [-0.013208158449546703:0.012170745952455819] [-0.00908231454745978:0.013404662460696937] none [-0.020451608180643288:0.013203573244244371] [-0.025012902485878952:0.017534134671490342] [-0.020575429625927399:0.021171315149312031] [0.00028438960984421442:0.012198083257131851] [0.00030429044592285515:0.0089761194103503417] [1843.48:1975.4300000000001] [1847.51:2130] [1831.1500000000001:1925.1700000000001] [1843.48:1979.4400000000001] [206473.20999999999:9172138.0199999996] [402697375.54528999:17096335181.288879] [5545:34835] [122622.27099999999:6781066.5700000003] [245015594.66835001:12556405265.35063] none [-0.031741300569858202:0.052322675994938797] [1847.8700000000019:1913.0639999999999] [1853.7180000000003:1901.4169999999999] [1866.329500000001:1892] none [1850.2178421019441:1913.9579122085047] [1856.2475615255096:1904.1793636363636] [1864.2028330845246:1892] [37.95975647493605:59.976986541215538] [-10.22640284146587:3.917675945936935] [-8.3644613548140594:-1.5897812789880268] none [1897.4220420825523:1953.4428993456488] [1866.329500000001:1892] [1826.7845406227193:1856.4549984977227] [0.027836701666582839:0.064950210724787322] [23.160945130404205:136.28826530612247] [-50803285.997999996:12465436.407999998] [2450287.5629999996:6946710.4572000001] [0.06601264629508527:2.1706536822159834] [-0.020924209017690543:0.047127730708354854] [-0.015287118897024832:0.015325095969289659] none [-0.031741300569858244:0.052322675994938894] [-0.046720284524916167:0.069996486391524115] [-0.03337307521319155:0.046381561558386686] [0.0024713458640333065:0.026540429759473735] [0.0043339811666184072:0.020312621111825798] [596.11099999999999:602.34199999999998] none none [596.11099999999999:602.34199999999998] [0.32000000000000001:1420.03] [190.75551999999999:850519.83193999995] [1:357] [0:634.50999999999999] [0:382192.02241999999] none none [597.35719999999992:602.3420000000001] [597.35719999999992:601.11369999999977] [598.61235000000011:599.84960000000012] none [596.66486666666663:602.05953075301591] [597.35719999999992:601.26926025260434] [598.29674923907373:600.37860898318718] [44.738757264453412:60.000000000000007] none none none [604.7030621512904:605.95470823490575] [598.61235000000011:599.84960000000012] [592.52163784869072:593.74449176509449] none [5.2515049419000386:6.1362266031154471] [-444.61999999999989:1131.02] [27.809999999999995:393.00799999999992] [0.0016914392033321353:4.4933977258833604] [-0.0082928544834285356:0.0083447558680134204] [-0.0057161509598934179:0.0062304929058010217] none none none none [0:0.0057252076472585744] [0.0042990257650694936:0.0055090836271848211] none none none none [0:236251] [0:207499.25330000001] [0:7] none none none none none none [0.87829999999999975:0.87832499999999969] none [0.87829999999999997:0.87838683127572015] [0.87830000000000008:0.87836333521679466] [0.87829999999999975:0.87833937223883529] [0:100] [-5.44827801918224e-06:8.9481345363351394e-06] [-4.450025049887629e-06:1.4253289957324692e-05] none [0.87829999999999975:0.87832499999999969] [0.87829999999999975:0.87832499999999969] [0.87829999999999975:0.87832499999999969] none [0:1.2074010935068243e-05] [-162956:137] [0:85165.399999999994] [0:5] none none none none none none none none [123.59999999999999:145.90000000000001] [135.09999999999999:145.90000000000001] [116.09999999999999:139] [116.09999999999999:145.90000000000001] [1:4843] [139:655476.90000000002] [1:593] [0:2938] [0:408373.79999999999] none [-0.17012151536812009:0.12459546925566339] [122.22:141.17999999999998] [124.56999999999998:140.5] [128.32999999999998:138.46999999999989] none [124.91012345679013:142.18992177288871] [125.833641827744:140.4399784615722] [128.32999999999998:138.41474948229273] [42.45105779143536:57.666126246674679] [-0.61774545078250753:4.1758674123702235] none [-2.0393783377981829:0.70971359005390156] [142.24159228844869:150.5158306657454] [128.32999999999998:138.46999999999989] [114.27633111849431:127.19913490453813] [0.13538208864917398:0.23507337233806389] [5.6498525790258958:15.950000000000006] [-4128:5994] [158.80000000000001:2155] [0.00051041241322988978:3.7531486146095716] [-0.10361334156886981:0.095598674869853406] [-0.095244977597917946:0.10262998790810185] none [-0.17012151536812015:0.12459546925566345] [-0.11508220157255189:0.12459546925566345] [-0.14010989010989006:0.19638242894056868] [0.00040452182979170277:0.083886297551424238] [0.0003892513121405356:0.06659721885433538] none none none none [0:1481789] [0:281539.90999999997] [0:6] none none none none none [0.18999999999999997:0.19201200000000002] [0.18999999999999997:0.1910065] none [0.19:0.1963743605028592] [0.18999999999999997:0.19352266517501815] [0.19002849999999999:0.19185749191674994] none [-0.00011123358752271328:2.2523045820926901e-05] [-8.6208555203468241e-05:0.00036175638018283592] [-0.00033923333436190902:1.3109151873769961e-05] [0.18999999999999997:0.19926926533613518] [0.18999999999999997:0.1910065] [0.18266809200726891:0.18999999999999997] [0:0.086744257582938675] [0.00027657696416179262:0.0029629605774709614] [-2494:526] [0:411699.79999999999] [0:5] none [-0.0052694541808786521:0.094203600401033372] none none none none none [0:0.031622776601683757] [14.067:14.087] [14.067:14.087] none [14.067:14.087] [0:42656.010000000002] [0:600606.11276000005] [0:55] [0:25263.5] [0:355886.92450000002] none none [14.066999999999984:14.086200000000002] [14.068999999999985:14.084200000000001] [14.071000000000003:14.079650000000004] none [14.067323500726483:14.085333939233141] [14.068419772902541:14.082851880968255] [14.070348269361384:14.079333063386418] [41.362055469129345:54.731277772396794] none none none [14.087000000001121:14.098108376467623] [14.071000000000003:14.079650000000004] [14.054669697215409:14.061273112355874] [0.0022741809396798151:0.002841514528905369] [0.0098778147919487223:0.01760512052106003] [-70887.639999999999:3.5499999999999998] [2.4328983272425829e-12:12041.762000000002] [0:4.6785525007699604] [-0.0011361215650067535:0.0011370904697614037] [-0.00089491178726697207:0.00085257548845474318] none none none none [0:0.00077873399801680276] [0.00042962017011337355:0.0007493371389701765] none none none none none none none none none none none none none none none none none none none none none none none none none none none none [0:118.40000000000001] none none none none none none none none none
tree_sizes=322 326 315 326 325 326 326 324 325 325 328 326 328 327 327 332 328 333 327 329 330 328 332 327 329 328 330 329 327 330 332 328 332 330 328 333 329 331 332 329 329 329 328 331 331 332 330 331 329 330 332 329 333 331 330 329 329 330 334 331 332 331 330 329 330 332 328 330 329 333 335 329 330 331 333 329 330 333 327 330 332 335 328 331 330 331 328 329 330 328 333 331 330 330 333 334 330 329 330 331

Tree=0
num_leaves=2
num_cat=0
split_feature=155
split_gain=0.0558575
threshold=135.35000000000005
decision_type=2
left_child=-1
right_child=-2
leaf_value=0.005243004882571763 -0.0010206407447257426
leaf_weight=35 24
leaf_count=35 24
internal_value=0.00269508
internal_weight=59
internal_count=59
is_linear=0
shrinkage=1


Tree=1
num_leaves=2
num_cat=0
split_feature=155
split_gain=0.0463358
threshold=135.25000000000003
decision_type=2
left_child=-1
right_child=-2
leaf_value=0.0027553123530621331 -0.0028503230546103341
leaf_weight=30 29
leaf_count=30 29
internal_value=3.40367e-11
internal_weight=59
internal_count=59
is_linear=0
shrinkage=0.1


Tree=2
num_leaves=2
num_cat=0
split_feature=83
split_gain=0.0379759
threshold=33.025000000000006
decision_type=2
left_child=-1
right_child=-2
leaf_value=-0.0023304233451199251 0.0027619832238458372
leaf_weight=32 27
leaf_count=32 27
internal_value=0
internal_weight=59
internal_count=59
is_linear=0
shrinkage=0.1


Tree=3
num_leaves=2
num_cat=0
split_feature=155
split_gain=0.0368262
threshold=135.35000000000005
decision_type=2
left_child=-1
right_child=-2
leaf_value=0.002068827707844321 -0.0030170404247958989
leaf_weight=35 24
leaf_count=35 24
internal_value=-7.12797e-12
internal_weight=59
internal_count=59
is_linear=0
shrinkage=0.1


Tree=4
num_leaves=2
num_cat=0
split_feature=155
split_gain=0.030009
threshold=135.25000000000003
decision_type=2
left_child=-1
right_child=-2
leaf_value=0.0022173710136363903 -0.0022938319979685135
leaf_weight=30 29
leaf_count=30 29
internal_value=4.18306e-11
internal_weight=59
internal_count=59
is_linear=0
shrinkage=0.1


Tree=5
num_leaves=2
num_cat=0
split_feature=83
split_gain=0.0285255
threshold=33.025000000000006
decision_type=2
left_child=-1
right_child=-2
leaf_value=-0.0020197481485411117 0.0023937755523042547
leaf_weight=32 27
leaf_count=32 27
internal_value=-1.42559e-11
internal_weight=59
internal_count=59
is_linear=0
shrinkage=0.1


Tree=6
num_leaves=2
num_cat=0
split_feature=155
split_gain=0.0242742
threshold=135.35000000000005
decision_type=2
left_child=-1
right_child=-2
leaf_value=0.0016796471817152844 -0.0024494854568426188
leaf_weight=35 24
leaf_count=35 24
internal_value=6.70868e-12
internal_weight=59
internal_count=59
is_linear=0
shrinkage=0.1


Tree=7
num_leaves=2
num_cat=0
split_feature=83
split_gain=0.0224597
threshold=33.025000000000006
decision_type=2
left_child=-1
right_child=-2
leaf_value=-0.0017921849299455063 0.0021240710959925008
leaf_weight=32 27
leaf_count=32 27
internal_value=3.1077e-11
internal_weight=59
internal_count=59
is_linear=0
shrinkage=0.1


Tree=8
num_leaves=2
num_cat=0
split_feature=155
split_gain=0.0190891
threshold=135.35000000000005
decision_type=2
left_child=-1
right_child=-2
leaf_value=0.001489493557518082 -0.0021721780659087627
leaf_weight=35 24
leaf_count=35 24
internal_value=1.57851e-11
internal_weight=59
internal_count=59
is_linear=0
shrinkage=0.1


Tree=9
num_leaves=2
num_cat=0
split_feature=83
split_gain=0.0176841
threshold=33.025000000000006
decision_type=2
left_child=-1
right_child=-2
leaf_value=-0.0015902750063105488 0.0018847702804056033
leaf_weight=32 27
leaf_count=32 27
internal_value=-4.4593e-11
internal_weight=59
internal_count=59
is_linear=0
shrinkage=0.1


Tree=10
num_leaves=2
num_cat=0
split_feature=155
split_gain=0.0150113
threshold=135.35000000000005
decision_type=2
left_child=-1
right_child=-2
leaf_value=0.0013208550294595105 -0.0019262469499759999
leaf_weight=35 24
leaf_count=35 24
internal_value=-1.30227e-11
internal_weight=59
internal_count=59
is_linear=0
shrinkage=0.1


Tree=11
num_leaves=2
num_cat=0
split_feature=83
split_gain=0.0139242
threshold=33.025000000000006
decision_type=2
left_child=-1
right_child=-2
leaf_value=-0.0014111250824498712 0.001672444494303178
leaf_weight=32 27
leaf_count=32 27
internal_value=-2.19019e-11
internal_weight=59
internal_count=59
is_linear=0
shrinkage=0.1


Tree=12
num_leaves=2
num_cat=0
split_feature=155
split_gain=0.0118044
threshold=135.35000000000005
decision_type=2
left_child=-1
right_child=-2
leaf_value=0.0011712984554469587 -0.0017081435820728076
leaf_weight=35 24
leaf_count=35 24
internal_value=-4.93285e-13
internal_weight=59
internal_count=59
is_linear=0
shrinkage=0.1


Tree=13
num_leaves=2
num_cat=0
split_feature=83
split_gain=0.0109639
threshold=33.025000000000006
decision_type=2
left_child=-1
right_child=-2
leaf_value=-0.0012521686039690394 0.0014840516296249851
leaf_weight=32 27
leaf_count=32 27
internal_value=-2.24938e-11
internal_weight=59
internal_count=59
is_linear=0
shrinkage=0.1


Tree=14
num_leaves=2
num_cat=0
split_feature=170
split_gain=0.0108826
threshold=52.667381854739538
decision_type=2
left_child=-1
right_child=-2
leaf_value=0.0013352974768107136 -0.0013813421186380861
leaf_weight=30 29
leaf_count=30 29
internal_value=4.85393e-11
internal_weight=59
internal_count=59
is_linear=0
shrinkage=0.1


Tree=15
num_leaves=2
num_cat=0
split_feature=68
split_gain=0.0096839
threshold=-0.0059670348231817818
decision_type=2
left_child=-1
right_child=-2
leaf_value=-0.0017233812649335182 0.00095239488260918546
leaf_weight=21 38
leaf_count=21 38
internal_value=-1.73636e-11
internal_weight=59
internal_count=59
is_linear=0
shrinkage=0.1


Tree=16
num_leaves=2
num_cat=0
split_feature=155
split_gain=0.00968877
threshold=135.25000000000003
decision_type=2
left_child=-1
right_child=-2
leaf_value=0.0012599307702233394 -0.0013033766550381251
leaf_weight=30 29
leaf_count=30 29
internal_value=1.87448e-12
internal_weight=59
internal_count=59
is_linear=0
shrinkage=0.1


Tree=17
num_leaves=2
num_cat=0
split_feature=68
split_gain=0.00851477
threshold=-0.0059670348231817818
decision_type=2
left_child=-1
right_child=-2
leaf_value=-0.0016160051357084221 0.00089305543377505333
leaf_weight=21 38
leaf_count=21 38
internal_value=-2.31597e-11
internal_weight=59
internal_count=59
is_linear=0
shrinkage=0.1


Tree=18
num_leaves=2
num_cat=0
split_feature=155
split_gain=0.00847611
threshold=135.25000000000003
decision_type=2
left_child=-1
right_child=-2
leaf_value=0.001178448776093622 -0.0012190848817759804
leaf_weight=30 29
leaf_count=30 29
internal_value=2.90052e-11
internal_weight=59
internal_count=59
is_linear=0
shrinkage=0.1


Tree=19
num_leaves=2
num_cat=0
split_feature=80
split_gain=0.00810375
threshold=40.085000000000008
decision_type=2
left_child=-1
right_child=-2
leaf_value=-0.0015765191288664938 0.00087123422846688248
leaf_weight=21 38
leaf_count=21 38
internal_value=-1.73636e-11
internal_weight=59
internal_count=59
is_linear=0
shrinkage=0.1


Tree=20
num_leaves=2
num_cat=0
split_feature=228
split_gain=0.00778707
threshold=14.067500000000001
decision_type=2
left_child=-1
right_child=-2
leaf_value=0.0014373031171524655 -0.00091827699927509658
leaf_weight=23 36
leaf_count=23 36
internal_value=-4.73554e-12
internal_weight=59
internal_count=59
is_linear=0
shrinkage=0.1


Tree=21
num_leaves=2
num_cat=0
split_feature=83
split_gain=0.00712087
threshold=33.025000000000006
decision_type=2
left_child=-1
right_child=-2
leaf_value=-0.0010091308236951592 0.0011960068950429559
leaf_weight=32 27
leaf_count=32 27
internal_value=-3.25568e-12
internal_weight=59
internal_count=59
is_linear=0
shrinkage=0.1


Tree=22
num_leaves=2
num_cat=0
split_feature=68
split_gain=0.0066936
threshold=-0.0059670348231817818
decision_type=2
left_child=-1
right_child=-2
leaf_value=-0.0014328012869338552 0.00079181122633407975
leaf_weight=21 38
leaf_count=21 38
internal_value=-7.20196e-12
internal_weight=59
internal_count=59
is_linear=0
shrinkage=0.1


Tree=23
num_leaves=2
num_cat=0
split_feature=155
split_gain=0.00716519
threshold=135.25000000000003
decision_type=2
left_child=-1
right_child=-2
leaf_value=0.0010834935133849893 -0.0011208553391544886
leaf_weight=30 29
leaf_count=30 29
internal_value=9.5944e-12
internal_weight=59
internal_count=59
is_linear=0
shrinkage=0.1


Tree=24
num_leaves=2
num_cat=0
split_feature=228
split_gain=0.00630632
threshold=14.067500000000001
decision_type=2
left_child=-1
right_child=-2
leaf_value=0.0012934494135982317 -0.00082637042958392875
leaf_weight=23 36
leaf_count=23 36
internal_value=1.77583e-11
internal_weight=59
internal_count=59
is_linear=0
shrinkage=0.1


Tree=25
num_leaves=2
num_cat=0
split_feature=155
split_gain=0.00603269
threshold=135.25000000000003
decision_type=2
left_child=-1
right_child=-2
leaf_value=0.000994186540095446 -0.0010284689144100412
leaf_weight=30 29
leaf_count=30 29
internal_value=-3.92378e-11
internal_weight=59
internal_count=59
is_linear=0
shrinkage=0.1


Tree=26
num_leaves=2
num_cat=0
split_feature=188
split_gain=0.00622664
threshold=0.040940072763507078
decision_type=2
left_child=-1
right_child=-2
leaf_value=0.0010809428139639619 -0.00097633541201151198
leaf_weight=28 31
leaf_count=28 31
internal_value=1.7265e-11
internal_weight=59
internal_count=59
is_linear=0
shrinkage=0.1


Tree=27
num_leaves=2
num_cat=0
split_feature=80
split_gain=0.00565361
threshold=40.085000000000008
decision_type=2
left_child=-1
right_child=-2
leaf_value=-0.0013167978444557993 0.00072770405087411701
leaf_weight=21 38
leaf_count=21 38
internal_value=-1.35653e-11
internal_weight=59
internal_count=59
is_linear=0
shrinkage=0.1


Tree=28
num_leaves=2
num_cat=0
split_feature=228
split_gain=0.005216
threshold=14.067500000000001
decision_type=2
left_child=-1
right_child=-2
leaf_value=0.001176332857247199 -0.00075154600878401352
leaf_weight=23 36
leaf_count=23 36
internal_value=-1.01617e-11
internal_weight=59
internal_count=59
is_linear=0
shrinkage=0.1


Tree=29
num_leaves=2
num_cat=0
split_feature=155
split_gain=0.00527556
threshold=135.25000000000003
decision_type=2
left_child=-1
right_child=-2
leaf_value=0.00092970840710525707 -0.00096176730698187328
leaf_weight=30 29
leaf_count=30 29
internal_value=5.26582e-12
internal_weight=59
internal_count=59
is_linear=0
shrinkage=0.1


Tree=30
num_leaves=2
num_cat=0
split_feature=188
split_gain=0.00519961
threshold=0.040940072763507078
decision_type=2
left_child=-1
right_child=-2
leaf_value=0.00098778253367137444 -0.00089219063689421505
leaf_weight=28 31
leaf_count=28 31
internal_value=2.03234e-11
internal_weight=59
internal_count=59
is_linear=0
shrinkage=0.1


Tree=31
num_leaves=2
num_cat=0
split_feature=83
split_gain=0.0048671
threshold=33.025000000000006
decision_type=2
left_child=-1
right_child=-2
leaf_value=-0.00083428806610754693 0.00098878587062548235
leaf_weight=32 27
leaf_count=32 27
internal_value=6.63469e-12
internal_weight=59
internal_count=59
is_linear=0
shrinkage=0.1


Tree=32
num_leaves=2
num_cat=0
split_feature=68
split_gain=0.00464723
threshold=-0.0059670348231817818
decision_type=2
left_child=-1
right_child=-2
leaf_value=-0.001193860176551555 0.00065976482751705734
leaf_weight=21 38
leaf_count=21 38
internal_value=-4.43957e-12
internal_weight=59
internal_count=59
is_linear=0
shrinkage=0.1


Tree=33
num_leaves=2
num_cat=0
split_feature=155
split_gain=0.0046868
threshold=135.25000000000003
decision_type=2
left_child=-1
right_child=-2
leaf_value=0.00087629564192487428 -0.00090651274698882794
leaf_weight=30 29
leaf_count=30 29
internal_value=-6.86322e-12
internal_weight=59
internal_count=59
is_linear=0
shrinkage=0.1


Tree=34
num_leaves=2
num_cat=0
split_feature=228
split_gain=0.00419354
threshold=14.067500000000001
decision_type=2
left_child=-1
right_child=-2
leaf_value=0.0010547559650149196 -0.00067387182789389053
leaf_weight=23 36
leaf_count=23 36
internal_value=2.3579e-11
internal_weight=59
internal_count=59
is_linear=0
shrinkage=0.1


Tree=35
num_leaves=2
num_cat=0
split_feature=188
split_gain=0.00396551
threshold=0.040940072763507078
decision_type=2
left_child=-1
right_child=-2
leaf_value=0.00086263142542780517 -0.00077915101602200366
leaf_weight=28 31
leaf_count=28 31
internal_value=-2.68594e-11
internal_weight=59
internal_count=59
is_linear=0
shrinkage=0.1


Tree=36
num_leaves=2
num_cat=0
split_feature=163
split_gain=0.00420292
threshold=133.21000000000001
decision_type=2
left_child=-1
right_child=-2
leaf_value=0.0008880782015954279 -0.00080213514381959549
leaf_weight=28 31
leaf_count=28 31
internal_value=3.15703e-12
internal_weight=59
internal_count=59
is_linear=0
shrinkage=0.1


Tree=37
num_leaves=2
num_cat=0
split_feature=155
split_gain=0.00402247
threshold=135.25000000000003
decision_type=2
left_child=-1
right_child=-2
leaf_value=0.00081181822616296527 -0.00083981197696692987
leaf_weight=30 29
leaf_count=30 29
internal_value=-9.27376e-12
internal_weight=59
internal_count=59
is_linear=0
shrinkage=0.1


Tree=38
num_leaves=2
num_cat=0
split_feature=68
split_gain=0.00386515
threshold=-0.0059670348231817818
decision_type=2
left_child=-1
right_child=-2
leaf_value=-0.0010887783580637049 0.00060169331861145215
leaf_weight=21 38
leaf_count=21 38
internal_value=9.96436e-12
internal_weight=59
internal_count=59
is_linear=0
shrinkage=0.1


Tree=39
num_leaves=2
num_cat=0
split_feature=232
split_gain=0.00367482
threshold=165.74500000000003
decision_type=2
left_child=-1
right_child=-2
leaf_value=-0.0010234850961503318 0.00060855872249482453
leaf_weight=22 37
leaf_count=22 37
internal_value=1.04576e-11
internal_weight=59
internal_count=59
is_linear=0
shrinkage=0.1


Tree=40
num_leaves=2
num_cat=0
split_feature=80
split_gain=0.00359024
threshold=40.085000000000008
decision_type=2
left_child=-1
right_child=-2
leaf_value=-0.0010493438446982986 0.00057990054276735087
leaf_weight=21 38
leaf_count=21 38
internal_value=-1.92381e-12
internal_weight=59
internal_count=59
is_linear=0
shrinkage=0.1


Tree=41
num_leaves=2
num_cat=0
split_feature=228
split_gain=0.00357525
threshold=14.067500000000001
decision_type=2
left_child=-1
right_child=-2
leaf_value=0.00097390067758565044 -0.00062221429301037763
leaf_weight=23 36
leaf_count=23 36
internal_value=1.7561e-11
internal_weight=59
internal_count=59
is_linear=0
shrinkage=0.1


Tree=42
num_leaves=2
num_cat=0
split_feature=163
split_gain=0.0034451
threshold=133.21000000000001
decision_type=2
left_child=-1
right_child=-2
leaf_value=0.00080403856014267408 -0.00072622835117902964
leaf_weight=28 31
leaf_count=28 31
internal_value=1.3516e-11
internal_weight=59
internal_count=59
is_linear=0
shrinkage=0.1


Tree=43
num_leaves=2
num_cat=0
split_feature=188
split_gain=0.00376461
threshold=0.040940072763507078
decision_type=2
left_child=-1
right_child=-2
leaf_value=0.00084049640323168463 -0.00075915803899988536
leaf_weight=28 31
leaf_count=28 31
internal_value=1.3812e-12
internal_weight=59
internal_count=59
is_linear=0
shrinkage=0.1


Tree=44
num_leaves=2
num_cat=0
split_feature=155
split_gain=0.00349774
threshold=135.25000000000003
decision_type=2
left_child=-1
right_child=-2
leaf_value=0.00075701781267222641 -0.00078312188772291971
leaf_weight=30 29
leaf_count=30 29
internal_value=-6.16607e-12
internal_weight=59
internal_count=59
is_linear=0
shrinkage=0.1


Tree=45
num_leaves=2
num_cat=0
split_feature=188
split_gain=0.00324014
threshold=0.040940072763507078
decision_type=2
left_child=-1
right_child=-2
leaf_value=0.00077975396790342147 -0.00070429390499127976
leaf_weight=28 31
leaf_count=28 31
internal_value=7.89256e-13
internal_weight=59
internal_count=59
is_linear=0
shrinkage=0.1


Tree=46
num_leaves=2
num_cat=0
split_feature=163
split_gain=0.00340817
threshold=133.21000000000001
decision_type=2
left_child=-1
right_child=-2
leaf_value=0.00079971752784331336 -0.00072232547756885329
leaf_weight=28 31
leaf_count=28 31
internal_value=1.65251e-11
internal_weight=59
internal_count=59
is_linear=0
shrinkage=0.1


Tree=47
num_leaves=2
num_cat=0
split_feature=194
split_gain=0.00323136
threshold=1401.0000000000002
decision_type=2
left_child=-1
right_child=-2
leaf_value=0.00057065930890825547 -0.00095974523044953296
leaf_weight=37 22
leaf_count=37 22
internal_value=-1.08523e-11
internal_weight=59
internal_count=59
is_linear=0
shrinkage=0.1


Tree=48
num_leaves=2
num_cat=0
split_feature=232
split_gain=0.00314205
threshold=165.74500000000003
decision_type=2
left_child=-1
right_child=-2
leaf_value=-0.0009463903176682916 0.00056271857984766774
leaf_weight=22 37
leaf_count=22 37
internal_value=7.89256e-12
internal_weight=59
internal_count=59
is_linear=0
shrinkage=0.1


Tree=49
num_leaves=2
num_cat=0
split_feature=228
split_gain=0.0030785
threshold=14.067500000000001
decision_type=2
left_child=-1
right_child=-2
leaf_value=0.00090371372542627493 -0.00057737267230145836
leaf_weight=23 36
leaf_count=23 36
internal_value=-8.78048e-12
internal_weight=59
internal_count=59
is_linear=0
shrinkage=0.1


Tree=50
num_leaves=2
num_cat=0
split_feature=71
split_gain=0.00309679
threshold=-0.003037502115140311
decision_type=2
left_child=-1
right_child=-2
leaf_value=0.00097456807430024216 -0.00053857705022796593
leaf_weight=21 38
leaf_count=21 38
internal_value=2.79939e-11
internal_weight=59
internal_count=59
is_linear=0
shrinkage=0.1


Tree=51
num_leaves=2
num_cat=0
split_feature=42
split_gain=0.00309098
threshold=4238030.3090000013
decision_type=2
left_child=-1
right_child=-2
leaf_value=0.00097365376007344049 -0.00053807180987572984
leaf_weight=21 38
leaf_count=21 38
internal_value=3.15703e-12
internal_weight=59
internal_count=59
is_linear=0
shrinkage=0.1


Tree=52
num_leaves=2
num_cat=0
split_feature=188
split_gain=0.00292958
threshold=0.040940072763507078
decision_type=2
left_child=-1
right_child=-2
leaf_value=0.00074144361486625193 -0.00066969101298450229
leaf_weight=28 31
leaf_count=28 31
internal_value=-3.15703e-12
internal_weight=59
internal_count=59
is_linear=0
shrinkage=0.1


Tree=53
num_leaves=2
num_cat=0
split_feature=163
split_gain=0.00317653
threshold=133.21000000000001
decision_type=2
left_child=-1
right_child=-2
leaf_value=0.00077206220612424659 -0.00069734652286335347
leaf_weight=28 31
leaf_count=28 31
internal_value=-7.41161e-12
internal_weight=59
internal_count=59
is_linear=0
shrinkage=0.1


Tree=54
num_leaves=2
num_cat=0
split_feature=40
split_gain=0.00287873
threshold=1857.2000000000003
decision_type=2
left_child=-1
right_child=-2
leaf_value=-0.00090586628225124025 0.00053862319327890873
leaf_weight=22 37
leaf_count=22 37
internal_value=-9.86571e-13
internal_weight=59
internal_count=59
is_linear=0
shrinkage=0.1


Tree=55
num_leaves=2
num_cat=0
split_feature=80
split_gain=0.00284704
threshold=40.085000000000008
decision_type=2
left_child=-1
right_child=-2
leaf_value=-0.00093444244481534478 0.00051640242929447834
leaf_weight=21 38
leaf_count=21 38
internal_value=1.64757e-11
internal_weight=59
internal_count=59
is_linear=0
shrinkage=0.1


Tree=56
num_leaves=2
num_cat=0
split_feature=218
split_gain=0.00271896
threshold=16090.900000000001
decision_type=2
left_child=-1
right_child=-2
leaf_value=0.0006235658969671932 -0.00073904104496317887
leaf_weight=32 27
leaf_count=32 27
internal_value=8.28719e-12
internal_weight=59
internal_count=59
is_linear=0
shrinkage=0.1


Tree=57
num_leaves=2
num_cat=0
split_feature=155
split_gain=0.00272067
threshold=135.25000000000003
decision_type=2
left_child=-1
right_child=-2
leaf_value=0.00066765202442184098 -0.00069067450721972982
leaf_weight=30 29
leaf_count=30 29
internal_value=3.94628e-13
internal_weight=59
internal_count=59
is_linear=0
shrinkage=0.1


Tree=58
num_leaves=2
num_cat=0
split_feature=68
split_gain=0.00277456
threshold=-0.0059670348231817818
decision_type=2
left_child=-1
right_child=-2
leaf_value=-0.00092247280768961422 0.00050978756809950271
leaf_weight=21 38
leaf_count=21 38
internal_value=-2.32831e-11
internal_weight=59
internal_count=59
is_linear=0
shrinkage=0.1


Tree=59
num_leaves=2
num_cat=0
split_feature=163
split_gain=0.00271942
threshold=132.37000000000003
decision_type=2
left_child=-1
right_child=-2
leaf_value=0.00079173775692470373 -0.00058216011555701054
leaf_weight=25 34
leaf_count=25 34
internal_value=-9.86571e-14
internal_weight=59
internal_count=59
is_linear=0
shrinkage=0.1


Tree=60
num_leaves=2
num_cat=0
split_feature=188
split_gain=0.00275168
threshold=0.040940072763507078
decision_type=2
left_child=-1
right_child=-2
leaf_value=0.00071857928664290484 -0.00064903934159496381
leaf_weight=28 31
leaf_count=28 31
internal_value=7.39928e-12
internal_weight=59
internal_count=59
is_linear=0
shrinkage=0.1


Tree=61
num_leaves=2
num_cat=0
split_feature=71
split_gain=0.0027418
threshold=-0.003037502115140311
decision_type=2
left_child=-1
right_child=-2
leaf_value=0.00091701029616940248 -0.00050676881556252116
leaf_weight=21 38
leaf_count=21 38
internal_value=2.08166e-11
internal_weight=59
internal_count=59
is_linear=0
shrinkage=0.1


Tree=62
num_leaves=2
num_cat=0
split_feature=232
split_gain=0.00255984
threshold=165.74500000000003
decision_type=2
left_child=-1
right_child=-2
leaf_value=-0.00085421963965266268 0.00050791434226305908
leaf_weight=22 37
leaf_count=22 37
internal_value=-2.3875e-11
internal_weight=59
internal_count=59
is_linear=0
shrinkage=0.1


Tree=63
num_leaves=2
num_cat=0
split_feature=228
split_gain=0.00271305
threshold=14.067500000000001
decision_type=2
left_child=-1
right_child=-2
leaf_value=0.00084837936484963522 -0.00054202015033095248
leaf_weight=23 36
leaf_count=23 36
internal_value=-3.453e-13
internal_weight=59
internal_count=59
is_linear=0
shrinkage=0.1


Tree=64
num_leaves=2
num_cat=0
split_feature=163
split_gain=0.00259558
threshold=132.37000000000003
decision_type=2
left_child=-1
right_child=-2
leaf_value=0.00077350036567077046 -0.00056875024661969616
leaf_weight=25 34
leaf_count=25 34
internal_value=1.28254e-11
internal_weight=59
internal_count=59
is_linear=0
shrinkage=0.1


Tree=65
num_leaves=2
num_cat=0
split_feature=188
split_gain=0.00251394
threshold=0.040940072763507078
decision_type=2
left_child=-1
right_child=-2
leaf_value=0.00068683576558084634 -0.00062036776179147347
leaf_weight=28 31
leaf_count=28 31
internal_value=1.39106e-11
internal_weight=59
internal_count=59
is_linear=0
shrinkage=0.1


Tree=66
num_leaves=2
num_cat=0
split_feature=155
split_gain=0.0024585
threshold=135.25000000000003
decision_type=2
left_child=-1
right_child=-2
leaf_value=0.00063466873660217977 -0.0006565538614362093
leaf_weight=30 29
leaf_count=30 29
internal_value=1.97314e-12
internal_weight=59
internal_count=59
is_linear=0
shrinkage=0.1


Tree=67
num_leaves=2
num_cat=0
split_feature=243
split_gain=0.00248963
threshold=14.075074208718478
decision_type=2
left_child=-1
right_child=-2
leaf_value=0.00059668967478501147 -0.00070718776141465817
leaf_weight=32 27
leaf_count=32 27
internal_value=5.91942e-13
internal_weight=59
internal_count=59
is_linear=0
shrinkage=0.1


Tree=68
num_leaves=2
num_cat=0
split_feature=83
split_gain=0.00236874
threshold=33.025000000000006
decision_type=2
left_child=-1
right_child=-2
leaf_value=-0.00058202211803290991 0.00068980393137920782
leaf_weight=32 27
leaf_count=32 27
internal_value=-2.7624e-11
internal_weight=59
internal_count=59
is_linear=0
shrinkage=0.1


Tree=69
num_leaves=2
num_cat=0
split_feature=10
split_gain=0.00237939
threshold=-0.0006790636171326998
decision_type=2
left_child=-1
right_child=-2
leaf_value=0.00085425723920620625 -0.00047208951475209021
leaf_weight=21 38
leaf_count=21 38
internal_value=7.84324e-12
internal_weight=59
internal_count=59
is_linear=0
shrinkage=0.1


Tree=70
num_leaves=2
num_cat=0
split_feature=216
split_gain=0.00246682
threshold=0.00064446641478786216
decision_type=2
left_child=-1
right_child=-2
leaf_value=0.00086981022679884473 -0.00048068461029814855
leaf_weight=21 38
leaf_count=21 38
internal_value=-7.26363e-12
internal_weight=59
internal_count=59
is_linear=0
shrinkage=0.1


Tree=71
num_leaves=2
num_cat=0
split_feature=40
split_gain=0.00240223
threshold=1857.2000000000003
decision_type=2
left_child=-1
right_child=-2
leaf_value=-0.00082750598243861047 0.0004920305753428792
leaf_weight=22 37
leaf_count=22 37
internal_value=-5.52479e-12
internal_weight=59
internal_count=59
is_linear=0
shrinkage=0.1


Tree=72
num_leaves=2
num_cat=0
split_feature=232
split_gain=0.00232387
threshold=165.74500000000003
decision_type=2
left_child=-1
right_child=-2
leaf_value=-0.00081389757648470226 0.0004839390994527856
leaf_weight=22 37
leaf_count=22 37
internal_value=-4.93285e-14
internal_weight=59
internal_count=59
is_linear=0
shrinkage=0.1


Tree=73
num_leaves=2
num_cat=0
split_feature=164
split_gain=0.00239724
threshold=135.30000000000004
decision_type=2
left_child=-1
right_child=-2
leaf_value=0.00049151847176560567 -0.00082664472918788149
leaf_weight=37 22
leaf_count=37 22
internal_value=-9.94586e-12
internal_weight=59
internal_count=59
is_linear=0
shrinkage=0.1


Tree=74
num_leaves=2
num_cat=0
split_feature=68
split_gain=0.00236247
threshold=-0.0059670348231817818
decision_type=2
left_child=-1
right_child=-2
leaf_value=-0.00085121449041512939 0.00047040801971314454
leaf_weight=21 38
leaf_count=21 38
internal_value=7.63359e-12
internal_weight=59
internal_count=59
is_linear=0
shrinkage=0.1


Tree=75
num_leaves=2
num_cat=0
split_feature=163
split_gain=0.00224882
threshold=132.37000000000003
decision_type=2
left_child=-1
right_child=-2
leaf_value=0.00071998107642866674 -0.00052939782686093272
leaf_weight=25 34
leaf_count=25 34
internal_value=1.3516e-11
internal_weight=59
internal_count=59
is_linear=0
shrinkage=0.1


Tree=76
num_leaves=2
num_cat=0
split_feature=48
split_gain=0.00227994
threshold=0.0030177559992351
decision_type=2
left_child=-1
right_child=-2
leaf_value=0.00044516195025957693 -0.00086806582345161593
leaf_weight=39 20
leaf_count=39 20
internal_value=-6.93066e-12
internal_weight=59
internal_count=59
is_linear=0
shrinkage=0.1


Tree=77
num_leaves=2
num_cat=0
split_feature=188
split_gain=0.00221426
threshold=0.040940072763507078
decision_type=2
left_child=-1
right_child=-2
leaf_value=0.00064460044990742723 -0.00058221976223942493
leaf_weight=28 31
leaf_count=28 31
internal_value=-5.42614e-13
internal_weight=59
internal_count=59
is_linear=0
shrinkage=0.1


Tree=78
num_leaves=2
num_cat=0
split_feature=155
split_gain=0.002243
threshold=135.25000000000003
decision_type=2
left_child=-1
right_child=-2
leaf_value=0.00060621559028125683 -0.00062711956295594248
leaf_weight=30 29
leaf_count=30 29
internal_value=6.4867e-12
internal_weight=59
internal_count=59
is_linear=0
shrinkage=0.1


Tree=79
num_leaves=2
num_cat=0
split_feature=163
split_gain=0.00211599
threshold=132.37000000000003
decision_type=2
left_child=-1
right_child=-2
leaf_value=0.00069839411776047202 -0.00051352506921188354
leaf_weight=25 34
leaf_count=25 34
internal_value=1.00137e-11
internal_weight=59
internal_count=59
is_linear=0
shrinkage=0.1


Tree=80
num_leaves=2
num_cat=0
split_feature=188
split_gain=0.00216353
threshold=0.040940072763507078
decision_type=2
left_child=-1
right_child=-2
leaf_value=0.00063717230072402996 -0.0005755104749808989
leaf_weight=28 31
leaf_count=28 31
internal_value=-5.15483e-12
internal_weight=59
internal_count=59
is_linear=0
shrinkage=0.1


Tree=81
num_leaves=2
num_cat=0
split_feature=216
split_gain=0.00206423
threshold=0.00064446641478786216
decision_type=2
left_child=-1
right_child=-2
leaf_value=0.00079567437600677044 -0.00043971484226762859
leaf_weight=21 38
leaf_count=21 38
internal_value=-3.57632e-11
internal_weight=59
internal_count=59
is_linear=0
shrinkage=0.1


Tree=82
num_leaves=2
num_cat=0
split_feature=232
split_gain=0.0021283
threshold=165.74500000000003
decision_type=2
left_child=-1
right_child=-2
leaf_value=-0.000778896505124232 0.00046312763698625609
leaf_weight=22 37
leaf_count=22 37
internal_value=-9.22443e-12
internal_weight=59
internal_count=59
is_linear=0
shrinkage=0.1


Tree=83
num_leaves=2
num_cat=0
split_feature=228
split_gain=0.00212594
threshold=14.086500000000003
decision_type=2
left_child=-1
right_child=-2
leaf_value=0.00044623874840142791 -0.00080747966200024601
leaf_weight=38 21
leaf_count=38 21
internal_value=-7.84324e-12
internal_weight=59
internal_count=59
is_linear=0
shrinkage=0.1


Tree=84
num_leaves=2
num_cat=0
split_feature=80
split_gain=0.00205216
threshold=40.085000000000008
decision_type=2
left_child=-1
right_child=-2
leaf_value=-0.00079334391317994839 0.00043842689399178583
leaf_weight=21 38
leaf_count=21 38
internal_value=-3.47612e-12
internal_weight=59
internal_count=59
is_linear=0
shrinkage=0.1


Tree=85
num_leaves=2
num_cat=0
split_feature=71
split_gain=0.00208101
threshold=-0.003037502115140311
decision_type=2
left_child=-1
right_child=-2
leaf_value=0.00079890128940210815 -0.00044149807347965082
leaf_weight=21 38
leaf_count=21 38
internal_value=4.8342e-12
internal_weight=59
internal_count=59
is_linear=0
shrinkage=0.1


Tree=86
num_leaves=2
num_cat=0
split_feature=40
split_gain=0.00203638
threshold=1857.2000000000003
decision_type=2
left_child=-1
right_child=-2
leaf_value=-0.00076189096699553463 0.0004530162670488534
leaf_weight=22 37
leaf_count=22 37
internal_value=1.02865e-11
internal_weight=59
internal_count=59
is_linear=0
shrinkage=0.1


Tree=87
num_leaves=2
num_cat=0
split_feature=42
split_gain=0.00196729
threshold=4238030.3090000013
decision_type=2
left_child=-1
right_child=-2
leaf_value=0.00077676615439399728 -0.00042926553318178964
leaf_weight=21 38
leaf_count=21 38
internal_value=-1.7265e-11
internal_weight=59
internal_count=59
is_linear=0
shrinkage=0.1


Tree=88
num_leaves=2
num_cat=0
split_feature=218
split_gain=0.00199033
threshold=16090.900000000001
decision_type=2
left_child=-1
right_child=-2
leaf_value=0.00053351113760982118 -0.00063230949454009535
leaf_weight=32 27
leaf_count=32 27
internal_value=8.63249e-13
internal_weight=59
internal_count=59
is_linear=0
shrinkage=0.1


Tree=89
num_leaves=2
num_cat=0
split_feature=3
split_gain=0.00194112
threshold=82792.500000000015
decision_type=2
left_child=-1
right_child=-2
leaf_value=0.00062444414555405583 -0.00052687472775687645
leaf_weight=27 32
leaf_count=27 32
internal_value=1.08769e-11
internal_weight=59
internal_count=59
is_linear=0
shrinkage=0.1


Tree=90
num_leaves=2
num_cat=0
split_feature=68
split_gain=0.00197739
threshold=-0.0059670348231817818
decision_type=2
left_child=-1
right_child=-2
leaf_value=-0.0007787568544223351 0.00043036561829993799
leaf_weight=21 38
leaf_count=21 38
internal_value=-7.58426e-12
internal_weight=59
internal_count=59
is_linear=0
shrinkage=0.1


Tree=91
num_leaves=2
num_cat=0
split_feature=155
split_gain=0.00201931
threshold=135.25000000000003
decision_type=2
left_child=-1
right_child=-2
leaf_value=0.00057519358641002329 -0.00059502785618954887
leaf_weight=30 29
leaf_count=30 29
internal_value=-4.02027e-12
internal_weight=59
internal_count=59
is_linear=0
shrinkage=0.1


Tree=92
num_leaves=2
num_cat=0
split_feature=243
split_gain=0.0019459
threshold=14.074220193345598
decision_type=2
left_child=-1
right_child=-2
leaf_value=0.00069352521331893517 -0.00047556015754318133
leaf_weight=24 35
leaf_count=24 35
internal_value=-6.68402e-12
internal_weight=59
internal_count=59
is_linear=0
shrinkage=0.1


Tree=93
num_leaves=2
num_cat=0
split_feature=232
split_gain=0.00194635
threshold=165.74500000000003
decision_type=2
left_child=-1
right_child=-2
leaf_value=-0.00074485910140951594 0.00044288921918770349
leaf_weight=22 37
leaf_count=22 37
internal_value=1.48972e-11
internal_weight=59
internal_count=59
is_linear=0
shrinkage=0.1


Tree=94
num_leaves=2
num_cat=0
split_feature=10
split_gain=0.00178906
threshold=-0.0006790636171326998
decision_type=2
left_child=-1
right_child=-2
leaf_value=0.00074074552248930563 -0.00040935935700728906
leaf_weight=21 38
leaf_count=21 38
internal_value=6.88133e-12
internal_weight=59
internal_count=59
is_linear=0
shrinkage=0.1


Tree=95
num_leaves=2
num_cat=0
split_feature=68
split_gain=0.00181564
threshold=-0.0059670348231817818
decision_type=2
left_child=-1
right_child=-2
leaf_value=-0.00074622620983670162 0.00041238815526747587
leaf_weight=21 38
leaf_count=21 38
internal_value=-8.58316e-12
internal_weight=59
internal_count=59
is_linear=0
shrinkage=0.1


Tree=96
num_leaves=2
num_cat=0
split_feature=48
split_gain=0.00185523
threshold=0.0030177559992351
decision_type=2
left_child=-1
right_child=-2
leaf_value=0.00040156489159040251 -0.00078305153991095719
leaf_weight=39 20
leaf_count=39 20
internal_value=-4.43957e-13
internal_weight=59
internal_count=59
is_linear=0
shrinkage=0.1


Tree=97
num_leaves=2
num_cat=0
split_feature=163
split_gain=0.00190578
threshold=132.37000000000003
decision_type=2
left_child=-1
right_child=-2
leaf_value=0.0006627953143324703 -0.00048734947355542853
leaf_weight=25 34
leaf_count=25 34
internal_value=1.28377e-11
internal_weight=59
internal_count=59
is_linear=0
shrinkage=0.1


Tree=98
num_leaves=2
num_cat=0
split_feature=218
split_gain=0.00179323
threshold=16090.900000000001
decision_type=2
left_child=-1
right_child=-2
leaf_value=0.00050640645858948121 -0.00060018542722833381
leaf_weight=32 27
leaf_count=32 27
internal_value=2.36777e-12
internal_weight=59
internal_count=59
is_linear=0
shrinkage=0.1


Tree=99
num_leaves=2
num_cat=0
split_feature=155
split_gain=0.00177501
threshold=135.25000000000003
decision_type=2
left_child=-1
right_child=-2
leaf_value=0.00053927789578059066 -0.00055787371196041431
leaf_weight=30 29
leaf_count=30 29
internal_value=-1.31091e-11
internal_weight=59
internal_count=59
is_linear=0
shrinkage=0.1


end of trees

feature_importances:
Column_155=21
Column_188=10
Column_68=9
Column_83=9
Column_163=9
Column_228=8
Column_232=6
Column_80=5
Column_40=3
Column_71=3
Column_218=3
Column_10=2
Column_42=2
Column_48=2
Column_216=2
Column_243=2
Column_3=1
Column_164=1
Column_170=1
Column_194=1

parameters:
[boosting: gbdt]
[objective: regression]
[metric: rmse]
[tree_learner: serial]
[device_type: cpu]
[data_sample_strategy: bagging]
[data: ]
[valid: ]
[num_iterations: 100]
[learning_rate: 0.1]
[num_leaves: 31]
[num_threads: 0]
[seed: 0]
[deterministic: 0]
[force_col_wise: 0]
[force_row_wise: 0]
[histogram_pool_size: -1]
[max_depth: -1]
[min_data_in_leaf: 20]
[min_sum_hessian_in_leaf: 0.001]
[bagging_fraction: 1]
[pos_bagging_fraction: 1]
[neg_bagging_fraction: 1]
[bagging_freq: 0]
[bagging_seed: 3]
[bagging_by_query: 0]
[feature_fraction: 1]
[feature_fraction_bynode: 1]
[feature_fraction_seed: 2]
[extra_trees: 0]
[extra_seed: 6]
[early_stopping_round: 0]
[early_stopping_min_delta: 0]
[first_metric_only: 0]
[max_delta_step: 0]
[lambda_l1: 0]
[lambda_l2: 0]
[linear_lambda: 0]
[min_gain_to_split: 0]
[drop_rate: 0.1]
[max_drop: 50]
[skip_drop: 0.5]
[xgboost_dart_mode: 0]
[uniform_drop: 0]
[drop_seed: 4]
[top_rate: 0.2]
[other_rate: 0.1]
[min_data_per_group: 100]
[max_cat_threshold: 32]
[cat_l2: 10]
[cat_smooth: 10]
[max_cat_to_onehot: 4]
[top_k: 20]
[monotone_constraints: ]
[monotone_constraints_method: basic]
[monotone_penalty: 0]
[feature_contri: ]
[forcedsplits_filename: ]
[refit_decay_rate: 0.9]
[cegb_tradeoff: 1]
[cegb_penalty_split: 0]
[cegb_penalty_feature_lazy: ]
[cegb_penalty_feature_coupled: ]
[path_smooth: 0]
[interaction_constraints: ]
[verbosity: -1]
[saved_feature_importance_type: 0]
[use_quantized_grad: 0]
[num_grad_quant_bins: 4]
[quant_train_renew_leaf: 0]
[stochastic_rounding: 1]
[linear_tree: 0]
[max_bin: 255]
[max_bin_by_feature: ]
[min_data_in_bin: 3]
[bin_construct_sample_cnt: 200000]
[data_random_seed: 1]
[is_enable_sparse: 1]
[enable_bundle: 1]
[use_missing: 1]
[zero_as_missing: 0]
[feature_pre_filter: 1]
[pre_partition: 0]
[two_round: 0]
[header: 0]
[label_column: ]
[weight_column: ]
[group_column: ]
[ignore_column: ]
[categorical_feature: ]
[forcedbins_filename: ]
[precise_float_parser: 0]
[parser_config_file: ]
[objective_seed: 5]
[num_class: 1]
[is_unbalance: 0]
[scale_pos_weight: 1]
[sigmoid: 1]
[boost_from_average: 1]
[reg_sqrt: 0]
[alpha: 0.9]
[fair_c: 1]
[poisson_max_delta_step: 0.7]
[tweedie_variance_power: 1.5]
[lambdarank_truncation_level: 30]
[lambdarank_norm: 1]
[label_gain: ]
[lambdarank_position_bias_regularization: 0]
[eval_at: ]
[multi_error_top_k: 1]
[auc_mu_weights: ]
[num_machines: 1]
[local_listen_port: 12400]
[time_out: 120]
[machine_list_filename: ]
[machines: ]
[gpu_platform_id: -1]
[gpu_device_id: -1]
[gpu_use_dp: 0]
[num_gpu: 1]

end of parameters

pandas_categorical:null
