tree
version=v4
num_class=1
num_tree_per_iteration=1
label_index=0
max_feature_idx=287
objective=regression
feature_names=Column_0 Column_1 Column_2 Column_3 Column_4 Column_5 Column_6 Column_7 Column_8 Column_9 Column_10 Column_11 Column_12 Column_13 Column_14 Column_15 Column_16 Column_17 Column_18 Column_19 Column_20 Column_21 Column_22 Column_23 Column_24 Column_25 Column_26 Column_27 Column_28 Column_29 Column_30 Column_31 Column_32 Column_33 Column_34 Column_35 Column_36 Column_37 Column_38 Column_39 Column_40 Column_41 Column_42 Column_43 Column_44 Column_45 Column_46 Column_47 Column_48 Column_49 Column_50 Column_51 Column_52 Column_53 Column_54 Column_55 Column_56 Column_57 Column_58 Column_59 Column_60 Column_61 Column_62 Column_63 Column_64 Column_65 Column_66 Column_67 Column_68 Column_69 Column_70 Column_71 Column_72 Column_73 Column_74 Column_75 Column_76 Column_77 Column_78 Column_79 Column_80 Column_81 Column_82 Column_83 Column_84 Column_85 Column_86 Column_87 Column_88 Column_89 Column_90 Column_91 Column_92 Column_93 Column_94 Column_95 Column_96 Column_97 Column_98 Column_99 Column_100 Column_101 Column_102 Column_103 Column_104 Column_105 Column_106 Column_107 Column_108 Column_109 Column_110 Column_111 Column_112 Column_113 Column_114 Column_115 Column_116 Column_117 Column_118 Column_119 Column_120 Column_121 Column_122 Column_123 Column_124 Column_125 Column_126 Column_127 Column_128 Column_129 Column_130 Column_131 Column_132 Column_133 Column_134 Column_135 Column_136 Column_137 Column_138 Column_139 Column_140 Column_141 Column_142 Column_143 Column_144 Column_145 Column_146 Column_147 Column_148 Column_149 Column_150 Column_151 Column_152 Column_153 Column_154 Column_155 Column_156 Column_157 Column_158 Column_159 Column_160 Column_161 Column_162 Column_163 Column_164 Column_165 Column_166 Column_167 Column_168 Column_169 Column_170 Column_171 Column_172 Column_173 Column_174 Column_175 Column_176 Column_177 Column_178 Column_179 Column_180 Column_181 Column_182 Column_183 Column_184 Column_185 Column_186 Column_187 Column_188 Column_189 Column_190 Column_191 Column_192 Column_193 Column_194 Column_195 Column_196 Column_197 Column_198 Column_199 Column_200 Column_201 Column_202 Column_203 Column_204 Column_205 Column_206 Column_207 Column_208 Column_209 Column_210 Column_211 Column_212 Column_213 Column_214 Column_215 Column_216 Column_217 Column_218 Column_219 Column_220 Column_221 Column_222 Column_223 Column_224 Column_225 Column_226 Column_227 Column_228 Column_229 Column_230 Column_231 Column_232 Column_233 Column_234 Column_235 Column_236 Column_237 Column_238 Column_239 Column_240 Column_241 Column_242 Column_243 Column_244 Column_245 Column_246 Column_247 Column_248 Column_249 Column_250 Column_251 Column_252 Column_253 Column_254 Column_255 Column_256 Column_257 Column_258 Column_259 Column_260 Column_261 Column_262 Column_263 Column_264 Column_265 Column_266 Column_267 Column_268 Column_269 Column_270 Column_271 Column_272 Column_273 Column_274 Column_275 Column_276 Column_277 Column_278 Column_279 Column_280 Column_281 Column_282 Column_283 Column_284 Column_285 Column_286 Column_287
feature_infos=[1.0000000000000001e-05:100000] [1.0000000000000001e-05:100000] [1.0000000000000001e-05:100000] [1.0000000000000001e-05:100000] [0:111600369] [9.9999999911706259e-06:40000.709265999998] [9.9999999602241586e-06:20000.822357999998] [0.00020000000000029686:10001.018629000002] [0.024971599999999788:4001.1523992000007] [0.00025855995584019671:55556.007726899901] [0.0025721082880578979:33058.550199402271] [0.013001583998120269:18141.492734316907] [0:100] [-2202.8035927118622:14136.046549695642] [-1806.506879929156:5978.8485075409972] [-3024.5710944735047:10032.532160300314] [0.00020000000000029686:70000.339545178998] [0.00020000000000029686:10001.018629000002] [-49998.616337171377:3.0265362121808099] [0:17.432541384066205] [2.8991207051295155e-24:13301.832108912991] [-99484306:466747812] [0:40336735.799999997] [0:5] [-0.99999987244898281:3.9998259570584009] [-0.99999983078992971:18.995679417573299] [-0.99999957848331666:48.970583336989392] [-0.99999989795918365:273224.80645161291] [-0.99999989795918365:2439023.3902439023] [-0.99999989795918365:99999] [0:5367680.5158280693] [0:5165052.9845620738] [0.10000000000000001:15000] [0.10000000000000001:100000] [0.001:15000] [0.10000000000000001:77000] [0:4489808.79] [1:15803.680200000003] [1.0000000000024893:9999.9999999999982] [2.0249999999952535:9001.8067999999948] [9.8252200000000212:5012.9856999999929] [1.0096801214205313:26038.231935140429] [1.4859514382552119:14518.09045482154] [4.3451370702276284:8353.1835243244495] [0:100] [-1697.3919786432243:6168.0413496068131] [-1386.1009054355989:2456.5317673065165] [-1563.2632939884109:4830.8619787756079] [9.9421415746823225:37840.630808305024] [2.0249999999952535:9001.8067999999948] [-29071.748273770245:3018.6475999999702] [0:17.240456471758204] [0:28911.511498717777] [-2617159.7399999835:35617403.55999998] [-1.4639226719737052e-09:3755501.1239999989] [0:5.0000030643442157] [-0.99958336805266224:3.9900199600798407] [-0.99897110140814771:18.787329737447855] [-0.99976708322279495:46.91863798619049] [-0.9996666666666667:9474.8293838862573] [-0.9996666666666667:9474.8293838862573] [-0.9996666666666667:9474.8293838862573] [0:1642.6199499579932] [0:2989.2882799494414] [4126.2399999999998:99998.990000000005] [4610:1000000] [0.01:88888] [1010:100000] [0:7484110.3959999997] [4692.1179999999995:94897.065999999992] [4827.7969999999714:84699.199999999997] [4923.7495000000081:82247.932000000001] [5148.8255999999992:67223.649000000019] [4711.857275174465:93049.798764542997] [4859.3123944031813:85928.681283480415] [4996.7457932427224:81814.159321883926] [0.023565149719525343:99.914758914566946] [-16937.614389965562:18857.174111805558] [-14628.463846920178:15498.52266602682] [-9590.3134270080664:8508.5008809297797] [5276.5734611171674:139168.58408075961] [4923.7495000000081:82247.932000000001] [-40459.719786585934:66515.110311818033] [1.7480231805683954e-05:6.5442750864624903] [3.8444932284199305:536222.6953001587] [-16575143.481999993:44868643.088000029] [-1.9525032257661225e-09:5814620.4218000034] [0:5.0000000000697593] [-0.96532408862091768:2.6531407183229061] [-0.9828858847911992:6.2819597384815236] [-0.97383043932194036:8.1060151422104632] [-0.92406945614935909:9.8813928182807391] [-0.98989989899899:9.8391566702544289] [-0.9548995489954899:9.891976643245286] [0:39.720867465945368] [9.5259620717383893e-08:36.541361959707864] [0.001:100000] [0.001:100000] [0.001:100000] [0.001:100000] [0:33058060.699999999] [0.00099999999784376997:100000] [0.0010000000085734428:100000.00000000003] [0.0010000000088905836:99999.999999999985] [0.10000000005376204:100000.00000000004] [0.010293763357253944:99999.999999999985] [0.14781965866616392:99999.999998444793] [1.1041221558995697:99999.597590433303] [0:100] [-27068.001441636938:27058.149265445521] [-23802.323483645359:23675.50896210696] [-11778.349472076174:12245.962697972182] [0.0010000000088905836:161649.62715729023] [0.0010000000088905836:99999.999999999985] [-60752.884958824296:99999.994475728265] [0:17.435425672365859] [2.1085699298098009e-06:14473.961035901661] [-15538816.600000009:41454177.399999984] [-7.9430719779338688e-09:13027515.52] [0:5.0000019185115976] [-0.99999954268296865:3.9999902439214745] [-0.99999926829280783:18.999814635864325] [-0.99999837622739751:48.671548783009356] [-0.99999963414634141:2733332.3333333335] [-0.99999963414634141:2733332.3333333335] [-0.99999963414634141:2733332.3333333335] [0:1222383.3804862895] [0:1440592.4887069813] [0.01:100000] [0.01:100000] [0.01:100000] [0.01:100000] [0:23364541.530000001] [0.0099999999881238179:99999.999999999985] [6.0569999999925752:97320.151000000042] [26.650499999990814:90227.191499999972] [49.305000000013607:85818.759599999976] [6.3596280414714608:97625.584743505911] [10.291986612288456:90040.587847501723] [52.399611192590832:86058.069582745069] [0.24400019761239558:99.996397787265153] [-12936.517050589551:27343.583154656269] [-11467.041850535908:23267.671479610897] [-9403.347072839937:12118.083764541694] [116.83849778534683:152711.18087746736] [26.650499999990814:90227.191499999972] [-61057.931179828804:73231.107054983149] [0:16.823102809291015] [0.24072840200380766:69829.629547195189] [-62730870.417999983:10190666.848999999] [-1.7593287104933353e-09:5455250.4959999993] [0:5.0000219917056077] [-0.99999949876179128:3.9999979797977776] [-0.99999933892872872:18.260907533401898] [-0.99999877801755244:43.34758493996722] [-0.99999989898984798:9899994] [-0.99999989898984798:9899994] [-0.99999989898984798:9899994] [0:4423249.2002493823] [0:3129357.5958179552] [0.01:100000] [0.01:100000] [0.01:100000] [0.01:100000] [0:3144185.5950000002] [0.010000000028458488:100000.00000000004] [0.0099999999783678666:94999.999999999971] [0.99999999995514555:55349.99999999992] [30.174200000005797:30030.381999999998] [1.0206643682880172:97400.307153905334] [2.5208562744991339:83594.835661244026] [13.658303978299775:60155.664435610277] [0:100] [-11644.5683436215:27776.459436565317] [-9772.9086732840478:21501.485920172785] [-11639.808819499993:12955.379550492829] [1.0027777208478927:144846.50387479505] [0.99999999995514555:55349.99999999992] [-61605.44784088101:28199.995743262698] [0:17.325774864274106] [0.10629411899456188:22378.846171977009] [-5480538.9480000008:12152538.658000015] [1.0622898116707802e-10:970476.8168000005] [0:4.9999999999998295] [-0.99995008860769474:3.9996666888873884] [-0.99999892229731291:18.880302685560778] [-0.99999732565661281:47.869243776721106] [-0.99978156400174745:59999] [-0.99978156400174745:4622198] [-0.99999000000000005:4622198] [0:44701.518109934783] [0:52685.813188936234] [0.002:9999] [0.002:13000] [0.002:9999] [0.002:9999] [0:1567979.45] [0.0021999999999948497:9998.9999999999982] [0.0026000000000198638:9999.0000000000018] [1.8499999999999435:9999] [1.8500000000000318:8203.4529199999979] [0.033536763988559537:9997.6664018253268] [0.7440082049375385:9897.8611889664717] [1.8678359653093699:9490.4786845589824] [0:100] [-2402.2947869781356:2773.4948880392367] [-2078.0972504476631:2431.5033914238388] [-1533.1082803214308:1212.8000166970703] [1.8499999999999435:16150.396013644382] [1.8499999999999435:9999] [-6130.6101493832621:9999] [0:16.736285279889351] [4.2263614640495416e-23:1579.9901208240517] [-2216374.3100000066:20234313.449999936] [-1.4551915228366853e-12:551743.68600000022] [0:5.0000000000000036] [-0.99987505154123923:3.9974194658294318] [-0.99989877133710414:18.237943481350129] [-0.99990265422977109:45.755035038921847] [-0.9998989286436224:7745.333333333333] [-0.99989969406690404:7745.333333333333] [-0.99990360052055716:7745.333333333333] [0:5439.8634748493541] [0:5214.8088875176845] [0.10000000000000001:27951] [0.10000000000000001:27951] [0.10000000000000001:27951] [0.10000000000000001:27951] [0:42568407.600000001] [0.099999999999938555:27951] [0.099999999999952849:27951] [0.61990000000002587:27951.000000000007] [1.0719599999999945:26275.315199999997] [0.10593636964822488:27950.999852173631] [0.20439894378553158:27948.761380565233] [0.52685324612002959:27698.589784913493] [0:100] [-7391.7995331058391:7761.4977556006197] [-6435.6047059050306:6804.2458059043111] [-4389.6708265957732:3477.5390958272415] [1.1004897050504601:45170.267832023324] [0.61990000000002587:27951.000000000007] [-17201.964609903509:27951.000000000007] [0:17.216956320706647] [4.497238895702033e-25:2391.9360229594377] [-9070072.0000000019:456279537.19999993] [-7.962808012962342e-09:11828292.999999996] [0:5.0000003306195362] [-0.99902079929604859:3.9850187265917603] [-0.99928467877308103:18.715548320745047] [-0.99916651743903551:47.358399216051147] [-0.99921648599334545:1330] [-0.99921648599334545:1330] [-0.99946334657078462:1330] [0:698.51132789121141] [0:981.20560098656586] [0.01:100000] [0.01:100000] [0.01:100000] [0.01:100000] [0:209964482.90000001] [0.0099999999954696762:100000.00000000001] [0.0099999999999722013:90000.054219999991] [0.0099999999999640134:45000.298960000036] [0.10969999999998883:18000.457266000019] [0.010011384032183865:97398.784224812829] [0.011475705771926883:83569.675032549509] [0.028461545669960231:59373.770934808927] [0:99.999974976152288] [-9514.2897174778591:27789.402450464826] [-7866.3059514092565:21511.558423721865] [-11640.808956052948:12158.154115987852] [0.0099999999999640134:144498.51255991659] [0.0099999999999640134:45000.298960000036] [-61650.674477447101:7588.3500000000295] [0:17.434681937563013] [0.00011584907488780191:36607.860083500316] [-11038397.899999993:623742318.20000029] [-3.5623088479042053e-08:94651651.839999974] [0:5.0000029625291642] [-0.99999322250918687:3.9999600802387434] [-0.99999778011053719:18.998922098096653] [-0.99999445074938187:48.993625012912503] [-0.99999722899999999:501000] [-0.99999722899999999:501000] [-0.99999722899999999:501000] [0:161390.24044427459] [0:115369.16848004049]
tree_sizes=2716 2786 2793 2801 2795 2802 2808 2819 2819 2812 2818 2820 2847 2832 2820 2835 2835 2840 2830 2832 2829 2829 2821 2840 2834 2845 2857 2846 2862 2876 2860 2859 2848 2840 2856 2856 2859 2863 2854 2845 2852 2829 2843 2845 2854 2867 2869 2853 2856 2847 2862 2858 2835 2875 2857 2849 2850 2849 2855 2842 2846 2844 2854 2867 2859 2846 2833 2857 2871 2847 2868 2855 2834 2890 2884 2866 2850 2869 2851 2863 2861 2858 2842 2865 2862 2848 2870 2863 2836 2846 2855 2843 2857 2836 2841 2857 2863 2870 2858 2876

Tree=0
num_leaves=31
num_cat=0
split_feature=242 286 13 26 172 187 52 1 262 198 117 62 30 0 191 31 34 217 8 25 217 92 156 148 95 52 19 44 86 30
split_gain=1.90624e+09 6.1097e+07 2.73831e+08 4.78698e+07 9.87092e+07 1.09936e+07 2.04346e+07 64004.3 55181.7 14753.5 9629.81 92399.6 7476.49 2938.01 1651.02 969.815 979.332 887.949 703.833 194.011 234.667 140.913 66.724 46.3802 76.2422 35.4979 65.2382 23.9915 19.5436 16.6414
threshold=6110.7696994898952 1314.8682316241477 -0.010732941124568905 -0.9998792239805564 47.29125747171188 0.25792120435686888 1.6571636997470063 0.0016550000000000002 20000.481670000008 7505.0933000000032 34236451.800000004 0.0021613799075325198 8.9636876230811797 1.2666000000000002 0.0081484286985855411 8.6287109936059672 262.05950000000007 1.5876189252139742e-14 0.97610800000257569 -0.42651622430711572 0.074997519997667586 -0.0046608922106783348 0.032242183959311339 2284.7881984515002 0.0076986010774206812 9228.5234091260736 1.4985850111831853 57.627712841497335 200570.94169999825 0.01426800707887515
decision_type=2 2 2 2 2 2 2 2 2 2 2 2 2 2 2 2 2 2 2 2 2 2 2 2 2 2 2 2 2 2
left_child=1 3 -3 4 29 7 -7 -5 9 10 12 -12 15 14 -14 19 21 18 -16 20 22 -17 23 24 -9 -21 -27 -19 -25 -1
right_child=-2 2 -4 5 -6 6 -8 8 -10 -11 11 -13 13 -15 17 16 -18 27 -20 25 -22 -23 -24 28 -26 26 -28 -29 -30 -31
leaf_value=21.628947235555017 722.41549300064946 431.54300195993045 21.625459107441991 26.621688649160536 292.67084537685969 147.08860698522187 21.628914126732081 21.87681613362885 26.173984738267691 23.90351319316154 28.45199654964933 21.627477158241803 22.930679994235994 23.34106792752004 22.64824464143372 21.968640429388049 22.573097497242397 21.628727861749468 21.862947466561334 21.628828503584586 21.975529324628372 21.628181363297003 21.847502541498361 21.632634038101202 21.670421290285145 21.851889906536105 21.604941467290466 21.769208838354114 21.721836206157143 21.756403643499379
leaf_weight=21 39 20 88 26 20 20 37 25 27 29 22 202 22 25 25 20 21 31 21 17149 29 31 22 200 63 20 23 20 28 20
leaf_count=21 39 20 88 26 20 20 37 25 27 29 22 202 22 25 25 20 21 31 21 17149 29 31 22 200 63 20 23 20 28 20
internal_value=24.0322 22.5444 97.5361 22.0994 110.537 21.8019 65.6499 21.6637 21.6566 21.6498 21.6462 22.2977 21.638 22.3556 22.1486 21.6321 21.9984 21.9712 22.2897 21.6306 21.7025 21.7617 21.6791 21.6674 21.7291 21.6291 21.7198 21.6838 21.6436 21.6911
internal_weight=18346 18307 108 18199 61 18138 57 18081 18055 18028 17999 224 17775 144 119 17631 72 97 46 17559 367 51 338 316 88 17192 43 51 228 41
internal_count=18346 18307 108 18199 61 18138 57 18081 18055 18028 17999 224 17775 144 119 17631 72 97 46 17559 367 51 338 316 88 17192 43 51 228 41
is_linear=0
shrinkage=1


Tree=1
num_leaves=31
num_cat=0
split_feature=242 286 76 1 127 188 30 13 26 70 287 187 0 116 53 30 0 191 217 31 131 191 270 149 25 216 181 47 276 19
split_gain=1.54405e+09 4.94886e+07 2.82852e+08 4.24164e+07 8.23688e+07 1.01129e+07 2.07349e+07 2.3337e+06 261480 55125.4 46365.8 33890 12880.8 8932.73 98336.5 6174.7 2335.97 1310.88 776.372 694.307 891.666 526.057 245.147 162.949 137.306 199.574 127.134 153.827 94.209 55.4489
threshold=6110.7696994898952 1314.8682316241477 45.665912881220997 0.0016550000000000002 0.0013672322462252725 8.3863578078341838 0.007481430275897271 -0.0099646142586338176 -0.9998792239805564 12379.501999999991 36129.830473457056 0.25792120435686888 3.3125500000000003 2579.2159285124353 6356998.8950000117 8.9636876230811797 1.2666000000000002 0.0081484286985855411 1.5876189252139742e-14 8.6287109936059672 1806.4400000000003 0.01500420763065727 1595.4363928097082 -40615815.112999998 -0.42651622430711572 0.01674479577863686 10822867.998500019 2.0065878998044711 0.007933082211686841 3.3736695914037651
decision_type=2 2 2 2 2 2 2 2 2 2 2 2 2 2 2 2 2 2 2 2 2 2 2 2 2 2 2 2 2 2
left_child=1 3 -3 4 -1 8 -7 -4 -5 -6 11 12 13 15 -15 19 17 -17 21 22 23 -19 24 -21 25 28 -26 -28 -10 -30
right_child=-2 2 7 5 9 6 -8 -9 10 -11 -12 -13 -14 14 -16 16 -18 18 -20 20 -22 -23 -24 -25 26 -27 27 -29 29 -31
leaf_value=236.2760543389754 628.54500810672084 405.61795841217042 -41.025084495544434 -12.377702090263368 -6.202445311773392 -4.950955904854669 122.0418668651581 -2.1658101530636062 -1.9087980549782515 1.0432712464105516 1.7844409561157228 -5.5084022712707528 -0.14003011584281921 5.1713391780853275 -2.1624855381782067 -0.99134656774218799 -0.62199747617542744 -1.161443312317133 -2.1135219125186695 -2.2171124371615325 -1.3232731922106309 -1.8558628926674527 -2.4639060197053135 -1.8607796402204606 -2.1632059130998291 -1.7944864523410797 -2.5382312965393066 -2.1627208312352497 -2.0913177946593864 -2.1740571335976169
leaf_weight=22 39 20 20 25 21 36 20 68 20 21 30 30 32 20 213 22 25 20 51 33 22 24 27 21 17076 20 20 24 163 161
leaf_count=22 39 20 20 25 21 36 20 68 20 21 30 30 32 20 213 22 25 20 51 33 22 24 27 21 17076 20 20 24 163 161
internal_value=5.88694e-08 -1.33901 66.1535 -1.73954 79.527 -2.02633 40.4036 -10.9975 -2.15776 -2.57959 -2.14361 -2.15015 -2.14455 -2.14812 -1.53297 -2.1562 -1.49943 -1.68691 -1.84799 -2.16151 -1.85991 -1.54022 -2.16282 -2.07854 -2.16235 -2.10158 -2.16364 -2.33341 -2.11943 -2.13243
internal_weight=18346 18307 108 18199 64 18135 56 88 18079 42 18054 18024 17994 17962 233 17729 142 117 95 17587 76 44 17511 54 17484 364 17120 44 344 324
internal_count=18346 18307 108 18199 64 18135 56 88 18079 42 18054 18024 17994 17962 233 17729 142 117 95 17587 76 44 17511 54 17484 364 17120 44 344 324
is_linear=0
shrinkage=0.1


Tree=2
num_leaves=31
num_cat=0
split_feature=242 148 283 26 173 179 253 280 277 30 1 188 286 262 187 175 198 51 123 271 29 116 11 287 31 148 63 53 141 236
split_gain=1.25068e+09 4.15238e+07 2.87201e+08 4.23771e+07 7.99359e+07 8.26949e+06 2.23107e+07 1.92076e+06 1.26697e+06 267161 162528 158813 85245.2 42430 21659 21368.5 11747.2 10181.7 7154.07 16135.5 4227.93 3964.7 27270.8 2401.38 906.721 834.294 739.615 363.933 362.223 460.256
threshold=6110.7696994898952 34537.129586145187 0.005937236012685255 -0.9998792239805564 -0.80488416312260813 11.414900152125606 -1.0000000180025095e-35 -0.99949395137572217 262434581.25000024 0.44719029044213804 0.0016550000000000002 8.3863578078341838 1314.8682316241477 20000.481670000008 0.25792120435686888 166.02834283974158 7505.0933000000032 0.07802902661128594 386.66010947270149 0.45174767790398213 -0.95392335712185738 3322.6139497409386 0.14073946400064344 0.029863745212709136 8.6287109936059672 6104.1545342323034 0.0085579172106066206 9431336.0400000066 8.5602579152044758 62.264525249675209
decision_type=2 2 2 2 2 2 2 2 2 2 2 2 2 2 2 2 2 2 2 2 2 2 2 2 2 2 2 2 2 2
left_child=1 3 9 4 -1 7 -7 8 -5 17 -9 12 13 14 16 -8 18 -3 20 -20 23 24 -23 25 -22 -12 -26 -24 29 -28
right_child=-2 2 -4 5 -6 6 15 10 -10 -11 11 -13 -14 -15 -16 -17 -18 -19 19 -21 21 22 27 -25 26 -27 28 -29 -30 -31
leaf_value=-5.1163792582920626 565.69046411758825 -4.4271838283538818 403.92979993581775 -32.805758268182927 245.49648200511933 121.6628110408783 -1.9367919527251147 -9.5759809902736119 -5.8547427718703808 -15.019598696231842 -1.2724985051155091 -8.4960081100463878 -7.2638429641723636 2.0324070541946977 -4.665441236824825 -6.185636672973633 0.080674730498215261 -1.9166138467334566 -2.0185466472919171 1.4750246047973634 -1.9466321948983545 2.0008540248870852 -2.4153183850375091 -0.6011691779857784 -1.1293953559615397 -1.9450245447647878 -1.9070307690164316 -1.9520646198375804 -2.0503724928825133 -1.2511044666916131
leaf_weight=35 39 20 20 33 20 20 29 28 37 20 35 37 30 27 29 20 29 84 39 20 17411 20 22 33 22 39 23 74 31 20
leaf_count=35 39 20 20 33 20 20 29 28 37 20 35 37 30 27 29 20 29 84 39 20 17411 20 22 33 22 39 23 74 31 20
internal_value=-4.01271e-08 -1.20511 52.2824 -1.62917 86.0156 -1.89537 32.6576 -2.02754 -18.5602 -4.43493 -1.96314 -1.95126 -1.93773 -1.92879 -1.93478 -3.67101 -1.93034 -2.39942 -1.93362 -0.834285 -1.93728 -1.94108 -1.35839 -1.31058 -1.94494 -1.62694 -1.63846 -2.05823 -1.7898 -1.60195
internal_weight=18346 18307 144 18163 55 18108 69 18039 70 124 17969 17941 17904 17874 17847 49 17818 104 17789 59 17730 17623 116 107 17507 74 96 96 74 43
internal_count=18346 18307 144 18163 55 18108 69 18039 70 124 17969 17941 17904 17874 17847 49 17818 104 17789 59 17730 17623 116 107 17507 74 96 96 74 43
is_linear=0
shrinkage=0.1


Tree=3
num_leaves=31
num_cat=0
split_feature=242 286 125 2 127 187 48 72 121 148 283 15 1 188 24 179 221 287 20 0 116 53 30 0 270 207 183 212 8 198
split_gain=1.01305e+09 4.08647e+07 2.78471e+08 3.04442e+07 7.9007e+07 8.16462e+06 2.19066e+07 1.17782e+06 794081 531581 2.12496e+06 175540 110261 95993.9 75175.8 49033.7 77678.2 36397.4 29855.5 10311.8 7601.71 81865.5 3946.18 1714.39 778.827 705.865 861.979 1039.97 482.373 481.703
threshold=6110.7696994898952 1314.8682316241477 0.062580472103004339 0.00016500000000000003 0.0053078437359244087 0.25792120435686888 30.831422279179378 36582.193400000084 0.00015892847050569261 34537.129586145187 0.0053316291381012579 0.00032880838352123478 0.0016550000000000002 8.3863578078341838 -0.010218461297324342 11.414900152125606 -0.0023705147347324869 36129.830473457056 520.60723605322744 3.3125500000000003 2579.2159285124353 6554525.9749999978 8.9636876230811797 1.2666000000000002 1595.4363928097082 0.0028639312823739238 1.0366380456263593 0.091198984042782594 0.34627280000093413 7505.0933000000032
decision_type=2 2 2 2 2 2 2 2 2 2 2 2 2 2 2 2 2 2 2 2 2 2 2 2 2 2 2 2 2 2
left_child=1 3 7 4 -1 9 -7 8 -3 12 14 -6 -5 15 -11 17 -17 18 19 20 22 -22 24 25 29 26 27 -24 -23 -14
right_child=-2 2 -4 5 11 6 -8 -9 -10 10 -12 -13 13 -15 -16 16 -18 -19 -20 -21 21 28 23 -25 -26 -27 -28 -29 -30 -31
leaf_value=232.1992692279816 509.12141958383421 -1.1588220437367758 397.071316318512 -8.2712574922121487 -1.7421969294548036 -9.4831254546706756 120.41696543216706 -35.197381416956588 -24.611170153184371 -8.3783575391769407 -38.150641946792604 -14.427286319732668 -1.7499789927199498 -7.226532518863678 -1.6266649860016846 -9.6991395854949971 -1.6535318120320639 1.7444239552815757 -5.0044885090419227 0.056953257322311407 4.9447689151763923 -1.7983807803448582 -0.37262818291783334 -0.45983014559745794 -2.2881214777628585 -1.7057273818225398 -1.605947156250477 -1.3924155008792878 -1.2822010445594789 -2.1807321621821476
leaf_weight=20 39 42 20 26 24 37 20 24 22 20 20 20 17328 32 94 20 30 30 28 32 20 191 20 25 27 41 28 20 20 26
leaf_count=20 39 42 20 26 24 37 20 24 22 20 20 20 17328 32 94 20 30 30 28 32 20 191 20 25 27 41 28 20 20 26
internal_value=-1.16417e-08 -1.0846 60.246 -1.44856 67.4004 -1.69153 36.0959 -16.3052 -9.22057 -1.81068 -8.08572 -7.50815 -1.76382 -1.75437 -2.81117 -1.74458 -4.87177 -1.73582 -1.74168 -1.73654 -1.73978 -1.16987 -1.74729 -1.2067 -1.75146 -1.378 -1.1804 -0.882522 -1.74945 -1.75062
internal_weight=18346 18307 108 18199 64 18135 57 88 64 18078 134 44 17944 17918 114 17886 50 17836 17806 17778 17746 231 17515 134 17381 109 68 40 211 17354
internal_count=18346 18307 108 18199 64 18135 57 88 64 18078 134 44 17944 17918 114 17886 50 17836 17806 17778 17746 231 17515 134 17381 109 68 40 211 17354
is_linear=0
shrinkage=0.1


Tree=4
num_leaves=31
num_cat=0
split_feature=27 57 242 275 284 26 55 20 129 65 286 97 261 151 187 148 283 2 95 267 179 253 98 265 191 0 184 223 181 61
split_gain=8.63458e+08 2.80464e+09 2.03679e+08 4.12626e+07 2.78492e+08 3.58918e+07 7.77956e+07 8.24636e+06 2.22135e+07 3.07064e+06 2.15675e+06 1.57199e+06 1.37834e+06 486338 413211 307663 1.39404e+06 110379 353904 70082.9 69971.2 116262 62686.3 37398 20358.8 11981.9 10283.1 27618.1 7209.61 15832.5
threshold=-0.94480661322088111 -0.0266405103741113 6110.7696994898952 17.388498566460186 0.056150995125913823 -0.9998792239805564 0.97572817880918505 139.27078534522559 5000.5000000000009 51995.000000000007 1314.8682316241477 3.8505000000000007 19.36543000000238 1.1499623127501815 0.25792120435686888 34537.129586145187 0.0041128408247107515 0.018920000000000003 0.0035724663698821929 0.8783711906580921 11.414900152125606 0.00044445506746926272 3.6375000000000006 7588.3499999977203 0.019682601570336262 3.3125500000000003 0.22638410583287275 0.012812900737572247 10822867.998500019 0.0028873016841716175
decision_type=2 2 2 2 2 2 2 2 2 2 2 2 2 2 2 2 2 2 2 2 2 2 2 2 2 2 2 2 2 2
left_child=1 -1 3 5 12 6 -2 10 -9 -3 14 13 -5 -12 15 17 -17 18 -7 -16 23 -22 24 25 -20 26 28 -28 -19 -30
right_child=2 9 -4 4 -6 7 -8 8 -10 -11 11 -13 -14 -15 19 16 -18 20 22 -21 21 -23 -24 -25 -26 -27 27 -29 29 -31
leaf_value=1353.1602120819689 -22.595632633992608 -51.829782440960415 -242.42056361607143 -1.789901518888688 398.43691912174228 -16.819397499561312 235.63277036190036 -1.9318866125817569 121.75307736158371 -3.421314196210159 -2.5105078170174049 -40.080503094714629 -30.271832988375706 -21.472923437754314 -7.2823938902219147 -1.3623294247202127 -30.772854204177857 -1.5713394390435784 -1.4397404628992083 -14.619406426471214 -10.561597487200862 -1.2998850829673536 -6.2658347129821781 2.0247445435359559 2.8407896447181704 0.61838534545898449 -1.257769923113488 -5.7982378488495243 -1.9107857810126412 1.8013801527023316
leaf_weight=20 28 20 35 89 20 20 20 53 20 38 38 23 21 21 30 83 20 17444 25 23 23 33 20 29 20 25 37 21 27 20
leaf_count=20 28 20 35 89 20 20 20 53 20 38 38 23 21 21 30 83 20 17444 25 23 23 33 20 29 20 25 37 21 27 20
internal_value=-7.50508e-08 332.008 -1.41759 -0.954965 55.1825 -1.3581 84.9995 -1.58768 31.9544 -20.1139 -1.72385 -17.9047 -7.22736 -9.25984 -1.64972 -1.62354 -7.07311 -1.59191 -5.18685 -10.4664 -1.5746 -5.1038 -1.60761 -1.56338 0.462717 -1.5693 -1.57241 -2.90173 -1.56801 -0.331141
internal_weight=18346 78 18268 18233 130 18103 48 18055 73 58 17982 82 110 59 17900 17847 103 17744 85 53 17659 56 65 17603 45 17574 17549 58 17491 47
internal_count=18346 78 18268 18233 130 18103 48 18055 73 58 17982 82 110 59 17900 17847 103 17744 85 53 17659 56 65 17603 45 17574 17549 58 17491 47
is_linear=0
shrinkage=0.1


Tree=5
num_leaves=31
num_cat=0
split_feature=242 286 2 1 127 27 57 186 214 165 202 275 284 126 148 283 149 187 223 16 11 151 2 179 221 281 0 120 92 178
split_gain=8.88858e+08 3.42279e+07 2.70129e+08 2.17118e+07 6.06216e+07 1.09586e+07 2.18154e+07 7.16692e+06 2.2703e+07 1.14385e+06 897074 504277 2.04572e+06 484756 354976 1.04291e+06 204049 168672 104234 95266.1 91195 105828 78487.2 38758.5 65617.9 33376.8 9687.82 6116.43 16017.1 2919.23
threshold=6110.7696994898952 1314.8682316241477 0.090670000000000014 0.0016550000000000002 0.0013672322462252725 -0.94480661322088111 -0.022903322041671666 5.2204648471647248 22146.124000000153 49.651000000037108 16.102093130165908 17.388498566460186 0.014039336253369174 0.0012364397973353358 34537.129586145187 0.0041128408247107515 -40492925.992000006 0.25792120435686888 0.0098960611821637141 1.7432409045208543 90.398821247588998 0.9909058509597034 0.00016500000000000003 11.414900152125606 -0.0023705147347324869 -0.9999444629303843 3.3125500000000003 2.4166684707299546 0.0020765876339635674 42.494979251161126
decision_type=2 2 2 2 2 2 2 2 2 2 2 2 2 2 2 2 2 2 2 2 2 2 2 2 2 2 2 2 2 2
left_child=1 3 -3 4 -1 6 -5 11 18 -4 -6 14 -13 -11 17 19 -8 20 -9 29 22 -22 -7 25 -25 -24 27 -27 -29 -16
right_child=-2 2 9 5 10 7 16 8 -10 13 -12 12 -14 -15 15 -17 -18 -19 -20 -21 21 -23 23 24 -26 26 -28 28 -30 -31
leaf_value=191.26693670099434 476.8940223106971 386.85553032398229 -1.6642090380191803 -129.34229941844941 0.96946650913783494 -6.8080557359589484 -13.177982621192934 -1.9885727785882494 120.43782163336874 -16.393498870849609 -28.259899046307524 -1.4074757932107662 -37.209876480102537 -34.231624498122777 -2.5490517759323121 -27.695568661689762 -0.048399986069777919 -8.6990990161895763 -11.545191596388818 -9.1136507770419115 -0.46110112780616402 -9.9262722863091373 1.6805640765598842 -8.6294001936912537 -1.2347005907694499 -1.4168457167621096 0.55654696655273439 -1.560776448249817 1.9051723575592043 -1.1791443276405336
leaf_weight=22 39 20 24 20 21 27 20 21 20 25 21 79 20 39 20 20 29 32 25 20 21 27 35 20 30 17494 25 40 20 70
leaf_count=22 39 20 24 20 21 27 20 21 20 25 21 79 20 39 20 20 29 32 25 20 21 27 35 20 30 17494 25 40 20 70
internal_value=-2.4377e-08 -1.01594 55.1139 -1.34904 56.7933 -1.55423 -41.3306 -1.40231 31.4904 -20.282 -13.6452 -1.52292 -8.64028 -27.2636 -1.48355 -6.69004 -5.40741 -1.44547 -7.18239 -2.87086 -1.43238 -5.78526 -1.42057 -1.41234 -4.19258 -1.40444 -1.41059 -1.41339 -0.40546 -1.48357
internal_weight=18346 18307 108 18199 64 18135 69 18066 66 88 42 18000 99 64 17901 130 49 17771 46 110 17739 48 17691 17664 50 17614 17579 17554 60 90
internal_count=18346 18307 108 18199 64 18135 69 18066 66 88 42 18000 99 64 17901 130 49 17771 46 110 17739 48 17691 17664 50 17614 17579 17554 60 90
is_linear=0
shrinkage=0.1


Tree=6
num_leaves=31
num_cat=0
split_feature=242 148 187 26 9 27 57 20 31 286 97 283 266 1 275 286 111 187 15 186 129 2 278 179 221 265 118 158 122 191
split_gain=7.19975e+08 3.17274e+07 2.7776e+08 2.16386e+07 6.39082e+07 7.92209e+06 1.46113e+07 7.19926e+06 2.25568e+07 3.70438e+06 1.11832e+06 1.04311e+06 661161 599811 570128 1.56864e+06 568621 301421 239508 113108 110682 63593.6 45109.5 31412.6 53150.5 30002.9 19886.4 9373.04 5685.36 16519.6
threshold=6110.7696994898952 34537.129586145187 -0.0086348469894554896 -0.9998792239805564 0.25267153341094084 -0.94480661322088111 -0.017555695549950841 139.27078534522559 0.020481486775478955 1314.8682316241477 2.7365000000000008 0.0053316291381012579 0.46709039384148549 0.0016550000000000002 17.388498566460186 0.039817654975197951 0.033937011947410604 0.25792120435686888 0.0034072601043314489 5.2204648471647248 1972.9450000000002 0.00016500000000000003 703641.08000000089 11.414900152125606 -0.0023705147347324869 7588.3499999977203 5.7299999931670316 140.2402533242234 11.141376692651297 0.01012245205543952
decision_type=2 2 2 2 2 2 2 2 2 2 2 2 2 2 2 2 2 2 2 2 2 2 2 2 2 2 2 2 2 2
left_child=1 3 -3 4 -1 6 -5 9 -9 13 -11 12 -4 -7 17 26 -12 19 -18 21 -10 -15 -19 25 -25 27 -16 28 -23 -30
right_child=-2 2 11 5 -6 7 -8 8 20 10 16 -13 -14 14 15 -17 18 22 -20 -21 -22 23 -24 24 -26 -27 -28 -29 29 -31
leaf_value=198.50357964038849 429.204668719952 391.65921354427934 -1.3118973392324571 -105.00144930339997 -23.372548717610979 -15.999047982692719 -1.5401549252466513 120.37949953794481 -1.5276990379605975 -5.346743048032125 -15.721960501237348 -30.852305145263671 -19.725396590966447 -6.1272501689416394 -4.8986541509628303 -33.989142923355104 -42.767726273970169 -12.504761713201351 -27.647502269744873 -6.7394057992649712 -11.131619226364862 -1.275463034457502 -6.4046321798253949 -7.7664601540565492 -1.111230541865031 1.9505745657559102 -1.1676358194351197 0.27997866410475514 -1.4143973372199321 2.0517656183242798
leaf_weight=21 39 20 78 21 34 28 39 20 28 30 22 20 26 27 20 20 22 22 20 38 21 17471 27 20 30 29 50 39 44 20
leaf_count=21 39 20 78 21 34 28 39 20 28 30 22 20 26 27 20 20 22 22 20 38 21 17471 27 20 30 29 50 39 44 20
internal_value=9.47846e-08 -0.914349 45.8399 -1.28503 61.3438 -1.47525 -37.7516 -1.35465 30.8848 -1.47838 -21.2779 -9.93737 -5.91527 -1.37432 -1.35139 -9.29042 -28.7457 -1.31117 -35.5676 -1.28951 -5.64366 -1.2778 -9.14347 -1.27038 -3.77332 -1.26327 -2.23364 -1.26857 -1.27202 -0.331221
internal_weight=18346 18307 144 18163 55 18108 60 18048 69 17979 94 124 104 17885 17857 90 64 17767 42 17718 49 17680 49 17653 50 17603 70 17574 17535 64
internal_count=18346 18307 144 18163 55 18108 60 18048 69 17979 94 124 104 17885 17857 90 64 17767 42 17718 49 17680 49 17653 50 17603 70 17574 17535 64
is_linear=0
shrinkage=0.1


Tree=7
num_leaves=31
num_cat=0
split_feature=27 127 242 275 125 26 55 57 188 129 286 286 148 187 132 283 1 79 20 187 4 15 2 186 262 179 253 129 198 117
split_gain=7.03335e+08 2.8058e+09 3.31601e+08 3.1696e+07 2.70974e+08 2.30829e+07 5.9683e+07 1.55548e+07 7.38358e+06 2.11767e+07 2.25138e+06 2.12861e+06 1.11581e+06 2.23514e+06 788226 518404 512577 322200 178463 113883 89719.4 69098.2 51444.6 32103.4 25017.6 21845.3 41759.5 11044.2 8777.57 4770.2
threshold=-0.94480661322088111 0.085224677761638709 6110.7696994898952 17.388498566460186 0.0031268379797461114 -0.9998792239805564 0.97572817880918505 -0.025826555319733432 8.3863578078341838 403.26000000000005 0.049485793656777445 1314.8682316241477 34537.129586145187 -0.0080110049700887181 11091.133500000002 0.0031496994791290205 0.0016550000000000002 5.8140047215187325 139.27078534522559 0.25792120435686888 30216.500000000004 0.021770127867446806 0.00016500000000000003 5.2204648471647248 20000.481670000008 11.414900152125606 0.0016554015324967699 98999.935000000012 7505.0933000000032 34236451.800000004
decision_type=2 2 2 2 2 2 2 2 2 2 2 2 2 2 2 2 2 2 2 2 2 2 2 2 2 2 2 2 2 2
left_child=1 7 3 5 10 6 -2 -1 11 -10 21 12 16 -14 -13 27 -7 -16 19 22 -20 -5 -18 24 25 28 -27 -15 29 -24
right_child=2 -3 -4 4 -6 8 -8 -9 9 -11 -12 14 13 15 17 -17 18 -19 20 -21 -22 -23 23 -25 -26 26 -28 -29 -30 -31
leaf_value=-123.93085998535157 -26.029123340334213 1321.0082981397213 -308.7883656529018 -1.3836259051605508 387.10178846836089 -14.968062112949514 200.1496871185303 -14.977772625864141 -11.548782849311829 117.44293912604451 -33.99185132162912 -7.1318789664242006 -41.277748408317564 -0.9732658948968439 -36.061182657877609 -19.41650706291199 -5.5145250561060735 -18.326239948272708 -11.447479543685914 -7.4245414602345434 -2.5811785128499785 -8.1437915620349699 -1.148769536892229 -4.9637772896073082 1.9582817811232347 -6.7697883093357092 -0.83012524802109289 -3.6465143585205078 0.59823270008481788 -0.67482545453448628
leaf_weight=20 28 20 35 54 20 27 20 38 35 20 35 36 20 68 21 20 27 20 25 29 21 21 17325 22 26 20 29 20 29 215
leaf_count=20 28 20 35 54 20 27 20 38 35 20 35 36 20 68 21 20 27 20 25 29 21 21 17325 22 26 20 29 20 29 215
internal_value=-1.87124e-08 299.646 -1.27942 -0.689124 48.5122 -1.04245 68.212 -52.5478 -1.22656 35.3573 -13.0495 -1.33835 -1.26707 -10.5703 -17.9293 -4.88373 -1.20015 -27.41 -1.17923 -1.16308 -7.39982 -3.27647 -1.15282 -1.14615 -1.14139 -1.14597 -3.25448 -1.58082 -1.14009 -1.14296
internal_weight=18346 78 18268 18233 130 18103 48 58 18055 55 110 18000 17923 128 77 108 17795 41 17768 17722 46 75 17693 17666 17644 17618 49 88 17569 17540
internal_count=18346 78 18268 18233 130 18103 48 58 18055 55 110 18000 17923 128 77 108 17795 41 17768 17722 46 75 17693 17666 17644 17618 49 88 17569 17540
is_linear=0
shrinkage=0.1


Tree=8
num_leaves=31
num_cat=0
split_feature=242 286 24 27 26 54 127 187 84 57 121 275 125 148 187 184 54 283 286 1 188 20 4 2 186 282 244 179 253 270
split_gain=6.49247e+08 2.88056e+07 2.5659e+08 2.49678e+07 1.78086e+07 5.31389e+07 1.21355e+07 6.43024e+06 2.03442e+07 5.42039e+06 1.69426e+06 1.47544e+06 2.08072e+06 881349 1.82051e+06 788387 558324 430735 398870 389438 232391 145030 72672.7 41670.1 26003.7 23817 48131.2 17652.6 33825.2 14726.5
threshold=6110.7696994898952 1314.8682316241477 0.017493056855951154 -0.94480661322088111 -0.9998792239805564 804083.82000000053 0.050075357788599763 0.25792120435686888 325.64133127990709 -0.012905895303239821 2.5772717293648388e-12 17.388498566460186 0.0020677163199808173 34537.129586145187 -0.0080110049700887181 0.00086128936010976276 14404.58699999959 0.0031496994791290205 0.013830422617816257 0.0016550000000000002 8.3863578078341838 139.27078534522559 30216.500000000004 0.00016500000000000003 5.2204648471647248 -0.99993153714758598 2.8888964465753974e-05 11.414900152125606 0.0016554015324967699 -8.4135632946044829
decision_type=2 2 2 2 2 2 2 2 2 2 2 2 2 2 2 2 2 2 2 2 2 2 2 2 2 2 2 2 2 2
left_child=1 3 10 6 5 -5 9 11 -9 -1 16 13 18 19 -15 -12 -3 -16 29 -6 21 23 -23 -21 25 26 -25 -27 -29 -13
right_child=-2 2 -4 4 7 -7 -8 8 -10 -11 15 12 -14 14 17 -17 -18 -19 -20 20 -22 22 -24 24 -26 27 -28 28 -30 -31
leaf_value=-73.037388277053836 407.57774126101765 0.66827174377441412 373.94541080951694 184.91767724990848 -13.314052794529841 -25.516242243448897 -121.83715446428819 113.68770908355714 -11.494421531058649 -5.8288299864530568 -24.426098483541736 -4.0528734995424749 -42.148973722457889 -37.149973783493046 -1.1821206217588383 -51.573295135498057 -21.748054008483891 -17.474856491088868 -17.623565371470018 -4.9630726250785369 -10.169565796852112 -10.30273155593872 -2.3230606670713141 4.960361113548279 -4.4673995895819232 -1.0283359388997408 -1.2566170576846962 -6.0928095495700845 -0.74711272634308923 -0.71531564422856231
leaf_weight=20 39 25 20 20 26 30 22 20 37 30 23 20 20 20 86 20 20 20 22 27 28 25 21 20 22 17542 33 20 29 39
leaf_count=20 39 25 20 20 26 30 22 20 37 30 23 20 20 20 86 20 20 20 22 27 28 25 21 20 22 17542 33 20 29 39
internal_value=3.4233e-08 -0.868276 50.624 -1.17385 -0.940414 58.6573 -59.9449 -1.10526 32.4291 -32.7123 -22.8582 -1.21133 -13.2639 -1.1434 -9.47745 -37.0527 -9.29454 -4.25622 -6.13177 -1.08438 -1.06648 -1.05212 -6.65984 -1.03754 -1.03154 -1.02725 1.08941 -1.03363 -2.92903 -1.84669
internal_weight=18346 18307 108 18199 18127 50 72 18077 57 50 88 18020 101 17919 126 43 45 106 81 17793 17767 17739 46 17693 17666 17644 53 17591 49 59
internal_count=18346 18307 108 18199 18127 50 72 18077 57 50 88 18020 101 17919 126 43 45 106 81 17793 17767 17739 46 17693 17666 17644 53 17591 49 59
is_linear=0
shrinkage=0.1


Tree=9
num_leaves=31
num_cat=0
split_feature=27 55 242 148 91 149 26 223 179 57 286 24 187 275 280 53 125 1 286 187 3 189 20 129 4 185 57 2 281 287
split_gain=5.84908e+08 2.74869e+09 3.535e+08 2.94563e+07 2.70444e+08 1.87803e+07 1.58362e+07 5.15585e+07 5.8661e+06 2.24198e+07 4.56974e+06 1.55737e+06 1.45632e+06 1.3365e+06 1.7427e+06 647846 600501 315660 315020 307552 262986 190963 164422 93298.2 79282.6 48524.1 34437.2 33867.7 23241.4 19505.3
threshold=-0.94480661322088111 1.1025858871159235 6110.7696994898952 34537.129586145187 -0.020489021444505259 -40197858.10549996 -0.9998792239805564 0.016150203385196949 11.414900152125606 0.012789432931315183 1314.8682316241477 0.013258625623214228 -0.0078438983729095507 17.388498566460186 0.030376413471557843 26434228.160000004 1.0000000180025095e-35 0.0016550000000000002 0.022715759570467401 0.25792120435686888 0.15423500000000004 0.033376988205541143 139.27078534522559 98999.935000000012 30216.500000000004 2.3296426472603513 0.0074091851580599952 0.00016500000000000003 -0.9999444629303843 0.0023824555788333232
decision_type=2 2 2 2 2 2 2 2 2 2 2 2 2 2 2 2 2 2 2 2 2 2 2 2 2 2 2 2 2 2
left_child=1 5 3 6 -5 -1 7 -2 10 21 13 15 -6 17 16 20 29 -8 23 22 -12 -10 25 26 -24 27 -14 -19 -29 -15
right_child=2 -3 -4 4 12 -7 8 -9 9 -11 11 -13 18 14 -16 -17 -18 19 -20 -21 -22 -23 24 -25 -26 -27 -28 28 -30 -31
leaf_value=-32.465168199023687 169.12470137856224 1284.1718093442917 -318.66731584821429 385.46290196150539 -37.02255443572998 -150.8659587065379 -11.596140854699271 -38.879885629507214 -3.190822532259185 117.26454292058946 -30.576983197530112 -46.768860626220707 -4.2758747489556024 -3.8132919132709504 -38.909063110351568 -4.2423032818169437 -21.12214590072632 -4.4667653949172417 -16.56248113203932 -9.9568104292217061 -15.921881652832031 -15.892440299987795 -10.219030836650305 -9.4239331449781147 -2.0907546276137943 -4.8876425681575659 1.0361629160550925 1.6158969852659439 -0.92755854477960009 -0.033242168173540469
leaf_weight=37 22 20 35 20 20 21 28 26 29 20 24 21 23 20 20 29 20 27 27 38 25 20 28 21 21 31 26 36 17568 43
leaf_count=37 22 20 35 20 20 21 28 26 29 20 24 21 23 20 20 29 20 27 27 38 25 20 28 21 21 31 26 36 17568 43
internal_value=-7.29322e-08 273.257 -1.16674 -0.557269 45.6373 -75.3344 -0.906996 56.4556 -1.05956 28.0421 -1.17124 -22.5966 -12.4525 -1.05261 -12.4109 -16.0887 -6.02576 -0.986802 -7.38654 -0.970066 -23.0999 -8.37516 -0.950784 -3.84725 -6.73548 -0.934735 -1.45724 -0.927785 -0.922357 -1.23326
internal_weight=18346 78 18268 18233 137 58 18096 48 18048 69 17979 99 117 17880 103 78 83 17777 97 17749 49 49 17711 70 49 17662 49 17631 17604 63
internal_count=18346 78 18268 18233 137 58 18096 48 18048 69 17979 99 117 17880 103 78 83 17777 97 17749 49 49 17711 70 49 17662 49 17631 17604 63
is_linear=0
shrinkage=0.1


Tree=10
num_leaves=31
num_cat=0
split_feature=242 27 286 155 55 2 127 123 1 116 30 148 91 275 125 4 121 286 187 11 1 187 179 207 132 175 57 185 214 159
split_gain=6.04513e+08 5.10113e+07 2.75845e+07 2.52592e+08 2.36976e+07 1.24989e+07 4.78328e+07 5.75318e+06 2.28422e+07 4.85561e+06 2.25712e+06 1.88933e+06 2.01435e+06 1.26277e+06 1.34512e+06 1.2244e+06 590993 559534 546546 412792 257721 252131 213095 203007 97988.2 90857.5 62562.4 39329.8 38850.2 34133.1
threshold=6110.7696994898952 -0.94480661322088111 1314.8682316241477 -0.011101337992527769 1.0879294912334285 0.00016500000000000003 0.0062366627827108801 -0.38358343337334933 0.15808500000000003 0.081308625066489185 0.036028841317890643 34537.129586145187 -0.0052835200981708455 17.388498566460186 0.0020677163199808173 17.500000000000004 2.5772717293648388e-12 0.022257821590939374 0.25792120435686888 90.398821247588998 0.0016550000000000002 -0.0057073553832612802 11.414900152125606 -0.053991018954930532 18951.220000000005 88.565823966038792 0.0096229044123052904 2.3296426472603513 11.608000000221717 0.0092603284402326801
decision_type=2 2 2 2 2 2 2 2 2 2 2 2 2 2 2 2 2 2 2 2 2 2 2 2 2 2 2 2 2 2
left_child=1 4 5 -4 9 6 -3 8 -7 -1 16 13 -13 18 17 -8 -5 29 19 20 -9 -14 27 -21 28 -20 -24 -22 -23 -15
right_child=-2 2 3 10 -6 7 15 11 -10 -11 -12 12 21 14 -16 -17 -18 -19 25 23 22 24 26 -25 -26 -27 -28 -29 -30 -31
leaf_value=-19.474729796818323 393.2860739683494 171.03754829406739 370.46699563980104 -6.0437273188999718 -173.59747779482888 -1.5581794443883394 -35.864013290405275 -10.823032437838041 118.55292067289352 -80.108000030517587 -52.58203125 -36.386048001256484 -16.400461323261261 -5.1327608296275145 -35.288254718780522 -0.87259972095489502 -25.171011912027996 -20.568092439288186 -7.7356379954020191 -16.345242056012154 -0.83384285033065453 0.1437900097746598 -3.9955611737569172 -3.6014049891233442 -9.8510016715526589 -16.311842164539154 -10.768973650932313 -4.3988783257622872 -5.3012815833091738 -0.13231241120848544
leaf_weight=28 39 20 20 35 21 76 20 26 20 25 21 29 20 20 20 20 30 21 30 25 17527 38 30 25 20 21 25 31 20 43
leaf_count=28 39 20 20 35 21 76 20 26 20 25 21 29 20 20 20 20 30 21 30 25 17527 38 30 25 20 21 25 31 20 43
internal_value=2.74774e-08 -0.83783 -0.501542 50.3628 -83.6965 -0.798978 44.767 -0.950301 23.465 -48.0753 -24.08 -1.08073 -13.2345 -0.994225 -11.9812 -18.3683 -14.8717 -6.43184 -0.929814 -0.90001 -0.874291 -6.38358 -0.859605 -9.97332 -3.81515 -11.267 -7.07439 -0.840137 -1.73382 -1.71976
internal_weight=18346 18307 18233 106 74 18127 60 18067 96 53 86 17971 127 17844 104 40 65 84 17740 17689 17639 98 17613 50 78 51 55 17558 58 63
internal_count=18346 18307 18233 106 74 18127 60 18067 96 53 86 17971 127 17844 104 40 65 84 17740 17689 17639 98 17613 50 78 51 55 17558 58 63
is_linear=0
shrinkage=0.1


Tree=11
num_leaves=31
num_cat=0
split_feature=237 11 229 179 27 275 84 55 26 55 187 212 242 286 286 153 148 91 68 187 0 120 179 2 280 20 123 1 63 4
split_gain=5.33018e+08 2.90118e+09 9.26383e+07 8.3743e+07 3.84886e+07 2.5098e+07 2.59408e+08 1.734e+07 1.1578e+07 4.72871e+07 5.79396e+06 2.07828e+07 4.24941e+06 3.96963e+06 2.31774e+06 1.60404e+06 1.48073e+06 1.74109e+06 765726 269425 232478 192113 165703 151267 121439 109972 57674.6 173362 54822.8 49042.2
threshold=1492.6062731574768 1.5652303794470834 478.62830000000002 0.12072218438356729 -0.94480661322088111 17.388498566460186 1621.6259528976996 1.0879294912334285 -0.9998792239805564 0.97572817880918505 0.25792120435686888 1.0284060334828609 2.468920341274734 1314.8682316241477 0.28904904598948394 -0.022134298684476247 34537.129586145187 -0.0052835200981708455 6758.8530000000001 -0.0058328488515920198 0.0016550000000000002 -5.3979043457275101e-13 11.414900152125606 0.00016500000000000003 0.0072096105970992372 139.27078534522559 -0.38358343337334933 0.15550500000000003 0.0060446375270387593 30216.500000000004
decision_type=2 2 2 2 2 2 2 2 2 2 2 2 2 2 2 2 2 2 2 2 2 2 2 2 2 2 2 2 2 2
left_child=2 -2 4 -3 7 8 14 12 9 -6 13 -12 -1 16 21 -15 20 -18 -17 -19 -10 -7 23 -22 -21 26 27 -25 -24 -27
right_child=1 3 -4 -5 5 6 -8 -9 10 -11 11 -13 -14 15 -16 18 17 19 -20 24 22 -23 28 25 -26 29 -28 -29 -30 -31
leaf_value=-13.301352111816406 1280.9591959430652 -49.437800431251532 -216.0774860429764 -338.8215966796875 -35.603077043805804 -2.2961646901873443 374.61601652503015 -152.54571441650393 -9.6154458363850921 165.72202972412111 -14.186998022927179 112.95223371505739 -70.023549365997312 -47.747734470367433 -38.604344109927908 -3.7497646268208822 -33.690584727696013 -15.770223035812378 -26.343661321004234 -0.44342347794565662 -8.7213962992032368 -12.35508886752902 -2.6231521983941395 -0.91063281928791717 -9.4798612999916081 -8.5107945882357097 -0.75125398099276064 -11.501928074359896 -8.9457269918173559 -2.0134231766064961
leaf_weight=25 20 20 20 20 28 39 20 20 30 20 36 20 28 20 34 30 28 20 30 58 24 37 24 68 20 26 17508 20 32 21
leaf_count=25 20 20 20 20 28 39 20 20 30 20 36 20 28 20 34 30 28 20 30 58 24 37 24 68 20 26 17508 20 32 21
internal_value=6.29586e-08 297.567 -0.976375 -194.13 -0.740854 -0.450082 43.3314 -73.207 -0.765179 48.2824 -0.895863 31.2199 -43.2678 -0.996007 -16.9021 -23.222 -0.896556 -11.6989 -15.0467 -5.41551 -0.819888 -7.19327 -0.805 -0.787785 -2.76046 -0.776993 -0.764089 -3.31775 -6.23605 -5.60771
internal_weight=18346 60 18286 40 18266 18193 130 73 18063 48 18015 56 53 17959 110 80 17879 126 60 98 17753 76 17723 17667 78 17643 17596 88 56 47
internal_count=18346 60 18286 40 18266 18193 130 73 18063 48 18015 56 53 17959 110 80 17879 126 60 98 17753 76 17723 17667 78 17643 17596 88 56 47
is_linear=0
shrinkage=0.1


Tree=12
num_leaves=31
num_cat=0
split_feature=242 27 148 120 55 229 26 244 179 120 286 116 275 84 91 155 125 122 187 61 0 188 2 280 188 254 225 179 20 30
split_gain=5.32339e+08 3.54255e+07 2.52026e+07 2.57552e+08 1.78265e+07 1.18138e+07 9.4143e+06 4.56888e+07 4.89419e+06 2.12261e+07 4.52989e+06 3.64196e+06 2.26163e+06 2.16805e+06 1.92218e+06 1.65667e+06 788498 618918 380682 285481 189111 134368 122575 121736 81865.4 79884.6 77289.1 74083.8 55690 42648.7
threshold=6110.7696994898952 -0.94480661322088111 34537.129586145187 0.035646019462785901 1.0879294912334285 16779.180000000004 -0.9998792239805564 0.01039121525056194 11.414900152125606 -0.0019675060372196791 1314.8682316241477 0.081308625066489185 17.388498566460186 1224.2907608810649 -0.0052835200981708455 -0.0069606699463239377 0.00072740500677925823 -0.34147093704766973 0.25792120435686888 0.0052639633979346687 0.0016550000000000002 0.00018553455799863452 0.00016500000000000003 3.781419621873284e-12 8.3863578078341838 1.1229533383003785 23.460000000000004 0.059338871917904122 139.27078534522559 0.0019493049464387499
decision_type=2 2 2 2 2 2 2 2 2 2 2 2 2 2 2 2 2 2 2 2 2 2 2 2 2 2 2 2 2 2
left_child=1 4 5 14 11 6 7 -3 10 -10 12 -1 18 16 -4 -12 23 -17 20 27 -8 -11 -22 -14 25 26 28 -16 -24 -20
right_child=-2 2 3 -5 -6 -7 8 -9 9 21 15 -13 13 -15 19 17 -18 -19 29 -21 22 -23 24 -25 -26 -27 -28 -29 -30 -31
leaf_value=-14.171328776223319 369.06225460737181 154.12654885337466 -36.79297369595232 373.85020489811899 -147.80937238420759 -64.603924389543209 -8.6539012833436342 -42.541565866823554 112.55146046280862 -5.1627480958189285 -44.534783815383918 -66.683066894531251 0.11774987322943552 -45.159700298309332 -0.35217243999461917 -5.1060785021100727 -25.781057839393618 -23.423570867685171 -7.222287654876709 -16.148806154251101 -7.849256849288941 -15.744493370964415 -0.68190813044907161 -9.2071616862856214 -6.937832169305711 5.0749714036782585 -6.4913999225782311 -7.232252869112739 -4.2850887200167014 -13.752884254455566
leaf_weight=28 39 21 29 20 21 29 30 27 20 28 25 25 42 20 34 35 20 39 20 25 24 21 17543 21 21 24 23 29 43 20
leaf_count=28 39 21 29 20 21 29 30 27 20 28 25 25 42 20 34 35 20 39 20 25 24 21 17543 21 21 24 23 29 43 20
internal_value=1.44669e-08 -0.786225 -0.505981 42.2232 -69.8361 -0.829473 -0.727106 43.5007 -0.844922 25.7368 -0.947103 -38.941 -0.828799 -15.6041 -14.4652 -22.2788 -8.48224 -14.7599 -0.743051 -7.10715 -0.72104 -9.69778 -0.707577 -2.99055 -0.697869 -0.690437 -0.698295 -3.51919 -0.690718 -10.4876
internal_weight=18346 18307 18233 137 74 18096 18067 48 18019 69 17950 53 17851 103 117 99 83 74 17748 88 17708 49 17678 63 17654 17633 17609 63 17586 40
internal_count=18346 18307 18233 137 74 18096 18067 48 18019 69 17950 53 17851 103 117 99 83 74 17748 88 17708 49 17678 63 17654 17633 17609 63 17586 40
is_linear=0
shrinkage=0.1


Tree=13
num_leaves=31
num_cat=0
split_feature=27 19 242 286 51 191 229 2 172 186 78 148 275 84 153 120 91 68 125 179 26 187 1 212 124 286 156 217 251 254
split_gain=5.34841e+08 2.72323e+09 4.14928e+08 2.57524e+07 2.40266e+08 1.76879e+07 9.57037e+06 7.25881e+06 3.94852e+07 4.87547e+06 2.13937e+07 2.58797e+06 1.98382e+06 1.77884e+06 1.651e+06 1.55289e+06 1.07155e+06 848813 627834 294813 345151 189685 138134 125082 114355 112567 104793 127298 71106.4 64474.3
threshold=-0.94480661322088111 1.3344007538687872 6110.7696994898952 1314.8682316241477 0.047082929826027152 0.015720762154412021 16779.180000000004 0.00016500000000000003 47.29125747171188 5.2204648471647248 97.47643065005964 34537.129586145187 17.388498566460186 1224.2907608810649 -0.022134298684476247 0.015339693203702322 -0.0052835200981708455 473.45250000000004 0.00072740500677925823 11.414900152125606 -0.99971963676430009 0.25792120435686888 0.0016550000000000002 0.13806277191665114 0.0003710575650032189 0.013517574186646853 0.0070330390214939928 -0.012383459240705217 0.22017733239040851 1.1229533383003785
decision_type=2 2 2 2 2 2 2 2 2 2 2 2 2 2 2 2 2 2 2 2 2 2 2 2 2 2 2 2 2 2
left_child=1 -1 3 6 -5 -3 7 8 -2 11 23 12 19 18 -6 16 -13 -16 25 20 -9 22 -22 -11 -21 -14 27 -18 29 -24
right_child=2 5 -4 4 14 -7 -8 9 -10 10 -12 15 13 -15 17 -17 26 -19 -20 24 21 -23 28 -25 -26 -27 -28 -29 -30 -31
leaf_value=1267.5217549324036 -29.885697694726897 -44.068689439103416 -345.09794712611608 351.58675062088741 -47.136705545278701 -158.97447480701265 -58.143532457022836 -11.379476650555929 136.96490206511123 -5.9634358530459197 112.70767534732818 -27.568641040943291 0.53974706593312716 -40.71372807820638 -1.8844843740048618 -40.556042804718018 -13.508072881471543 -26.477785873413087 -23.202952461242678 -12.35747528898305 -7.9137941507192764 -8.3363542735576637 -0.61914690175582132 -16.392587213930877 -3.0257883091767628 -8.7288282048702239 -0.47344319880008695 -3.1270623606664163 -6.0589085406313341 4.5674740314483646
leaf_weight=20 37 37 35 21 26 21 29 30 23 23 20 27 38 21 23 20 21 36 20 29 26 32 17554 23 24 20 35 27 24 24
leaf_count=20 37 37 35 21 26 21 29 30 23 23 20 27 38 21 23 20 21 36 20 29 26 32 17554 23 24 20 35 27 24 24
internal_value=2.12746e-08 261.3 -1.11569 -0.455383 48.6908 -85.6725 -0.742772 -0.650794 34.0737 -0.766298 26.3631 -0.865928 -0.763497 -14.8799 -26.1423 -14.9242 -10.2639 -16.8906 -7.92468 -0.684732 -0.66242 -0.644214 -0.630251 -11.178 -8.13181 -2.65631 -4.63459 -7.66875 -0.619492 -0.612065
internal_weight=18346 78 18268 18233 106 58 18127 18098 60 18038 66 17972 17842 99 85 130 110 59 78 17743 17690 17660 17628 46 53 58 83 48 17602 17578
internal_count=18346 78 18268 18233 106 58 18127 18098 60 18038 66 17972 17842 99 85 130 110 59 78 17743 17690 17660 17628 46 53 58 83 48 17602 17578
is_linear=0
shrinkage=0.1


Tree=14
num_leaves=31
num_cat=0
split_feature=242 27 148 159 19 55 237 26 9 286 20 255 52 91 120 275 284 154 187 67 2 179 55 156 26 5 179 186 114 124
split_gain=5.09614e+08 5.82693e+07 2.15052e+07 2.47334e+08 1.9281e+07 8.20421e+06 7.83607e+06 7.22401e+06 3.7751e+07 5.75699e+06 5.16116e+06 2.28185e+07 1.26549e+06 1.07692e+06 1.03905e+06 960763 1.44774e+06 835275 662699 436098 375808 276536 247639 187409 145633 456884 128007 126271 110233 77459.6
threshold=6110.7696994898952 -0.94480661322088111 34537.129586145187 0.0092603284402326801 1.4339875443948624 1.0247952892577981 1492.6062731574768 -0.9998792239805564 0.29322287483607512 1314.8682316241477 139.27078534522559 0.010097260541992404 414.35507147456877 -0.013761234827845302 0.0053822110883330341 17.388498566460186 0.014039336253369174 -0.016513104262911745 0.25792120435686888 47495.700000000004 0.00016500000000000003 11.414900152125606 0.82369020728136078 -0.0039546096305548275 -0.99450933425837251 0.022643999999999987 3.5698490711152693 5.2204648471647248 2.7565272077548229 -0.0007643801480264888
decision_type=2 2 2 2 2 2 2 2 2 2 2 2 2 2 2 2 2 2 2 2 2 2 2 2 2 2 2 2 2 2
left_child=1 4 6 -4 -1 -6 7 8 -3 10 15 19 17 -5 23 18 22 -11 20 -12 -9 24 -17 -15 -22 -26 -20 -27 -25 -23
right_child=-2 2 3 13 5 -7 -8 9 -10 12 11 -13 -14 14 -16 16 -18 -19 26 -21 21 29 -24 28 25 27 -28 -29 -30 -31
leaf_value=-173.20124664306641 361.09915865384619 143.05501135826111 364.04265829563144 -37.620233535766602 -28.366986445469013 -109.08321456909181 -49.393746173743047 -12.395500833016856 -36.828351429530549 -43.070364924839566 -22.013051373025647 116.3224712753296 -7.6246738560994478 -12.36335963055943 -31.824612681070967 -13.622681604623796 -34.725484752655028 -21.063116707521328 -6.913100379943848 -2.0813402993338452 7.060555656433106 -12.406153588067918 -0.45654483032226562 3.0849766282737257 -13.575567898264637 -0.54600055878409204 -16.934904780754675 -6.9338559027641056 -7.0660899504371315 -4.7239102104731971
leaf_weight=20 39 20 20 20 34 20 33 27 28 35 23 20 30 33 21 20 20 34 25 21 25 21 50 20 27 17545 26 31 23 35
leaf_count=20 39 20 20 20 34 20 33 27 28 35 23 20 30 33 21 20 20 34 25 21 25 21 50 20 27 17545 26 31 23 35
internal_value=-2.35758e-08 -0.769261 -0.409845 39.0607 -89.3266 -58.2619 -0.708666 -0.619721 38.123 -0.722949 -0.590064 27.7569 -24.7712 -16.4917 -12.1353 -0.691689 -10.9977 -32.2262 -0.639468 -12.5002 -0.606691 -0.588692 -4.2183 -6.69489 -0.566403 -0.577235 -12.0223 -0.557267 -2.34466 -7.60475
internal_weight=18346 18307 18233 137 74 54 18096 18063 48 18015 17916 64 99 117 97 17852 90 69 17762 44 17711 17684 70 76 17628 17603 51 17576 43 56
internal_count=18346 18307 18233 137 74 54 18096 18063 48 18015 17916 64 99 117 97 17852 90 69 17762 44 17711 17684 70 76 17628 17603 51 17576 43 56
is_linear=0
shrinkage=0.1


Tree=15
num_leaves=31
num_cat=0
split_feature=220 150 242 27 286 78 220 19 176 55 229 1 127 148 14 275 84 159 159 120 186 91 26 120 2 179 174 5 187 45
split_gain=4.58587e+08 2.9744e+09 4.20968e+08 4.55994e+07 2.21511e+07 2.36226e+08 1.72995e+07 1.59024e+07 1.47014e+07 7.24634e+06 6.31604e+06 5.54156e+06 3.54116e+07 3.2346e+06 1.81545e+06 1.41966e+06 1.26431e+06 1.21206e+06 949434 709386 567198 528850 437734 432253 298363 223616 141029 134616 125140 103373
threshold=-0.12564071653825662 25484.395699999481 6110.7696994898952 -0.94480661322088111 1314.8682316241477 -144.8435212425199 -0.11089660457896781 1.4339875443948624 297.12699069559841 1.0247952892577981 16779.180000000004 0.0016550000000000002 0.0013672322462252725 34537.129586145187 -0.0069142255767612893 17.388498566460186 1224.2907608810649 0.010791194771901685 0.01679675729588288 0.0053822110883330341 5.2204648471647248 -0.0030930860971964953 -0.99971963676430009 0.00040437139729232468 0.00016500000000000003 11.414900152125606 1621.6074218186268 0.15664099999951039 0.25792120435686888 -1.5485854130016035
decision_type=2 2 2 2 2 2 2 2 2 2 2 2 2 2 2 2 2 2 2 2 2 2 2 2 2 2 2 2 2 2
left_child=1 8 3 7 6 -6 -5 -2 -1 -9 11 12 -8 15 -7 20 23 -15 -16 21 22 -19 -13 27 -24 28 -22 -17 -26 -23
right_child=2 -3 -4 4 5 14 10 9 -10 -11 -12 13 -14 17 18 16 -18 19 -20 -21 26 29 24 -25 25 -27 -28 -29 -30 -31
leaf_value=-1.2345281489870765 -155.88112075805665 1308.8087784075738 -358.16559244791665 74.00799957946424 345.5558638436454 -55.330199661254881 130.85022291703658 -21.443868780788037 -96.2150413954258 -98.174893951416024 -47.389805339944779 -12.442568797604068 -27.819529709449185 -39.192993733882908 -10.029620732201472 0.85590906858444216 -34.182109578450522 -19.397845160961154 -34.342640870192959 -29.429825859069826 -16.83555485118519 1.6248948528216436 -11.253574048555814 -19.230619192123413 -0.5027011574993876 -7.0812028719828675 -6.6180241094316763 -8.6174135963122058 -6.9668269487222041 -6.8062523581764927
leaf_weight=88 20 20 33 31 21 20 22 32 20 20 29 31 39 20 36 40 21 30 29 20 22 26 26 21 17455 52 35 24 30 33
leaf_count=88 20 20 33 31 21 20 22 32 20 20 29 31 39 20 36 40 21 30 29 20 22 26 26 21 17455 52 35 24 30 33
internal_value=-3.46616e-08 188.619 -1.32524 -0.677689 -0.361975 45.2176 -0.630283 -80.1017 -18.8235 -50.9558 -0.758999 -0.68365 29.4056 -0.786269 -28.9836 -0.671648 -12.2099 -16.564 -20.877 -12.4118 -0.602357 -8.58758 -0.570091 -6.78147 -0.549136 -0.533265 -10.5616 -2.69659 -0.513792 -3.09083
internal_weight=18346 128 18218 18185 18113 106 18007 72 108 52 17976 17947 61 17886 85 17757 106 129 65 109 17651 89 17594 85 17563 17537 57 64 17485 59
internal_count=18346 128 18218 18185 18113 106 18007 72 108 52 17976 17947 61 17886 85 17757 106 129 65 109 17651 89 17594 85 17563 17537 57 64 17485 59
is_linear=0
shrinkage=0.1


Tree=16
num_leaves=31
num_cat=0
split_feature=242 27 275 278 19 26 55 187 63 55 237 220 150 286 280 148 136 120 275 147 52 1 91 2 20 179 220 5 23 52
split_gain=4.87488e+08 3.80776e+07 2.05145e+07 2.47691e+08 1.26556e+07 5.61742e+06 3.59156e+07 5.48003e+06 1.97355e+07 5.38792e+06 5.11909e+06 4.89838e+06 2.58707e+07 3.9797e+06 3.12379e+06 2.44372e+06 1.39391e+06 1.02407e+06 826476 438845 357014 339626 330383 240851 223272 177848 160574 141207 121744 99739.7
threshold=6110.7696994898952 -0.94480661322088111 17.388498566460186 166426.37999998327 1.4339875443948624 -0.9998792239805564 0.97572817880918505 0.25792120435686888 0.007071150674211585 1.0247952892577981 1492.6062731574768 -0.12564071653825662 24654.078399999478 1314.8682316241477 -0.98913815782142689 34537.129586145187 2078.5282999999768 0.0084597007522645446 17.431341224322001 0.092847642315899287 61.478716829259817 0.0016550000000000002 -0.0042055422224315233 0.00016500000000000003 139.27078534522559 11.414900152125606 -0.11089660457896781 0.15664099999951039 0.89410992176081938 231.53403380160859
decision_type=2 2 2 2 2 2 2 2 2 2 2 2 2 2 2 2 2 2 2 2 2 2 2 2 2 2 2 2 2 2
left_child=1 4 5 14 -1 6 -3 10 -9 -6 11 12 -7 15 -4 21 20 19 -16 -17 -15 -13 -21 -23 25 26 -25 -20 -24 -26
right_child=-2 2 3 -5 9 7 -8 8 -10 -11 -12 13 -14 16 18 17 -18 -19 27 22 -22 23 28 24 29 -27 -28 -29 -30 -31
leaf_value=-140.29300872802736 353.17317958733975 -39.688522611345569 -53.440219584378326 362.83749639570715 -22.946070362539857 -0.23329534220695494 135.76742462158205 110.04327508687973 -13.851307810677424 -88.357404479980474 -40.283720189874828 -11.948199433546801 -124.8223485815525 -23.104680824279786 -24.131028854846956 -22.085783553123477 -40.021293856302897 -33.619987255594005 0.52435304041831721 -17.70553379058838 -5.8561543973286945 -10.128216582078201 0.52307190644113644 -7.8950888535072075 -11.538135337829591 -6.1046275104795189 -0.44778633171986748 -9.5768020491600048 -9.1158874368667604 -2.1449832916259766
leaf_weight=20 39 28 22 20 34 100 20 20 36 20 33 26 20 20 32 24 30 23 31 20 30 26 38 29 26 56 17458 25 20 20
leaf_count=20 39 28 22 20 34 100 20 20 36 20 33 26 20 20 32 24 30 23 31 20 30 26 38 29 26 56 17458 25 20 20
internal_value=-1.87497e-08 -0.752376 -0.461832 39.1208 -72.3402 -0.74608 33.4181 -0.836907 30.3968 -47.1725 -0.934084 -0.861806 -20.9981 -0.726406 -19.7368 -0.626197 -22.9802 -14.559 -11.3109 -10.2609 -12.7556 -0.527473 -6.62246 -0.510616 -0.496399 -0.478155 -0.460137 -3.98509 -2.80071 -7.45416
internal_weight=18346 18307 18233 130 74 18103 48 18055 56 54 17999 17966 120 17846 110 17766 80 125 88 102 50 17641 78 17615 17589 17543 17487 56 58 46
internal_count=18346 18307 18233 130 74 18103 48 18055 56 54 17999 17966 120 17846 110 17766 80 125 88 102 50 17641 78 17615 17589 17543 17487 56 58 46
is_linear=0
shrinkage=0.1


Tree=17
num_leaves=31
num_cat=0
split_feature=27 62 242 286 125 132 179 55 2 244 229 220 150 275 78 148 260 159 275 154 26 120 91 187 51 1 189 220 186 239
split_gain=5.06111e+08 2.60772e+09 4.26769e+08 1.98791e+07 2.34208e+08 1.94905e+07 4.68362e+06 2.09121e+07 4.18388e+06 3.07909e+07 4.14293e+06 3.99888e+06 2.09154e+07 2.51898e+06 2.25364e+06 2.13962e+06 2.0142e+06 890390 600386 581120 455514 449933 378917 372340 342098 276692 169051 160857 116122 84255.6
threshold=-0.94480661322088111 0.025572789494001984 6110.7696994898952 1314.8682316241477 0.02875482781917638 18141.803500000005 11.414900152125606 0.81955584289911176 0.00016500000000000003 0.01039121525056194 16779.180000000004 -0.12564071653825662 24654.078399999478 17.388498566460186 -138.41612309676771 34537.129586145187 322040.70000000007 0.010791194771901685 17.431341224322001 -0.048338204572876402 -0.99971963676430009 0.0049072243712934291 -0.0052835200981708455 0.25792120435686888 0.079362915997226738 0.0016550000000000002 0.012336992842043039 -0.11089660457896781 5.2204648471647248 -6.69732806335245e-17
decision_type=2 2 2 2 2 2 2 2 2 2 2 2 2 2 2 2 2 2 2 2 2 2 2 2 2 2 2 2 2 2
left_child=1 5 3 6 14 -1 8 -8 9 -2 11 12 -10 15 -5 20 18 -17 -15 -16 -13 22 -19 25 -21 -22 -9 -27 -29 -24
right_child=2 -3 -4 4 -6 -7 7 26 10 -11 -12 13 -14 16 19 17 -18 21 -20 24 23 -23 29 -25 -26 27 -28 28 -30 -31
leaf_value=-43.294200304934861 119.74357100833548 1238.8364056015016 -349.94097516741073 -56.528962395407945 350.99919226646426 -165.25465454101564 111.569748916626 -4.4718069076538089 -0.22246130680797074 -28.912783582586993 -38.622451782226562 -12.799750531514487 -112.34011367797854 -20.245745138006825 -31.729314430554709 -32.808970031738284 -43.816961960565479 -17.432069190343224 -2.7256705333601756 -21.294439067840578 -10.753379234900841 -23.007077825637094 -7.084637370476357 -10.104076964855196 -2.7985507249832153 -7.745952962239584 -16.252873538789295 -0.40580205953324366 -6.2555975465213551 0.30309259201350969
leaf_weight=38 22 20 35 22 20 20 20 29 99 38 29 30 20 31 24 20 21 24 53 20 26 21 26 40 20 30 21 17455 34 38
leaf_count=38 22 20 35 22 20 20 20 29 99 38 29 30 20 31 24 20 21 24 53 20 26 21 26 40 20 30 21 17455 34 38
internal_value=-1.70238e-08 254.185 -1.08531 -0.415649 42.764 -85.3495 -0.668147 25.1486 -0.768229 25.5945 -0.856119 -0.795165 -19.0658 -0.673354 -28.9186 -0.58197 -16.1165 -13.4138 -9.19141 -19.4276 -0.487998 -9.85506 -6.71651 -0.466994 -12.0465 -0.445023 -9.41985 -0.429725 -0.417175 -2.69817
internal_weight=18346 78 18268 18233 106 58 18127 70 18057 60 17997 17968 119 17849 86 17744 105 129 84 64 17615 109 88 17585 40 17545 50 17519 17489 64
internal_count=18346 78 18268 18233 106 58 18127 70 18057 60 17997 17968 119 17849 86 17744 105 129 84 64 17615 109 88 17585 40 17545 50 17519 17489 64
is_linear=0
shrinkage=0.1


Tree=18
num_leaves=31
num_cat=0
split_feature=242 27 62 148 119 55 286 123 106 26 223 237 220 150 125 265 275 282 187 47 275 6 149 179 0 259 179 2 20 1
split_gain=4.7156e+08 6.03901e+07 2.10437e+07 2.09503e+07 2.35687e+08 8.99939e+06 7.65022e+06 4.72714e+06 2.19673e+07 3.61878e+06 3.65091e+07 3.41685e+06 3.26058e+06 1.69492e+07 3.01999e+06 2.16092e+06 2.02776e+06 1.66154e+06 697815 625375 413412 386052 359169 313565 243394 241846 156317 146176 143970 127036
threshold=6110.7696994898952 -0.94480661322088111 0.022194961595886017 34537.129586145187 2.5000000030252187 1.040066821879422 1314.8682316241477 -0.38358343337334933 6975.477847527226 -0.9998792239805564 0.016340795990387225 1492.6062731574768 -0.12564071653825662 24654.078399999478 0.022534947358000993 0.45747385009895375 17.388498566460186 -0.99369282448570706 0.25792120435686888 0.098759501937663655 17.431341224322001 0.13263799999999989 -40998458.803999946 11.414900152125606 0.0016550000000000002 0.24065000000000003 4.4175596562547463 0.00016500000000000003 139.27078534522559 0.15221500000000002
decision_type=2 2 2 2 2 2 2 2 2 2 2 2 2 2 2 2 2 2 2 2 2 2 2 2 2 2 2 2 2 2
left_child=1 2 5 6 15 -1 7 8 29 10 -9 12 13 -11 19 21 18 20 23 22 -18 25 -8 24 -14 -5 -20 -26 -29 -3
right_child=-2 3 -4 4 -6 -7 14 9 -10 11 -12 -13 16 -15 -16 -17 17 -19 26 -21 -22 -23 -24 -25 27 -27 -28 28 -30 -31
leaf_value=-27.130779984418087 347.35552509014428 -0.61884759469465778 -178.51924972534181 -8.7334560394287113 355.82231886863713 -111.66820037841796 -19.371964454650879 117.71165521041208 114.85120703458786 0.087458427498737973 -56.865542236328125 -32.856334709398674 -9.3997604672114061 -101.10610168457032 -63.103566589355466 -43.885569017583677 -18.168386005219958 -34.370719076792398 -7.5061800620953241 -6.1344150106112165 -1.497328301972034 -1.4660855556145693 -36.170908126831058 -7.9626673530990431 -8.7228332882835762 -22.013003206253053 -18.755271475655693 -0.3600889114285038 -6.0236669921875006 -9.9256051433086405
leaf_weight=34 39 55 20 32 20 20 35 23 20 96 25 33 30 20 20 22 21 30 30 24 51 39 20 55 21 24 21 17401 45 20
leaf_count=34 39 55 20 32 20 20 35 23 20 96 25 33 30 20 20 22 21 30 30 24 51 39 20 55 21 24 21 17401 45 20
internal_value=4.13169e-08 -0.739983 -90.8945 -0.374084 38.584 -58.4409 -0.669025 -0.516527 21.7313 -0.634589 26.786 -0.708309 -0.648779 -17.3597 -28.3913 -15.6448 -0.539292 -14.5982 -0.457827 -19.6033 -6.35972 -9.10484 -25.4807 -0.423889 -0.400191 -14.4247 -12.1382 -0.384734 -0.374697 -3.10065
internal_weight=18346 18307 74 18233 137 54 18096 17997 95 17902 48 17854 17821 116 99 117 17705 102 17603 79 72 95 55 17552 17497 56 51 17467 17446 75
internal_count=18346 18307 74 18233 137 54 18096 17997 95 17902 48 17854 17821 116 99 117 17705 102 17603 79 72 95 55 17552 17497 56 51 17467 17446 75
is_linear=0
shrinkage=0.1


Tree=19
num_leaves=31
num_cat=0
split_feature=27 260 242 51 275 59 286 188 26 2 223 148 237 119 220 150 278 125 197 286 26 159 275 142 1 179 94 20 123 187
split_gain=4.34839e+08 2.59379e+09 4.2633e+08 2.6844e+07 1.93739e+07 2.27425e+08 5.18415e+06 6.35177e+06 1.81594e+07 3.30502e+06 2.72729e+07 2.96426e+06 2.78131e+06 2.73511e+06 2.53113e+06 1.38692e+07 2.15653e+06 2.04472e+06 804219 673888 484162 421878 413399 311043 222727 204488 198264 180285 161666 131297
threshold=-0.94480661322088111 55968.30000000001 6110.7696994898952 0.11542911005550634 17.388498566460186 -0.0054791141176564464 1314.8682316241477 8.3863578078341838 -0.009143810164211506 0.00016500000000000003 0.016340795990387225 34537.129586145187 1492.6062731574768 2.2497063858873831 -0.12564071653825662 24654.078399999478 98967.159999964846 0.017373731627553627 15.664699999997627 0.4472113275966782 -0.99971963676430009 0.011302408908898902 17.431341224322001 2.7768565433963275 0.0016550000000000002 11.414900152125606 0.00691424425399412 0.0087673633438130581 -0.38358343337334933 0.25792120435686888
decision_type=2 2 2 2 2 2 2 2 2 2 2 2 2 2 2 2 2 2 2 2 2 2 2 2 2 2 2 2 2 2
left_child=1 3 4 -1 6 -6 7 9 -9 10 -2 12 14 21 15 -11 19 18 -8 22 -16 -13 -7 -20 -22 28 -23 -28 -26 -30
right_child=2 -3 -4 -5 5 16 17 8 -10 11 -12 13 -14 -15 20 -17 -18 -19 23 -21 24 26 -24 -25 25 -27 27 -29 29 -31
leaf_value=-37.292951329549155 88.042050970754318 1217.6254435157778 -349.68243024553573 -173.4368804386684 348.32037767887118 -17.53759080638056 -33.235502834320066 108.90314094305039 -14.112460085550945 0.46152901710923189 -46.873393611250258 -22.674012641906742 -29.570701969031134 -49.738807048797611 -12.901326963978429 -90.995492401123045 -47.093220193045482 -53.502677459716807 0.15392397165298463 -27.125321267900013 -9.4685791015625007 -0.73374315261840817 -1.05714567191071 -17.077005941217596 -4.737577700331097 -6.8301624220244737 -6.0336409330368044 -17.935419883728027 -0.32881024722079433 -7.063063853362511
leaf_weight=30 31 20 35 28 20 23 20 20 30 97 29 20 33 20 31 20 21 20 20 21 27 35 45 22 84 49 35 20 17411 29
leaf_count=30 31 20 35 28 20 23 20 20 30 97 29 20 33 20 31 20 21 20 20 21 27 35 45 22 84 49 35 20 17411 29
internal_value=1.78298e-08 235.609 -1.00599 -103.018 -0.336675 38.1299 -0.612909 -0.498757 35.0938 -0.597785 22.8329 -0.676275 -0.566276 -15.7217 -0.512346 -15.1721 -18.2684 -25.6997 -16.7311 -11.4671 -0.415063 -9.53679 -6.63141 -8.8718 -0.39307 -0.379126 -6.61741 -10.3616 -0.361088 -0.340008
internal_weight=18346 78 18268 58 18233 130 18103 18021 50 17971 60 17911 17781 130 17748 117 110 82 62 89 17631 110 68 42 17600 17573 90 55 17524 17440
internal_count=18346 78 18268 58 18233 130 18103 18021 50 17971 60 17911 17781 130 17748 117 110 82 62 89 17631 110 68 42 17600 17573 90 55 17524 17440
is_linear=0
shrinkage=0.1


Tree=20
num_leaves=31
num_cat=0
split_feature=242 27 260 286 32 51 187 240 1 151 275 148 229 119 153 220 150 59 21 8 2 26 88 188 158 116 179 271 123 102
split_gain=4.57703e+08 8.18665e+07 2.32636e+07 1.86672e+07 2.26585e+08 1.43891e+07 4.51682e+06 1.92991e+07 3.30232e+06 2.71831e+07 2.73884e+06 2.40837e+06 2.27662e+06 2.2017e+06 2.11629e+06 2.08532e+06 8.86709e+06 1.10903e+06 920026 718860 397870 393256 359136 265660 204943 180427 166683 144119 132179 123625
threshold=6110.7696994898952 -0.94480661322088111 43584.55000000001 1314.8682316241477 235.47300000000004 0.2537054206370129 0.25792120435686888 2.4624800425590152 0.0016550000000000002 1.089412974123664 17.388498566460186 34537.129586145187 16779.180000000004 2.2497063858873831 -0.022134298684476247 -0.11089660457896781 25484.395699999481 -0.0052250850276634444 167971901.00000003 0.1047067000000262 0.00016500000000000003 -0.99971963676430009 0.0026439041887074137 8.3863578078341838 0.0074636210512994796 0.033215809226534575 11.414900152125606 -42.100870243422122 -0.38358343337334933 6601.8205500000095
decision_type=2 2 2 2 2 2 2 2 2 2 2 2 2 2 2 2 2 2 2 2 2 2 2 2 2 2 2 2 2 2
left_child=1 2 5 6 14 -1 8 -8 9 -3 11 12 15 22 -5 16 -10 -12 -19 -16 -17 -22 24 26 -13 -24 28 -20 29 -23
right_child=-2 3 -4 4 -6 -7 7 -9 10 -11 17 13 -14 -15 19 20 -18 18 27 -21 21 23 25 -25 -26 -27 -28 -29 -30 -31
leaf_value=-31.983744102365833 342.21373322315708 -25.624500861534706 -197.82798706054689 -53.470439590454106 344.7173698949814 -138.87930801391602 -15.22240827405775 106.7018696308136 -0.78030482843273985 117.76855408668519 -38.112286934852605 -22.004940366744997 -28.517504040948275 -44.764926185607912 -7.1389392580304829 -12.737608460279612 -64.112102833500614 -26.635845020839145 -0.1883862741065748 -28.923612629283561 -11.611193841503514 -2.1192558333277702 3.4937283754348756 -10.249836992334437 -9.657559506486102 -8.9687174842471169 -6.1471461549097182 -10.637365633520213 -0.28744078916201554 -11.12642503976822
leaf_weight=34 39 39 20 25 20 20 37 20 122 20 20 20 29 20 28 26 27 28 33 33 31 64 26 27 41 21 49 22 17385 20
leaf_count=34 39 39 20 25 20 20 37 20 122 20 20 20 29 20 28 26 27 28 33 33 31 64 26 27 41 21 49 22 17385 20
internal_value=1.99007e-08 -0.729029 -105.697 -0.303008 41.5398 -71.5747 -0.547689 27.558 -0.636346 22.9833 -0.713718 -0.620197 -0.521802 -14.288 -28.9666 -0.476065 -12.2565 -16.9737 -11.88 -18.9241 -0.376344 -0.358058 -8.64412 -0.338175 -13.7059 -2.0746 -0.322898 -4.36798 -0.306561 -4.26382
internal_weight=18346 18307 74 18233 106 54 18127 57 18070 59 18011 17908 17780 128 86 17751 149 103 83 61 17602 17576 108 17545 61 47 17518 55 17469 84
internal_count=18346 18307 74 18233 106 54 18127 57 18070 59 18011 17908 17780 128 86 17751 149 103 83 61 17602 17576 108 17545 61 47 17518 55 17469 84
is_linear=0
shrinkage=0.1


Tree=21
num_leaves=31
num_cat=0
split_feature=250 9 229 242 27 148 76 56 116 286 44 179 168 2 244 275 181 220 150 121 137 125 187 26 125 278 88 1 19 127
split_gain=4.17587e+08 2.77779e+09 2.60139e+08 1.30862e+08 6.03453e+07 1.8552e+07 2.27208e+08 1.62713e+07 9.13815e+06 7.16375e+06 6.04427e+06 4.15643e+06 2.00749e+07 2.4902e+06 2.57421e+07 2.43346e+06 1.88004e+06 1.7514e+06 9.62666e+06 1.72128e+06 993324 835994 551463 392342 375700 441922 369796 278511 231551 171399
threshold=0.64800710043998078 1.4395715702111569 16779.180000000004 21.900000000041256 -0.94480661322088111 34537.129586145187 45.272996062037045 -0.0070053082850857198 0.041896586035915694 1314.8682316241477 51.363566454674199 11.414900152125606 1834.2918999999713 0.00016500000000000003 0.01039121525056194 17.388498566460186 607552.05950002372 -0.12564071653825662 24654.078399999478 0.050146535872738325 1431.0841644977288 0.0034953927901830721 0.25792120435686888 -0.99971963676430009 0.00030717457139939347 15064.539999964571 0.0026439041887074137 0.0016550000000000002 0.066620898177001023 0.0082199104058552352
decision_type=2 2 2 2 2 2 2 2 2 2 2 2 2 2 2 2 2 2 2 2 2 2 2 2 2 2 2 2 2 2
left_child=2 -2 4 10 7 9 -7 -1 -9 11 -3 13 -13 14 -6 17 -11 18 -15 26 24 28 23 -19 25 -17 29 -25 -18 -8
right_child=1 3 -4 -5 5 6 19 8 -10 16 -12 12 -14 15 -16 20 21 22 -20 -21 -22 -23 -24 27 -26 -27 -28 -29 -30 -31
leaf_value=-158.79100535710654 1248.5938690567018 -46.681138721704485 -352.75556175595239 -321.09221176147463 105.96828809217973 347.91008725166324 -21.950150282486629 -14.215054841836295 -100.60267689609528 -54.721863918304443 31.063771351575852 108.6340151500702 -9.9089781913757324 0.32773677609404744 -29.955275334809954 0.3471893413646801 -19.149346409903632 -11.751183967590332 -75.801391296386711 -37.468734528223671 -33.570425669352218 -37.495823787507554 -12.080032138824464 -10.647638775752142 -22.301577520370486 -17.076152523358665 -2.7852081426760047 -0.29008130288186035 -6.1274477303028112 -9.7418561624444067
leaf_weight=24 20 20 21 20 22 20 23 24 25 20 20 20 50 98 38 37 36 30 20 30 24 21 40 26 20 24 41 17487 22 23
leaf_count=24 20 20 21 20 22 20 23 24 25 20 20 20 50 98 38 37 36 30 20 30 24 21 40 26 20 24 41 17487 22 23
internal_value=-9.15478e-09 227.971 -0.99845 -112.237 -0.593577 -0.229067 36.4309 -91.3317 -58.2904 -0.507548 -7.80868 -0.359479 23.9604 -0.454765 19.8834 -0.523298 -27.3336 -0.43326 -12.5755 -16.8134 -15.7019 -20.3999 -0.351773 -0.325031 -10.4076 -6.5079 -9.69092 -0.305458 -14.21 -15.846
internal_weight=18346 80 18266 60 18245 18172 137 73 49 18035 40 17936 70 17866 60 17806 99 17701 118 117 105 79 17583 17543 81 61 87 17513 58 46
internal_count=18346 80 18266 60 18245 18172 137 73 49 18035 40 17936 70 17866 60 17806 99 17701 118 117 105 79 17583 17543 81 61 87 17513 58 46
is_linear=0
shrinkage=0.1


Tree=22
num_leaves=31
num_cat=0
split_feature=242 27 260 275 125 250 5 51 286 188 255 48 148 26 223 119 97 220 150 88 278 47 91 0 179 275 116 187 2 281
split_gain=4.45924e+08 5.63484e+07 1.99518e+07 1.71826e+07 2.20843e+08 1.37512e+07 2.4412e+07 1.08368e+07 4.75706e+06 5.08712e+06 1.68113e+07 4.05373e+06 3.31463e+06 2.4893e+06 3.17082e+07 2.26731e+06 1.5817e+06 1.42104e+06 7.79525e+06 629475 562512 440516 389381 353093 268306 208612 205100 204728 150723 132965
threshold=6110.7696994898952 -0.94480661322088111 43584.55000000001 17.388498566460186 0.0031268379797461114 0.64800710043998078 1.4731999999864613 0.2537054206370129 1314.8682316241477 8.3863578078341838 0.0081244249098968626 244.92860135911027 34537.129586145187 -0.9998792239805564 0.016150203385196949 2.2497063858873831 3.0105000000000004 -0.12564071653825662 24654.078399999478 0.0026439041887074137 8932.6499999646749 0.042311198049036436 0.00046328833904651928 0.0016550000000000002 11.414900152125606 7.9907685663190469 0.035511929575455965 0.25792120435686888 0.00016500000000000003 -0.99984544785700613
decision_type=2 2 2 2 2 2 2 2 2 2 2 2 2 2 2 2 2 2 2 2 2 2 2 2 2 2 2 2 2 2
left_child=1 2 7 5 11 8 -7 -1 9 12 -11 20 13 14 -3 19 25 18 -15 21 29 -14 -22 -19 27 -10 -21 28 -25 -5
right_child=-2 3 -4 4 -6 6 -8 -9 16 10 -12 -13 15 17 -16 -17 -18 23 -20 26 22 -23 -24 24 -26 -27 -28 -29 -30 -31
leaf_value=-21.846487285810358 337.78168882712339 117.56637468338013 -173.12625122070312 2.3234716355800629 341.5291197405756 -126.57305560112 2.9239377047564532 -114.61332263946534 -17.765469545903414 -15.848162689208985 102.51312808394432 -60.43928516387939 -26.085462840398151 0.28463186402710117 -49.913792360745944 -47.326733856201173 -39.080418937634199 -10.978954145985265 -68.221252136230461 3.39820836867605 -26.892850257873533 -9.2183279514312755 -8.1727307701110856 -8.3523970562478773 -7.6865519428511666 -3.8009784317016604 -9.8607533264160168 -8.6716559837604397 -0.2519150856507546 -8.5723421267100743
leaf_weight=34 39 20 20 24 20 24 37 20 23 30 20 20 30 98 26 20 39 31 20 28 25 32 20 23 49 20 20 29 17484 21
leaf_count=34 39 20 20 24 20 24 37 20 23 30 20 20 30 98 26 20 39 31 20 28 25 32 20 23 49 20 20 29 17484 21
internal_value=-2.97234e-08 -0.719587 -87.805 -0.366145 35.8597 -0.626287 -48.0257 -56.2046 -0.46603 -0.356311 31.4964 -19.7165 -0.445235 -0.32891 22.9037 -16.355 -24.4971 -0.389173 -11.3265 -10.7238 -10.667 -17.3798 -18.5728 -0.315909 -0.297112 -11.2704 -2.12636 -0.276464 -0.262557 -2.76124
internal_weight=18346 18307 74 18233 130 18103 61 54 18042 17960 50 110 17910 17780 46 130 82 17734 118 110 90 62 45 17616 17585 43 48 17536 17507 45
internal_count=18346 18307 74 18233 130 18103 61 54 18042 17960 50 110 17910 17780 46 130 82 17734 118 110 90 62 45 17616 17585 43 48 17536 17507 45
is_linear=0
shrinkage=0.1


Tree=23
num_leaves=31
num_cat=0
split_feature=27 87 242 44 286 109 250 10 5 123 120 275 125 148 28 26 119 188 220 150 21 78 76 0 147 155 179 187 187 2
split_gain=4.27386e+08 2.52433e+09 4.24405e+08 2.51611e+07 1.85237e+07 2.1052e+08 1.11334e+07 2.03967e+07 4.49657e+06 3.686e+06 2.09665e+07 3.55566e+06 3.27544e+06 2.6333e+06 2.61169e+06 8.0394e+06 1.82487e+06 1.31287e+06 1.20531e+06 6.26303e+06 620904 593723 560937 287084 274064 220415 204326 168328 166602 138769
threshold=-0.94480661322088111 1.0875311187198671 6110.7696994898952 47.036758459262209 1314.8682316241477 0.022406597881857507 0.64800710043998078 1.6022901034576049 0.30908699999951056 -0.38358343337334933 -0.82656034120190125 17.388498566460186 0.0020677163199808173 34537.129586145187 -0.96621220858974255 -0.9998792239805564 2.0223094191131916 8.3863578078341838 -0.12564071653825662 24654.078399999478 167040602.50000003 149.63712803428891 47.037238681766475 0.0016550000000000002 0.092847642315899287 -0.0021089059928092731 11.414900152125606 0.25792120435686888 0.25792120435686888 0.00016500000000000003
decision_type=2 2 2 2 2 2 2 2 2 2 2 2 2 2 2 2 2 2 2 2 2 2 2 2 2 2 2 2 2 2
left_child=1 3 4 -1 6 8 9 -8 21 10 -2 13 20 14 -11 -16 22 18 19 -17 -13 -6 -15 -20 -24 -22 28 -19 29 -25
right_child=2 -3 -4 -5 5 -7 7 -9 -10 11 -12 12 -14 16 15 17 -18 27 23 -21 25 -23 24 26 -26 -27 -28 -29 -30 -31
leaf_value=-191.26885723114015 -4.6825524932378304 1202.360830783844 -348.88563685825898 -52.697888911397833 -24.360097497882265 324.87883733113608 -100.1078125984438 15.557708053588868 -67.617233484441584 -33.289754762252173 110.23563354074955 -22.15147401217757 -55.340837280750272 -24.244907842363631 45.6671536094264 0.17019186446541235 -42.501380462646488 -11.889198364530293 -9.8810590190272194 -61.399126892089839 -11.821693857149645 -4.9224100176493337 -15.946482140677317 -8.3427547999790743 -2.8060653220690215 1.1004109613823168 -6.7646747837464023 -23.900904946327213 -7.8044902801513674 -0.2088642844264158
leaf_weight=20 77 20 35 38 33 21 31 30 22 24 20 29 20 21 38 95 20 28 31 20 22 30 21 21 65 33 48 20 29 17384
leaf_count=20 77 20 35 38 33 21 31 30 22 24 20 29 20 21 38 95 20 28 31 20 22 30 21 21 65 33 48 20 29 17384
internal_value=1.20406e-09 233.581 -0.997335 -100.481 -0.32953 41.3521 -0.573269 -43.2231 -28.6957 -0.429261 19.0119 -0.534208 -18.9709 -0.42688 -0.32415 -0.279486 -14.7751 -0.378263 -0.333291 -10.5375 -10.3114 -15.1041 -9.59265 -0.266285 -6.01477 -4.06843 -0.249235 -16.8941 -0.231297 -0.218678
internal_weight=18346 78 18268 58 18233 106 18127 61 85 18066 97 17969 104 17865 17738 17714 127 17676 17628 115 84 63 107 17513 86 55 17482 48 17434 17405
internal_count=18346 78 18268 58 18233 106 18127 61 85 18066 97 17969 104 17865 17738 17714 127 17676 17628 115 84 63 107 17513 86 55 17482 48 17434 17405
is_linear=0
shrinkage=0.1


Tree=24
num_leaves=31
num_cat=0
split_feature=242 27 91 148 2 250 5 286 116 20 87 275 125 76 25 141 70 99 188 220 150 26 0 278 121 258 123 91 13 45
split_gain=4.35218e+08 7.74309e+07 2.52666e+07 1.75202e+07 2.22114e+08 8.99449e+06 1.69683e+07 6.80243e+06 5.74923e+06 4.06879e+06 2.26552e+07 2.57822e+06 2.72932e+06 2.41659e+06 2.33024e+06 2.88108e+07 4.39879e+06 2.31304e+06 1.0175e+06 946151 5.09789e+06 703097 696082 590147 568081 357709 240422 225913 208160 190241
threshold=6110.7696994898952 -0.94480661322088111 -0.0033062962548233705 34537.129586145187 0.053865000000000003 0.64800710043998078 1.4731999999864613 1314.8682316241477 0.041896586035915694 139.27078534522559 0.79500773821928772 17.388498566460186 0.0020677163199808173 45.407452360220141 -0.98871607795829941 -3.5481271206442808 12225.960999999992 3.9970000000000003 8.3863578078341838 -0.12564071653825662 24654.078399999478 0.018726130889450302 0.0016550000000000002 15064.539999964571 0.058578611122236619 0.45215000000000005 -0.38358343337334933 -0.0034041114663619916 -51.019608199264077 -0.019355360640716409
decision_type=2 2 2 2 2 2 2 2 2 2 2 2 2 2 2 2 2 2 2 2 2 2 2 2 2 2 2 2 2 2
left_child=1 2 -1 5 -5 7 -7 9 -4 11 -11 14 23 -6 15 16 -3 21 19 20 -16 -9 -21 -13 27 -12 -24 -15 -28 -29
right_child=-2 3 8 4 13 6 -8 17 -10 10 25 12 -14 24 18 -17 -18 -19 -20 22 -22 -23 26 -25 -26 -27 28 29 -30 -31
leaf_value=-177.69162427357264 333.70209084535259 5.8860080525988625 -20.282117462158205 343.29752048969272 -48.964718093872072 -104.38691151936848 3.5766490626979519 -9.7138566631741003 -91.054973769187939 113.80281663894652 -21.39032883210616 -0.40913675285521012 -49.806753711700445 -15.299719456263952 0.33998809012960884 112.09808819944209 -56.783675098419195 -52.189772649911731 -15.38965407954322 -18.919746284484866 -55.259213256835942 -29.896772602626257 -5.5276072790456379 -18.956642940126617 -24.515303321506668 -4.4804763530862743 -9.5338966240485501 2.2018577472368874 -0.21441256822766888 -9.8864434283712654
leaf_weight=28 39 21 22 20 20 24 37 45 24 20 22 42 20 21 94 22 24 26 45 20 20 28 86 29 23 29 24 30 17418 23
leaf_count=28 39 21 22 20 20 24 37 45 24 20 22 42 20 21 94 22 24 26 45 20 20 28 86 29 23 29 24 30 17418 23
internal_value=-2.18918e-08 -0.710896 -102.796 -0.296577 35.3298 -0.566295 -38.9008 -0.436635 -57.2071 -0.292348 23.5991 -0.387298 -17.1765 -17.3143 -0.30134 18.3128 -27.5378 -26.5774 -0.371773 -0.33351 -9.41426 -17.4552 -0.274517 -7.98488 -10.7884 -11.7749 -0.253242 -6.52198 -0.227236 -3.04401
internal_weight=18346 18307 74 18233 137 18096 61 18035 46 17936 71 17865 91 117 17774 67 45 99 17707 17662 114 73 17548 71 97 51 17528 74 17442 53
internal_count=18346 18307 74 18233 137 18096 61 18035 46 17936 71 17865 91 117 17774 67 45 99 17707 17662 114 73 17548 71 97 51 17528 74 17442 53
is_linear=0
shrinkage=0.1


Tree=25
num_leaves=31
num_cat=0
split_feature=220 142 242 27 83 151 286 119 220 143 250 10 109 148 275 28 26 125 170 188 8 94 59 47 281 88 123 0 259 179
split_gain=3.9051e+08 2.79085e+09 4.25072e+08 5.98516e+07 2.46176e+07 2.11633e+07 1.56893e+07 2.04847e+08 1.39003e+07 1.08191e+07 7.26795e+06 1.41823e+07 3.97845e+06 3.01234e+06 2.39889e+06 2.3233e+06 6.54186e+06 2.14576e+06 1.30198e+06 882528 849865 555093 522828 487595 296504 232328 202497 198931 183915 165328
threshold=-0.12564071653825662 -56.733956840772485 6110.7696994898952 -0.94480661322088111 0.1402422338623058 1.0866263673093217 1314.8682316241477 3.9971345865792309 -0.11089660457896781 -0.36894664332783905 0.64800710043998078 1.6022901034576049 0.0035967958115072922 34537.129586145187 17.388498566460186 -0.96621220858974255 -0.9998792239805564 0.0020677163199808173 49.072476430762173 8.3863578078341838 0.12289680000000003 0.011643096918407128 -0.0040356499906141199 0.042311198049036436 -0.99799633836952162 -0.010689267811280987 -0.38358343337334933 0.0016550000000000002 0.24155000000000001 11.414900152125606
decision_type=2 2 2 2 2 2 2 2 2 2 2 2 2 2 2 2 2 2 2 2 2 2 2 2 2 2 2 2 2 2
left_child=1 -1 3 5 21 9 8 12 -5 -2 13 -12 20 14 15 -10 -17 22 25 26 -8 -3 -16 -20 -24 -15 -18 -28 -27 -29
right_child=2 4 -4 6 -6 -7 7 -9 10 -11 11 -13 -14 18 17 16 19 -19 23 -21 -22 -23 24 -25 -26 28 27 29 -30 -31
leaf_value=1259.1324312627316 -108.67987249465216 0.18469528871424057 -359.79850704308711 66.468340491479452 -127.03001582145691 -170.69896333113962 -7.0037439088563662 326.41682037353519 -31.326229119300844 -13.727708966391427 -82.444495514900453 14.004150740305583 -67.961835708618167 -16.677717933654787 -22.178972121647426 41.255046362625933 -5.0566740408711048 -44.82607891082764 -40.134147043228154 -13.822162530819575 -29.867471734408674 -18.767295634746553 1.1378247400609458 -20.230103730410338 -12.857213423649469 0.35266203130994528 -8.2238024373208329 -0.18982850861091571 -11.315447870167819 -6.0667660334457958
leaf_weight=20 21 68 33 31 20 23 37 20 24 28 31 30 20 20 21 38 87 20 20 48 29 20 41 32 24 35 31 17404 22 48
leaf_count=20 21 68 33 31 20 23 37 20 24 28 31 30 20 20 21 38 87 20 20 48 29 20 41 32 24 35 31 17404 22 48
internal_value=1.49538e-09 174.057 -1.22293 -0.572225 -26.8832 -91.5657 -0.210522 38.1491 -0.43633 -54.4215 -0.551708 -35.0107 -28.8899 -0.434376 -0.323943 -0.234019 -0.191755 -15.3227 -15.6604 -0.281151 -17.0499 -4.12258 -8.4614 -27.8855 -4.02957 -7.40456 -0.244158 -0.220209 -4.15082 -0.205992
internal_weight=18346 128 18218 18185 108 72 18113 106 18007 49 17976 61 86 17915 17786 17680 17656 106 129 17618 66 88 86 52 65 77 17570 17483 57 17452
internal_count=18346 128 18218 18185 108 72 18113 106 18007 49 17976 61 86 17915 17786 17680 17656 106 129 17618 66 88 86 52 65 77 17570 17483 57 17452
is_linear=0
shrinkage=0.1


Tree=26
num_leaves=31
num_cat=0
split_feature=242 27 91 275 58 220 250 207 286 188 92 282 261 119 220 153 148 28 1 63 125 199 26 204 222 97 88 188 278 8
split_gain=4.23493e+08 5.08271e+07 1.8618e+07 1.43633e+07 2.16187e+08 1.0661e+07 5.88389e+06 1.23214e+07 5.13734e+06 5.21296e+06 1.64708e+07 4.87029e+06 3.84679e+06 2.61804e+06 2.51604e+06 6.06501e+06 2.48039e+06 1.88636e+06 5.89076e+06 3.35592e+07 1.32971e+06 1.08644e+06 786414 770299 418495 390991 316701 295819 204830 183537
threshold=6110.7696994898952 -0.94480661322088111 -0.0033062962548233705 17.388498566460186 -0.027734951321953579 -0.54164467223177004 0.64800710043998078 -0.16300849530404155 1314.8682316241477 8.3863578078341838 0.0047264704960946488 -0.0079543561356928954 399.76736000000017 1.9551461823048057 -0.11089660457896781 -0.050385309850129893 34537.129586145187 -0.96621220858974255 0.0016550000000000002 0.00700599940714543 0.00030717457139939347 21.113749999999438 -0.99971963676430009 41.51053334818382 0.092691745146442808 3.7145000000000006 -0.0069844593154477766 0.00018553455799863452 8932.6499999646749 23.676010700000013
decision_type=2 2 2 2 2 2 2 2 2 2 2 2 2 2 2 2 2 2 2 2 2 2 2 2 2 2 2 2 2 2
left_child=1 2 -1 5 -5 -3 8 -8 9 14 -11 -4 20 23 15 -7 17 -16 19 -19 28 26 -20 -10 -17 -23 -18 -25 -6 -24
right_child=-2 3 11 4 12 6 7 -9 13 10 -12 -13 -14 -15 16 24 21 18 22 -21 -22 25 29 27 -26 -27 -28 -29 -30 -31
leaf_value=-147.70117413657053 329.17643166566512 -60.166581213474274 -78.26187286376954 335.18485996484759 0.11842815544870165 -63.636928117842899 28.329574350877245 -65.265128820370407 -30.397664097377231 -14.903783717155457 102.25266724586487 -13.123145671685538 -58.602299981272736 -55.826022266206294 -28.193604612350466 -13.1845427104405 -14.813940811157227 102.26347595214844 -16.692541584886353 -60.342148936878552 -32.085681398391721 -17.320617257395099 -0.19432452834696295 1.8533238315582274 0.45355587686811183 -34.321775945027667 -1.2242427516490855 -15.346070652008059 -11.529657158484826 -6.3230686036907899
leaf_weight=28 39 30 22 20 36 21 22 39 21 30 20 24 23 21 24 35 27 30 29 22 25 31 17478 20 63 24 47 20 26 49
leaf_count=28 39 30 22 20 36 21 22 39 21 30 20 24 23 21 24 35 27 30 29 22 25 31 17478 20 63 24 47 20 26 49
internal_value=4.3291e-08 -0.701255 -83.4101 -0.365575 32.7553 -0.603421 -0.50455 -31.5097 -0.399547 -0.285337 31.9588 -44.2764 -22.2318 -25.3726 -0.375505 -14.8677 -0.278406 -0.177325 -0.139138 33.4688 -12.6167 -14.0944 -0.238683 -14.8886 -4.41719 -24.7393 -6.18265 -6.74637 -4.76625 -0.211459
internal_weight=18346 18307 74 18233 130 18103 18073 61 18012 17930 50 46 110 82 17880 119 17761 17632 17608 52 87 129 17556 61 98 55 74 40 62 17527
internal_count=18346 18307 74 18233 130 18103 18073 61 18012 17930 50 46 110 82 17880 119 17761 17632 17608 52 87 129 17556 61 98 55 74 40 62 17527
is_linear=0
shrinkage=0.1


Tree=27
num_leaves=31
num_cat=0
split_feature=27 125 242 132 148 125 220 286 250 10 167 187 66 10 26 26 119 220 147 275 44 125 110 2 91 77 109 188 168 0
split_gain=4.2489e+08 2.40812e+09 4.21355e+08 3.36138e+07 1.52395e+07 2.13879e+08 7.28436e+06 5.84078e+06 4.79594e+06 1.04881e+07 4.23264e+06 4.05398e+06 1.7863e+07 3.11767e+06 1.72493e+07 5.65356e+06 2.16363e+06 2.03867e+06 4.96746e+06 1.52268e+06 1.3996e+06 1.37879e+06 1.06155e+06 614628 456429 415650 366099 352362 347910 300655
threshold=-0.94480661322088111 0.0087191753145995383 6110.7696994898952 18141.803500000005 34537.129586145187 0.065323886639676046 -0.54164467223177004 1314.8682316241477 0.64800710043998078 1.6389712997534398 181.07274999995471 0.25792120435686888 18298.590000000004 3.1202937618407236 -0.99971963676430009 -0.9998792239805564 2.2497063858873831 -0.11089660457896781 0.16736161291710036 17.388498566460186 41.648609632285464 0.0020677163199808173 0.0025046007160461703 0.097385000000000013 -0.0034041114663619916 271.9878869071818 -0.25307785412473133 8.3863578078341838 143.63139999996139 0.0016550000000000002
decision_type=2 2 2 2 2 2 2 2 2 2 2 2 2 2 2 2 2 2 2 2 2 2 2 2 2 2 2 2 2 2
left_child=1 3 4 -1 6 10 -2 8 11 -10 23 13 -13 14 -8 -15 22 18 28 27 -17 26 25 -6 -25 -9 -21 29 -16 -19
right_child=2 -3 -4 -5 5 -7 7 16 9 -11 -12 12 -14 15 17 20 -18 19 -20 21 -22 -23 -24 24 -26 -27 -28 -29 -30 -31
leaf_value=-38.154659611927841 -50.658732013044691 1179.1149272918701 -347.63033482142856 -198.31912391662598 -24.015281139101305 326.55630282447453 81.175195583930389 -15.948894776238337 -62.913055250379777 21.39958219766617 -62.114835493564605 -16.243826114109584 102.22638233184814 -52.876401049296071 -15.689794070571663 -28.534575151360556 -51.596018816077198 -10.522349228177752 -57.51739803722927 -17.253225278854369 -1.9303957776820408 -36.869736099243163 -36.36660306930542 -17.504502820968629 -0.3606238289312883 2.0311853599548342 -0.4605227289973079 -11.818575873741738 -0.90606685548256616 -0.15173359236424611
leaf_weight=38 29 20 35 20 28 21 26 36 36 25 20 35 20 30 20 23 23 28 21 20 141 20 20 24 44 20 37 26 78 17382
leaf_count=38 29 20 35 20 28 21 26 36 36 25 20 35 20 30 20 23 23 28 21 20 141 20 20 24 44 20 37 26 78 17382
internal_value=-2.4e-08 232.898 -0.994419 -93.3838 -0.329018 32.8977 -0.580568 -0.500186 -0.366723 -28.3587 -20.2647 -0.271369 26.8362 -0.354884 -0.216368 -12.9627 -24.723 -0.336387 -13.381 -0.24775 -5.66147 -14.2792 -16.5904 -11.5459 -6.4114 -9.52744 -6.3527 -0.185785 -3.92315 -0.168412
internal_weight=18346 78 18268 58 18233 137 18096 18067 17968 61 116 17907 55 17852 17658 194 99 17632 119 17513 164 77 76 96 68 56 57 17436 98 17410
internal_count=18346 78 18268 58 18233 137 18096 18067 17968 61 116 17907 55 17852 17658 194 99 17632 119 17513 164 77 76 96 68 56 57 17436 98 17410
is_linear=0
shrinkage=0.1


Tree=28
num_leaves=31
num_cat=0
split_feature=237 27 229 231 27 125 286 56 268 220 179 222 5 148 250 275 125 137 220 179 28 26 121 187 125 2 172 150 69 188
split_gain=4.21631e+08 2.2953e+09 8.32856e+07 7.94823e+07 6.48902e+07 3.79911e+07 1.6177e+07 1.99053e+08 1.22403e+07 7.12018e+06 3.74905e+06 1.86353e+07 3.33622e+06 3.21425e+06 2.91735e+06 2.87498e+06 2.69685e+06 2.21751e+06 1.72728e+06 4.46985e+06 1.71932e+06 5.23984e+06 751004 713439 686260 498332 548216 369957 291831 290639
threshold=1492.6062731574768 -0.001488113710422678 478.62830000000002 22365.892000000003 -0.94480661322088111 1.0000000180025095e-35 1314.8682316241477 -0.0061020240323045307 48.120625285512595 -0.54164467223177004 11.414900152125606 0.0066673697870664591 0.30908699999951056 34537.129586145187 0.64800710043998078 17.388498566460186 0.065323886639676046 1431.0841644977288 -0.11089660457896781 0.15525402215057557 -0.96621220858974255 -0.9998792239805564 0.048147197042142882 0.25792120435686888 0.00030717457139939347 0.091515000000000013 48.955843031788923 7521.8712999995087 32903.12900000011 8.3863578078341838
decision_type=2 2 2 2 2 2 2 2 2 2 2 2 2 2 2 2 2 2 2 2 2 2 2 2 2 2 2 2 2 2
left_child=2 -2 4 -3 5 8 9 -8 -1 -6 13 -12 22 14 15 18 25 24 19 28 -20 -22 27 29 -17 -15 -27 -9 -11 -23
right_child=1 3 -4 -5 6 -7 7 12 -10 10 11 -13 -14 16 -16 17 -18 -19 20 -21 21 23 -24 -25 -26 26 -28 -29 -30 -31
leaf_value=-106.40814739227295 1139.3552798461915 -31.732780380249025 -204.82243381500246 -313.65886108398439 -49.172861274083459 -201.10375525433085 314.38043044862297 -20.82189735412598 -5.4117076873779304 -14.372701325416566 -9.9496418632268906 104.26372580289841 -64.014769819804599 -23.114324685801634 -32.644517258235389 -3.657942462358319 -49.987644882202147 -43.53662896156311 -26.908406241734824 -55.355579536408186 37.46764868658942 -0.15947475023618818 -34.147719345092774 -13.543988906145097 -25.003465473651886 -21.046776857376102 -2.1478019158045454 -2.4064925163984299 -0.86736562877893464 -11.930867367699033
leaf_weight=20 20 20 20 20 30 23 21 20 30 20 50 20 21 23 28 61 20 24 24 20 37 17483 20 40 20 20 66 24 80 21
leaf_count=20 20 20 20 20 30 23 21 20 30 20 50 20 21 23 28 61 20 24 24 20 37 17483 20 40 20 20 66 24 80 21
internal_value=1.05335e-08 264.655 -0.868384 -172.696 -0.645069 -94.7384 -0.267516 38.6843 -45.8103 -0.495796 -0.414923 22.6827 -29.4289 -0.504812 -0.391197 -0.340546 -16.2331 -16.8389 -0.242813 -12.1996 -0.161312 -0.1248 -18.0804 -0.204081 -8.92844 -10.0396 -6.54291 -10.7771 -3.56843 -0.173597
internal_weight=18346 60 18286 40 18266 73 18193 106 50 18087 18057 70 85 17987 17858 17830 129 105 17725 120 17605 17581 64 17544 81 109 86 44 100 17504
internal_count=18346 60 18286 40 18266 73 18193 106 50 18087 18057 70 85 17987 17858 17830 129 105 17725 120 17605 17581 64 17544 81 109 86 44 100 17504
is_linear=0
shrinkage=0.1


Tree=29
num_leaves=31
num_cat=0
split_feature=242 27 125 250 24 4 57 286 220 186 253 148 119 10 26 26 7 125 220 147 275 18 250 285 86 187 267 77 179 187
split_gain=4.29085e+08 6.06072e+07 2.70144e+07 1.54427e+07 1.34572e+07 2.24338e+08 1.28436e+07 7.50449e+06 6.02513e+06 3.99636e+06 1.85001e+07 2.74231e+06 2.44113e+06 2.25947e+06 1.35978e+07 5.53795e+06 2.23179e+06 2.10518e+06 1.39888e+06 2.91372e+06 1.17707e+06 1.02832e+06 980530 895546 774921 552085 544001 442162 285926 285694
threshold=6110.7696994898952 -0.94480661322088111 1.0000000180025095e-35 1.9313486645345517 0.26725045250294394 181678.50000000003 -0.0086885886395148253 1314.8682316241477 -0.54164467223177004 5.2204648471647248 -1.0000000180025095e-35 34537.129586145187 2.1428571533766934 3.1202937618407236 -0.99971963676430009 -0.9998792239805564 2.231979999994135 0.065323886639676046 -0.11089660457896781 0.15999912048439749 17.388498566460186 0.14631077952812785 0.64800710043998078 0.0053976250449802041 147060.09949999818 0.25792120435686888 0.24679408623012597 169.80381523947293 11.414900152125606 -1.0000000180025095e-35
decision_type=2 2 2 2 2 2 2 2 2 2 2 2 2 2 2 2 2 2 2 2 2 2 2 2 2 2 2 2 2 2
left_child=1 2 6 4 7 16 -1 8 -3 11 -11 13 21 14 -10 -15 -6 26 19 -16 22 27 25 -22 -17 28 -13 -9 -20 -28
right_child=-2 3 -4 -5 5 -7 -8 12 9 10 -12 17 -14 15 18 24 -18 -19 20 -21 23 -23 -24 -25 -26 -27 29 -29 -30 -31
leaf_value=-103.67440789540609 331.34245605468755 -48.504198675889235 -180.99337941045349 -63.197778320312501 -0.051353318930610896 344.34048320084815 -3.1338796121102792 -22.424590912732214 72.061908103869513 104.3594509679079 -11.634618559750644 -3.5046547866258466 -55.768144762516023 -50.72190658887228 -3.8253457089716743 -0.6463141195830846 -34.746572655746711 -44.9888805770874 -0.11362994584049968 -46.109701824188235 -5.3143399457136793 -37.300707140835854 -22.31536630153656 -29.313088014851445 -21.835042896270753 -13.082533119664049 -26.157064645940608 -3.8877204341273157 -7.6867705147266392 -9.6431988334655756
leaf_weight=24 39 26 23 39 254 20 27 22 26 20 44 61 24 30 88 126 20 20 17104 20 48 22 20 23 20 33 22 31 50 20
leaf_count=24 39 26 23 39 254 20 27 22 26 20 44 61 24 30 88 126 20 20 17104 20 48 22 20 23 20 33 22 31 50 20
internal_value=-4.95503e-08 -0.70587 -91.0223 -0.339314 -0.204573 21.0164 -50.4471 -0.553119 -0.400422 -0.33006 24.6135 -0.420195 -28.0092 -0.316136 -0.202182 -11.5897 -2.58385 -15.2998 -0.31025 -11.6558 -0.239332 -19.1263 -0.186313 -13.0886 -3.54888 -0.160563 -9.53498 -11.5823 -0.135704 -18.2933
internal_weight=18346 18307 74 18233 18194 294 51 17900 17801 17775 64 17711 99 17588 17412 176 274 123 17386 108 17278 75 17207 71 146 17187 103 53 17154 42
internal_count=18346 18307 74 18233 18194 294 51 17900 17801 17775 64 17711 99 17588 17412 176 274 123 17386 108 17278 75 17207 71 146 17187 103 53 17154 42
is_linear=0
shrinkage=0.1


Tree=30
num_leaves=31
num_cat=0
split_feature=27 79 242 132 286 125 250 5 222 244 220 10 26 26 76 148 125 188 220 179 250 275 125 56 275 187 278 6 0 121
split_gain=3.78549e+08 2.3417e+09 3.81611e+08 3.37594e+07 1.47433e+07 1.98269e+08 1.24127e+07 5.31896e+06 4.863e+06 3.40476e+06 2.16437e+07 2.33397e+06 1.02318e+07 4.47081e+06 1.71873e+06 1.68263e+06 1.34768e+06 1.30132e+06 1.31038e+06 4.54248e+06 617961 514859 1.12299e+06 471867 433702 358505 266459 256943 234870 230256
threshold=-0.94480661322088111 -110.0401734766573 6110.7696994898952 17693.994500000004 1314.8682316241477 0.02875482781917638 1.9313486645345517 0.30908699999951056 2.1678210157268851 153.49231271690041 -1.0000000180025095e-35 3.1202937618407236 -0.99971963676430009 -0.9998792239805564 42.991519190437913 34537.129586145187 0.058082195629721729 8.3863578078341838 -0.12564071653825662 0.13944416895772455 0.64800710043998078 17.388498566460186 0.0020677163199808173 -0.0018741879306475304 0.047030086198148253 0.25792120435686888 48649.079999964692 1.9170249999891953 0.0016550000000000002 -0.0043908063432007141
decision_type=2 2 2 2 2 2 2 2 2 2 2 2 2 2 2 2 2 2 2 2 2 2 2 2 2 2 2 2 2 2
left_child=1 -1 4 -3 6 7 8 23 9 11 -11 12 -2 -13 -15 17 24 18 19 29 21 25 -23 -6 -17 28 -25 -12 -20 -14
right_child=2 3 -4 -5 5 -7 -8 -9 -10 10 27 13 15 14 -16 16 -18 -19 20 -21 -22 22 -24 26 -26 -27 -28 -29 -30 -31
