tree
version=v4
num_class=1
num_tree_per_iteration=1
label_index=0
max_feature_idx=44
objective=regression
feature_names=Column_0 Column_1 Column_2 Column_3 Column_4 Column_5 Column_6 Column_7 Column_8 Column_9 Column_10 Column_11 Column_12 Column_13 Column_14 Column_15 Column_16 Column_17 Column_18 Column_19 Column_20 Column_21 Column_22 Column_23 Column_24 Column_25 Column_26 Column_27 Column_28 Column_29 Column_30 Column_31 Column_32 Column_33 Column_34 Column_35 Column_36 Column_37 Column_38 Column_39 Column_40 Column_41 Column_42 Column_43 Column_44
feature_infos=[1.0000000000000001e-05:100000] [1.0000000000000001e-05:100000] [1.0000000000000001e-05:100000] [1.0000000000000001e-05:100000] [0:111600369] [0.10000000000000001:15000] [0.10000000000000001:100000] [0.001:15000] [0.10000000000000001:77000] [0:4489808.79] [4126.2399999999998:99998.990000000005] [4610:1000000] [0.01:88888] [1010:100000] [0:7484110.3959999997] [0.001:100000] [0.001:100000] [0.001:100000] [0.001:100000] [0:33058060.699999999] [0.01:100000] [0.01:100000] [0.01:100000] [0.01:100000] [0:23364541.530000001] [0.01:100000] [0.01:100000] [0.01:100000] [0.01:100000] [0:3144185.5950000002] [0.002:9999] [0.002:13000] [0.002:9999] [0.002:9999] [0:1567979.45] [0.10000000000000001:27951] [0.10000000000000001:27951] [0.10000000000000001:27951] [0.10000000000000001:27951] [0:42568407.600000001] [0.01:100000] [0.01:100000] [0.01:100000] [0.01:100000] [0:209964482.90000001]
tree_sizes=2773 2812 2838 2809 2821 2820 2808 2810 2815 2826 2824 2831 2823 2825 2830 2847 2816 2831 2831 2839 2834 2855 2834 2836 2843 2835 2816 2869 2849 2852 2845 2844 2860 2840 2845 2849 2809 2832 2832 2865 2813 2819 2848 2835 2832 2857 2846 2836 2868 2848 2824 2849 2839 2818 2847 2830 2852 2837 2856 2842 2821 2819 2827 2838 2831 2847 2824 2842 2824 2847 2840 2818 2844 2803 2828 2816 2832 2840 2841 2837 2817 2825 2810 2837 2833 2826 2823 2833 2851 2819 2818 2838 2824 2810 2819 2812 2819 2827 2826 2833

Tree=0
num_leaves=31
num_cat=0
split_feature=41 36 6 20 32 41 9 22 11 41 14 27 14 4 22 19 9 27 1 6 26 29 16 39 24 34 5 14 11 28
split_gain=4.45145e+09 1.23214e+10 9.1641e+08 5.16799e+08 8.92009e+08 2.84356e+08 2.4156e+08 5.62116e+08 2.40819e+08 2.02882e+08 6.34926e+07 4.90693e+08 9.04371e+08 1.2473e+08 7.12536e+08 4.83905e+09 4.09137e+08 1.34583e+09 7.40588e+06 3.31939e+06 1.45744e+06 7.51741e+06 1.44773e+06 734344 709333 1.57319e+06 2.6939e+06 514901 2.24177e+06 616341
threshold=0.010050000000000002 2.4495000000000005 41150.000000000007 81317.195000000022 17.383000000000006 0.020700000000000003 2005050.7600000002 362.59500000000008 12413.165000000003 99950.000000000015 149319.25300000003 1614.1800000000001 172443.11800000002 1.0000000180025095e-35 303.38000000000005 90.550000000000011 71.185000000000016 179.155 102.99998500000001 13361.213500000002 27970.000000000004 31237.015500000005 0.0085000000000000023 9706017.8500000015 1.0000000180025095e-35 17084.625000000004 27.825500000000002 146.67600000000002 9890.2100000000009 44.665000000000006
decision_type=2 2 2 2 2 2 2 2 2 2 2 2 2 2 2 2 2 2 2 2 2 2 2 2 2 2 2 2 2 2
left_child=1 -1 3 5 -5 8 9 -8 -2 10 18 13 -13 14 15 -12 17 -16 19 20 22 -22 -7 24 25 -24 -27 28 -26 -30
right_child=2 -3 -4 4 -6 6 7 -9 -10 -11 11 12 -14 -15 16 -17 -18 -19 -20 -21 21 -23 23 -25 27 26 -28 -29 29 -31
leaf_value=108.01682058245794 107.54948889093801 3013.5998288894557 613.22188761352402 953.78542829283708 107.4342711206051 128.4629570130196 746.79660684355736 107.41272860037103 501.01121909592894 397.25022705229753 107.42578574060198 954.86887540587429 107.41560676905848 107.74245202069713 1050.807243478384 1718.7023779395267 107.62018111247166 107.41860443562193 162.55864865263931 140.75507692845522 109.52553140511468 174.76776384123795 109.44058478362905 125.64923986702664 142.60744357015466 107.55855726648005 157.25171022185319 107.48989249369909 119.71681347690502 108.29641328463974
leaf_weight=54 28 20 37 20 33 34 20 44 35 25 122 20 34 3530 20 22 1384 62 25 31 151 20 221 23 21 24 20 10914 52 518
leaf_count=54 28 20 37 20 33 34 20 44 35 25 122 20 34 3530 20 22 1384 62 25 31 151 20 221 23 21 24 20 10914 52 518
internal_value=119.35 893.31 116.076 115.022 426.812 114.072 113.301 307.22 326.139 112.583 112.17 121.413 421.287 118.263 141.329 353.593 120.479 337.513 108.188 108.075 107.99 117.156 107.858 107.798 107.763 112.879 130.146 107.646 110.52 109.338
internal_weight=17564 74 17490 17453 53 17400 17337 64 63 17273 17248 5194 54 5140 1610 144 1466 82 12054 12029 11998 171 11827 11793 11770 265 44 11505 591 570
internal_count=17564 74 17490 17453 53 17400 17337 64 63 17273 17248 5194 54 5140 1610 144 1466 82 12054 12029 11998 171 11827 11793 11770 265 44 11505 591 570
is_linear=0
shrinkage=1


Tree=1
num_leaves=31
num_cat=0
split_feature=41 0 6 20 9 41 10 9 34 41 14 14 24 9 27 44 14 1 18 6 7 26 22 4 9 22 23 22 12 44
split_gain=3.60567e+09 1.0441e+10 7.42292e+08 4.18607e+08 9.01773e+08 2.30329e+08 2.40616e+08 1.95664e+08 5.56e+08 1.64335e+08 5.35799e+07 9.68442e+08 2.25954e+09 1.59864e+09 5.94635e+07 1.35974e+09 7.86983e+06 6.69976e+06 2.45262e+06 2.04024e+06 2.79909e+06 2.05799e+06 5.61264e+06 1.75521e+06 6.64792e+06 2.68425e+06 3.33104e+06 1.71933e+06 1.45221e+06 3.20633e+06
threshold=0.010050000000000002 0.14735500000000004 41150.000000000007 81317.195000000022 468579.7900000001 0.020700000000000003 12154.330000000002 2005050.7600000002 39882.215000000004 99950.000000000015 198732.37000000002 208725.97800000003 25783.677500000002 503.23000000000008 1614.1800000000001 1491354.7500000002 149319.25300000003 102.99998500000001 3.0410000000000004 13361.213500000002 312.00050000000005 27970.000000000004 445.42000000000002 1.0000000180025095e-35 96.905000000000015 303.38000000000005 1183.1400000000001 368.18000000000001 49120.015000000007 22061.200000000004
decision_type=2 2 2 2 2 2 2 2 2 2 2 2 2 2 2 2 2 2 2 2 2 2 2 2 2 2 2 2 2 2
left_child=1 18 3 5 -5 6 -2 9 -9 10 14 12 13 -12 17 16 -16 19 -1 21 -21 -7 -23 24 -13 26 -26 -10 -25 -30
right_child=2 -3 -4 4 -6 7 -8 8 27 -11 11 23 -14 -15 15 -17 -18 -19 -20 20 -22 22 -24 28 25 -27 -28 -29 29 -31
leaf_value=-9.9819175720214854 355.3576206631131 2648.3676317214968 444.48438918654983 -44.405521508419156 806.56532833099368 -10.513503312702097 -39.553235343650535 606.26138942718512 -50.322109040759862 250.10990917968752 923.19235839843759 -61.964156464607484 889.93478507017483 -11.514758176581806 -10.847657642364503 832.33422916412349 -64.412661895751953 43.6815602178159 -54.114277839660645 38.711704559326172 -13.561089470272973 -11.54997049967448 38.473052787780766 -10.758519612174901 -10.741804053566673 -10.761268321577326 -67.129999313354503 -10.746077330216117 -10.774985539635948 37.689703598022462
leaf_weight=34 36 20 37 33 20 13418 27 20 21 25 20 31 39 215 320 20 30 23 20 20 21 75 32 2547 22 332 20 23 43 20
leaf_count=34 36 20 37 33 20 13418 27 20 21 25 20 31 39 215 320 20 30 23 20 20 21 75 32 2547 22 332 20 23 43 20
internal_value=1.31909e-07 696.563 -2.94715 -3.8957 276.716 -4.75043 186.11 -5.44399 169.083 -6.09065 -6.462 5.02025 185.021 68.0348 -9.16743 30.3866 -15.4389 -10.2444 -26.3272 -10.3358 11.9378 -10.4033 3.41019 -11.338 -17.4631 -13.7745 -37.5933 -29.6346 -10.3875 4.61063
internal_weight=17564 74 17490 17453 53 17400 63 17337 64 17273 17248 3289 274 235 13959 370 350 13589 54 13566 41 13525 107 3015 405 374 42 44 2610 63
internal_count=17564 74 17490 17453 53 17400 63 17337 64 17273 17248 3289 274 235 13959 370 350 13589 54 13566 41 13525 107 3015 405 374 42 44 2610 63
is_linear=0
shrinkage=0.1


Tree=2
num_leaves=31
num_cat=0
split_feature=41 7 6 20 44 41 24 9 5 41 14 27 40 4 22 18 9 44 7 19 28 1 27 10 6 16 26 24 14 24
split_gain=2.9206e+09 9.07953e+09 6.01256e+08 3.39072e+08 8.64354e+08 1.86566e+08 2.20685e+08 1.58488e+08 5.14916e+08 1.33111e+08 4.45794e+07 3.99522e+08 8.69553e+08 9.51856e+07 5.69474e+08 4.17394e+09 3.26701e+08 1.40147e+09 2.86425e+07 2.11086e+07 9.39988e+06 4.87402e+06 3.31088e+06 2.4176e+06 2.36659e+06 1.13049e+06 1.08113e+06 1.03297e+06 5.11689e+06 852946
threshold=0.010050000000000002 28.033000000000005 41150.000000000007 81317.195000000022 15040.750000000002 0.020700000000000003 720.64850000000013 2005050.7600000002 30.376500000000004 99950.000000000015 149319.25300000003 1614.1800000000001 0.56720000000000004 1.0000000180025095e-35 303.38000000000005 2.7055000000000002 71.185000000000016 12580.900000000001 20.164000000000005 9.1000000000000014 183.26500000000001 102.99998500000001 62509.000000000007 18625.835000000003 13361.213500000002 0.0085000000000000023 99999.99500000001 26486.654500000004 208725.97800000003 1.0000000180025095e-35
decision_type=2 2 2 2 2 2 2 2 2 2 2 2 2 2 2 2 2 2 2 2 2 2 2 2 2 2 2 2 2 2
left_child=1 18 3 5 -5 6 -2 9 23 10 21 13 -13 14 15 -12 17 20 -1 -17 -16 22 24 -9 25 -7 29 -18 -29 -27
right_child=2 -3 -4 4 -6 7 -8 8 -10 -11 11 12 -14 -15 16 19 27 -19 -20 -21 -22 -23 -24 -25 -26 26 -28 28 -30 -31
leaf_value=-157.60590230768378 -63.249018432617191 2386.6293047587078 400.03594673775342 -65.343908344615599 767.78405971527104 8.7084190150669638 319.30707510897992 -23.937211326930836 558.05949078514459 225.09892163085939 1412.8604933579763 -47.598977025349939 775.54975139072974 -10.103983251339315 -96.691486282348649 -13.01702527999878 -9.9414092034536221 922.42864849090586 -8.4120083470498361 -125.55667598724365 -13.396786162966775 34.95556066894531 -44.223251342773438 -71.475985794067384 18.428292132962138 -3.815172246946906 13.379697345551989 -56.456682034196525 -9.6878069917032548 -9.4598278363047381
leaf_weight=22 25 21 37 33 20 35 38 23 21 25 24 33 21 3530 20 100 1234 20 31 20 42 25 27 20 31 274 21 29 121 11641
leaf_count=22 25 21 37 33 20 35 38 23 21 25 24 33 21 3530 20 100 1234 20 31 20 42 25 27 20 31 274 21 29 121 11641
internal_value=2.02538e-07 626.907 -2.65244 -3.50613 249.044 -4.27539 167.499 -4.89959 152.175 -5.48158 -5.8158 1.92904 272.514 -0.913684 19.2365 208.999 0.596801 194.538 -70.3415 -31.7736 -40.266 -9.153 -9.24467 -46.0483 -9.16599 -9.23744 -9.29007 -10.8939 -18.7298 -9.33002
internal_weight=17564 74 17490 17453 53 17400 63 17337 64 17273 17248 5194 54 5140 1610 144 1466 82 53 120 62 12054 12029 43 12002 11971 11936 1384 150 11915
internal_count=17564 74 17490 17453 53 17400 63 17337 64 17273 17248 5194 54 5140 1610 144 1466 82 53 120 62 12054 12029 43 12002 11971 11936 1384 150 11915
is_linear=0
shrinkage=0.1


Tree=3
num_leaves=31
num_cat=0
split_feature=41 30 6 20 34 41 11 9 30 41 21 12 12 11 26 10 9 44 14 35 8 10 7 22 7 14 9 14 9 14
split_gain=2.36568e+09 7.98862e+09 4.87018e+08 2.74648e+08 8.18384e+08 1.51119e+08 2.20995e+08 1.28375e+08 5.46692e+08 1.0782e+08 3.76984e+07 1.86448e+09 2.7863e+08 5.84011e+09 5.70702e+07 6.64041e+08 6.72086e+08 2.02873e+07 1.0726e+07 7.83427e+06 5.337e+06 4.16033e+06 3.9996e+06 1.36117e+07 8.00192e+06 3.99261e+06 3.15336e+06 7.81484e+06 3.09187e+06 3.02187e+06
threshold=0.010050000000000002 17.088500000000003 41150.000000000007 81317.195000000022 7088.7050000000008 0.020700000000000003 12413.165000000003 2005050.7600000002 17.997500000000002 99950.000000000015 1602.3950000000002 49120.015000000007 35191.645000000011 36188.530000000006 1080.5000000000002 23012.265000000003 9281.9850000000024 10.150000000000002 145143.52150000003 2.8005000000000004 30.268500000000003 9232.510000000002 38.838000000000008 303.38000000000005 41.379000000000012 198732.37000000002 503.23000000000008 214473.99700000003 71.185000000000016 172443.11800000002
decision_type=2 2 2 2 2 2 2 2 2 2 2 2 2 2 2 2 2 2 2 2 2 2 2 2 2 2 2 2 2 2
left_child=1 17 3 5 -5 6 -2 9 -9 10 11 12 14 -14 22 18 -17 -1 19 21 -10 -16 -7 24 -24 -12 27 -27 -15 -20
right_child=2 -3 -4 4 -6 7 -8 8 20 -11 25 -13 13 28 15 16 -18 -19 29 -21 -22 -23 23 -25 -26 26 -28 -29 -30 -31
leaf_value=-136.63365122477214 -58.650556727818085 2271.4846747589113 360.03232652818838 -81.773867863597303 728.89676507115371 -8.3836007325416926 318.26897007533483 555.17837551661898 -29.510361289978029 202.58901757812501 -8.9218615052597698 964.26802494049082 1744.0799921798707 -45.923541514078778 -53.381267890930182 826.38522035598771 6.5765565514564521 -13.282770334879558 -79.561990737915039 55.329758491516117 -100.1427222210428 -6.1371752676302505 -101.00054089118696 -11.338743230726259 -24.600634120060846 -79.615329714174635 -13.722824925305893 -18.274486774868436 -10.680632245652729 -32.62108330726624
leaf_weight=24 28 20 37 33 20 6444 35 21 20 25 9097 20 20 27 20 20 20 30 24 20 23 274 29 347 26 27 392 90 319 32
leaf_count=24 28 20 37 33 20 6444 35 21 20 25 9097 20 20 27 20 20 20 30 24 20 23 274 29 347 26 27 392 90 319 32
internal_value=-1.20718e-07 564.216 -2.38719 -3.15551 224.14 -3.84785 150.749 -4.40963 136.957 -4.93343 -5.23422 0.00733587 -2.52287 82.608 -6.81696 29.4226 416.481 -68.1054 -12.4216 -5.23126 -67.2905 -9.35106 -8.98731 -18.6646 -64.8842 -9.40411 -18.0229 -32.4301 -13.4308 -52.7386
internal_weight=17564 74 17490 17453 53 17400 63 17337 64 17273 17248 7642 7622 366 7256 410 40 54 370 314 43 294 6846 402 55 9606 509 117 346 56
internal_count=17564 74 17490 17453 53 17400 63 17337 64 17273 17248 7642 7622 366 7256 410 40 54 370 314 43 294 6846 402 55 9606 509 117 346 56
is_linear=0
shrinkage=0.1


Tree=4
num_leaves=31
num_cat=0
split_feature=41 4 6 20 32 14 41 20 9 0 41 4 14 14 24 9 27 44 14 4 9 22 41 28 30 28 14 18 14 6
split_gain=1.9162e+09 7.6205e+09 3.94484e+08 2.22465e+08 8.49733e+08 1.73609e+08 1.22406e+08 2.25449e+08 1.03984e+08 4.70867e+08 8.73342e+07 5.43315e+07 3.80599e+07 7.6825e+08 1.81599e+09 1.29312e+09 4.34049e+07 1.09935e+09 1.10385e+07 7.45028e+06 2.39016e+07 1.16155e+07 1.25595e+07 5.92849e+06 4.87635e+06 3.26964e+06 2.25025e+06 2.93666e+06 3.0118e+06 1.92997e+06
threshold=0.010050000000000002 155.50000000000003 41150.000000000007 81317.195000000022 17.383000000000006 756.15100000000018 0.020700000000000003 341.29500000000002 2005050.7600000002 0.158695 99950.000000000015 1013892.5000000001 198732.37000000002 208725.97800000003 25783.677500000002 503.23000000000008 1614.1800000000001 1491354.7500000002 149319.25300000003 1.0000000180025095e-35 56.760000000000005 303.38000000000005 1.3146000000000002 2463.9800000000005 17.997500000000002 1274.5200000000002 155222.70550000001 2.7995000000000005 164620.36850000001 13361.213500000002
decision_type=2 2 2 2 2 2 2 2 2 2 2 2 2 2 2 2 2 2 2 2 2 2 2 2 2 2 2 2 2 2
left_child=1 -1 3 6 -5 -3 7 -2 10 24 12 -9 16 14 15 -14 23 18 -18 20 -15 22 -22 25 -10 26 29 28 -28 -8
right_child=2 5 -4 4 -6 -7 8 11 9 -11 -12 -13 13 19 -16 -17 17 -19 -20 -21 21 -23 -24 -25 -26 -27 27 -29 -30 -31
leaf_value=2119.9402741205126 413.05316787719732 15.636492347717287 324.0290952940245 716.05977966308592 -109.99203389485677 -354.39582904634022 -7.5114290451413757 -98.158845188306728 -102.40612762451173 511.39716680617562 182.33012500000001 127.20344467163086 829.52254486083984 -111.36338117803847 797.23778248322321 -11.135711989735448 -8.9645523411035537 747.88714294433601 -72.403179380893718 -7.6449134766918494 -117.31434528610924 -9.3866895938987156 -7.8217972230911261 38.055780015672958 -34.89076606501704 -35.864139266241168 -54.995147911707562 -9.5754065593614701 -17.775565503686021 17.472438566146359
leaf_weight=21 20 32 37 20 33 21 11886 23 20 21 25 20 20 28 39 215 320 20 30 2610 22 335 20 28 23 42 24 1347 231 31
leaf_count=21 20 32 37 20 33 21 11886 23 20 21 25 20 20 28 39 215 320 20 30 2610 22 335 20 28 23 42 24 1347 231 31
internal_value=9.80198e-09 507.795 -2.14847 -2.83996 201.726 -130.98 -3.46307 135.674 -3.96867 123.261 -4.44008 6.66082 -4.7108 4.96663 165.287 60.4097 -6.99098 26.8027 -14.4021 -9.60308 -22.2224 -15.6018 -65.175 -7.91111 -66.2933 -8.00602 -7.91947 -11.4383 -21.2786 -7.44644
internal_weight=17564 74 17490 17453 53 53 17400 63 17337 64 17273 43 17248 3289 274 235 13959 370 350 3015 405 377 42 13589 43 13561 13519 1602 255 11917
internal_count=17564 74 17490 17453 53 53 17400 63 17337 64 17273 43 17248 3289 274 235 13959 370 350 3015 405 377 42 13589 43 13561 13519 1602 255 11917
is_linear=0
shrinkage=0.1


Tree=5
num_leaves=31
num_cat=0
split_feature=41 1 6 22 34 44 41 19 9 30 41 14 14 24 24 27 25 44 9 0 44 4 9 22 41 14 28 25 10 26
split_gain=1.55212e+09 6.75552e+09 3.19532e+08 1.98182e+08 8.39792e+08 9.37154e+07 8.46847e+07 2.26401e+08 8.42947e+07 4.90248e+08 7.07798e+07 3.11639e+07 6.22283e+08 1.47095e+09 1.22621e+09 3.55398e+07 1.08405e+09 3.05952e+07 2.99721e+07 1.2902e+07 8.16391e+06 6.03473e+06 1.93603e+07 9.40859e+06 1.01732e+07 5.47514e+06 4.81405e+06 2.65281e+06 2.93283e+06 1.9641e+06
threshold=0.010050000000000002 0.15221500000000002 41150.000000000007 73233.215000000011 8942.720000000003 10.150000000000002 0.020700000000000003 1.0000000180025095e-35 2005050.7600000002 17.997500000000002 99950.000000000015 198732.37000000002 208725.97800000003 25783.677500000002 13635.519000000002 1614.1800000000001 1679.3350000000003 1359595.1500000001 943.22000000000014 0.158695 6423.3500000000013 1.0000000180025095e-35 56.760000000000005 303.38000000000005 1.3146000000000002 149319.25300000003 2463.9800000000005 1274.5200000000002 23012.265000000003 27970.000000000004
decision_type=2 2 2 2 2 2 2 2 2 2 2 2 2 2 2 2 2 2 2 2 2 2 2 2 2 2 2 2 2 2
left_child=1 5 3 6 20 -1 7 -2 10 -10 11 15 13 14 -13 26 -17 25 -16 -11 -5 22 -14 24 -24 -18 27 29 -29 -8
right_child=2 -3 -4 4 -6 -7 8 -9 9 19 -12 12 21 -15 18 16 17 -19 -20 -21 -22 -23 23 -25 -26 -27 -28 28 -30 -31
leaf_value=-266.34593359374998 273.84224424619936 2026.9996341514588 291.62621674408786 -36.045362739562989 708.62445449829102 -2.1456406428896151 -7.2652870183973253 -99.331707763671886 506.97826683407743 -31.401688787211544 164.09712500000001 731.67424492836005 -100.22704116276333 717.5139720427685 -139.14219341278076 688.88017724545114 -8.6529011991609757 -129.55922050476076 -10.474825890026793 -141.22237854003907 -125.31759381975446 -6.8804220953743584 -105.58291019092906 -8.4480206740792116 -7.0396174073219306 -59.347553883428162 34.250202478681295 -4.4710678598155154 -53.493075972336989 8.5487037924271601
leaf_weight=25 37 20 37 20 20 29 13433 29 21 23 25 24 28 39 20 23 289 24 191 20 21 2610 22 335 20 23 28 23 26 79
leaf_count=25 37 20 37 20 20 29 13433 29 21 23 25 24 28 39 20 23 289 24 191 20 21 2610 22 335 20 23 28 23 26 79
internal_value=-8.81768e-09 457.015 -1.93363 -2.55597 177.376 -124.461 -3.18705 109.872 -3.61773 110.935 -4.04244 -4.2863 4.46997 148.758 54.3687 -6.35107 24.7051 -20.7592 -22.6708 -82.4811 -81.7702 -8.64277 -20.0001 -14.0417 -58.6575 -12.39 -7.17153 -7.25705 -30.4827 -7.17283
internal_weight=17564 74 17490 17453 61 54 17392 66 17326 64 17262 17237 3289 274 235 13948 359 336 211 43 41 3015 405 377 42 312 13589 13561 49 13512
internal_count=17564 74 17490 17453 61 54 17392 66 17326 64 17262 17237 3289 274 235 13948 359 336 211 43 41 3015 405 377 42 312 13589 13561 49 13512
is_linear=0
shrinkage=0.1


Tree=6
num_leaves=31
num_cat=0
split_feature=41 24 29 6 22 40 41 21 9 7 13 9 4 41 4 14 24 22 10 44 42 34 25 30 35 9 0 28 26 27
split_gain=1.25722e+09 6.73887e+09 9.27536e+08 2.58821e+08 1.60528e+08 8.10378e+08 6.85946e+07 2.10163e+08 6.82787e+07 4.4996e+08 5.74492e+07 1.92401e+08 5.00568e+07 4.39694e+07 2.95292e+07 2.48261e+08 1.33132e+09 1.44221e+09 3.99144e+09 1.22768e+08 1.16298e+09 1.38835e+07 1.36226e+07 1.07827e+07 1.02487e+07 9.34198e+06 7.05557e+06 6.56693e+06 7.8816e+06 6.9559e+06
threshold=0.010050000000000002 31311.753000000004 8057.1715000000013 41150.000000000007 73233.215000000011 0.60005000000000008 0.020700000000000003 356.98500000000007 2005050.7600000002 30.223000000000003 88835.000000000015 321.63000000000005 1013892.5000000001 99950.000000000015 5.5000000000000009 198732.37000000002 15256.027000000002 303.38000000000005 33011.750000000007 1491354.7500000002 0.29245000000000004 7537.9700000000003 62509.000000000007 18.071500000000004 2.4465000000000008 56.760000000000005 3.1598500000000005 1274.5200000000002 1679.3350000000003 1614.1800000000001
decision_type=2 2 2 2 2 2 2 2 2 2 2 2 2 2 2 2 2 2 2 2 2 2 2 2 2 2 2 2 2 2
left_child=1 2 -1 4 6 -6 7 -2 10 23 13 -12 -9 14 15 19 -17 18 -18 27 -21 -7 26 -10 -19 -26 -16 -8 29 -29
right_child=3 -3 -4 -5 5 21 8 12 9 -11 11 -13 -14 -15 22 16 17 24 -20 20 -22 -23 -24 -25 25 -27 -28 28 -30 -31
leaf_value=42.469349479675294 369.51133056640629 1567.0088226826986 -879.616046447754 262.46355574324326 662.67429909479051 -45.541845779418949 -7.1643360722538647 -110.27064537635218 -134.38174136768689 479.26298421223959 -24.50084834628635 348.26739042282111 100.15995513916016 -142.16506984544839 -6.7443995103925491 865.82188621521004 -86.015932464599615 -67.730462627876094 1651.5586576986314 -8.4142552227444121 795.38990612030034 -163.37010848999023 -85.391058269414032 -34.202512177966888 -72.605355326334632 -11.969199738203789 45.4084811430711 -30.296567746400832 -12.750080006281536 -100.30192371715199
leaf_weight=24 20 30 20 37 21 20 4832 26 22 21 45 20 20 23 11304 20 39 41 20 180 20 20 22 21 27 431 26 40 150 22
leaf_count=24 20 30 20 37 21 20 4832 26 22 21 45 20 20 23 11304 20 39 41 20 180 20 20 22 21 27 431 26 40 150 22
internal_value=-3.56702e-07 411.314 -376.66 -1.74026 -2.30037 159.638 -2.86835 98.8847 -3.25595 99.8417 -3.6382 90.1971 -18.7791 -3.99287 -3.80782 1.98233 64.1816 35.449 502.992 -4.87335 71.9662 -104.456 -6.77737 -85.457 -19.8317 -15.5438 -6.62472 -7.92012 -25.1463 -55.1372
internal_weight=17564 74 44 17490 17453 61 17392 66 17326 64 17262 65 46 17197 17174 5822 578 558 59 5244 200 40 11352 43 499 458 11330 5044 212 62
internal_count=17564 74 44 17490 17453 61 17392 66 17326 64 17262 65 46 17197 17174 5822 578 558 59 5244 200 40 11352 43 499 458 11330 5044 212 62
is_linear=0
shrinkage=0.1


Tree=7
num_leaves=31
num_cat=0
split_feature=41 4 6 20 4 14 41 14 41 9 31 21 12 10 13 27 23 14 14 24 9 44 25 25 11 24 26 11 22 14
split_gain=1.01835e+09 6.68722e+09 2.09645e+08 1.32725e+08 7.93479e+08 1.26655e+08 6.55136e+07 2.10203e+08 6.06069e+07 5.82245e+07 4.49848e+08 2.78684e+07 1.47769e+09 2.45176e+08 4.35783e+09 4.49056e+07 1.07335e+09 1.92083e+07 3.19755e+07 4.29354e+07 2.77916e+07 1.7339e+07 1.62689e+07 1.52579e+07 1.06008e+07 7.2625e+06 7.14786e+06 2.50069e+07 6.59778e+06 1.34865e+07
threshold=0.010050000000000002 155.50000000000003 41150.000000000007 81317.195000000022 91814.500000000015 756.15100000000018 0.020700000000000003 252.49550000000002 99950.000000000015 2005050.7600000002 18.137000000000004 1602.3950000000002 49120.015000000007 35876.325000000004 36009.855000000003 1614.1800000000001 644.79000000000008 198732.37000000002 208725.97800000003 25114.333000000002 1355.5450000000003 1491354.7500000002 133.05500000000004 87.810000000000016 35736.200000000004 16781.665500000006 2463.9800000000005 18467.890000000003 303.38000000000005 203520.70800000001
decision_type=2 2 2 2 2 2 2 2 2 2 2 2 2 2 2 2 2 2 2 2 2 2 2 2 2 2 2 2 2 2
left_child=1 -1 3 6 -5 -3 7 -2 9 11 -11 12 13 15 -15 22 21 -13 19 20 -19 -17 26 -12 28 -22 -8 -28 29 -24
right_child=2 5 -4 4 -6 -7 8 -9 -10 10 23 17 -14 14 -16 16 -18 18 -20 -21 25 -23 24 -25 -26 -27 27 -29 -30 -31
leaf_value=1880.3853306361609 -118.66413046029898 -102.97040066719056 236.21724094700173 -145.28569548635772 652.95469299316414 -419.02622419084821 -6.0231172715015049 252.36011426771012 149.64122431828426 470.71029960995634 -35.867791148594449 -6.0286477608514701 859.44140106201178 1353.1159758300782 -13.370230997661579 -12.421441128463426 739.88924219131468 -147.07178709847588 -10.552472266272154 -194.93656271154231 -73.878443756103522 -105.1944659839977 -12.752177028279556 -156.41392589750745 -81.852235775609174 -6.2438754193194503 -10.380492940442316 114.83251783197578 -15.787814353115259 -106.21974895183858
leaf_weight=21 26 32 37 33 20 21 6442 37 26 21 21 9097 20 25 351 239 20 21 369 22 20 22 38 21 31 77 58 22 348 26
leaf_count=21 26 32 37 33 20 21 6442 37 26 21 21 9097 20 25 351 239 20 21 369 22 20 22 38 21 31 77 58 22 348 26
internal_value=-3.6245e-09 370.182 -1.56624 -2.07033 155.937 -228.2 -2.55162 99.239 -2.92151 -3.15065 92.8095 -3.50115 1.0055 -1.24702 77.4866 -5.33257 33.8604 -7.0864 -25.9908 -66.6819 -42.77 -20.2414 -6.91379 -96.1409 -25.458 -20.1891 -5.6542 24.0531 -21.2147 -50.7234
internal_weight=17564 74 17490 17453 53 53 17400 63 17337 17311 63 17248 7642 7622 376 7246 281 9606 509 140 118 261 6965 42 443 97 6522 80 412 64
internal_count=17564 74 17490 17453 53 53 17400 63 17337 17311 63 17248 7642 7622 376 7246 281 9606 509 140 118 261 6965 42 443 97 6522 80 412 64
is_linear=0
shrinkage=0.1


Tree=8
num_leaves=31
num_cat=0
split_feature=41 22 6 4 22 26 30 24 41 15 24 16 17 14 27 41 27 28 14 14 24 24 40 43 29 26 13 11 13 14
split_gain=8.24863e+08 6.62886e+09 1.69813e+08 1.66999e+08 1.07681e+08 8.01201e+08 5.99377e+07 3.34872e+08 4.91583e+07 4.94217e+07 4.74128e+08 2.48749e+07 3.4402e+08 1.25672e+09 1.23188e+08 1.08754e+09 3.4776e+07 3.94601e+09 2.59567e+07 5.33094e+07 7.64935e+07 1.78294e+07 1.65549e+07 1.63471e+07 1.47828e+07 1.39347e+07 9.57125e+06 1.30407e+07 9.9719e+06 9.39296e+06
threshold=0.010050000000000002 508.22500000000008 41150.000000000007 14768.500000000002 73233.215000000011 27970.000000000004 3.2170000000000001 585.65350000000012 99950.000000000015 73650.000000000015 7136.4440000000013 3.7005000000000003 3.6915000000000004 135119.79800000004 1614.1800000000001 0.61840000000000017 140.54000000000005 142.29500000000004 198732.37000000002 208725.97800000003 25783.677500000002 16781.665500000006 0.020700000000000003 0.020700000000000003 126.18850000000002 2463.9800000000005 36408.655000000006 35736.200000000004 36009.855000000003 1603.6680000000003
decision_type=2 2 2 2 2 2 2 2 2 2 2 2 2 2 2 2 2 2 2 2 2 2 2 2 2 2 2 2 2 2
left_child=1 3 4 -1 6 29 7 23 9 11 24 12 14 -14 16 25 -8 -18 22 20 21 -20 -13 -2 -11 -16 27 -19 -29 -6
right_child=2 -3 -4 -5 5 -7 8 -9 -10 10 -12 18 13 -15 15 -17 17 26 19 -21 -22 -23 -24 -25 -26 -27 -28 28 -30 -31
leaf_value=-500.19112534295948 -110.74838943481446 1788.2680532282047 212.59550979201859 -134.95944691319619 -73.308186640739436 649.66629810333257 -5.7697672089198875 426.5005955832346 134.67710477388823 -16.88628875096639 502.65749015808109 -96.928939495086681 -5.0864267948695598 893.7417695426941 -131.04195120675226 767.03055586576465 1187.2659761616162 -15.206771185778189 -121.32947506471115 -12.730704932212831 -246.05869531250002 -15.083898844037737 -5.8209927463967439 0.27037140528361003 -116.15962781906128 -35.286127070513643 -7.242287431262568 -117.74411590282735 -29.290149248123171 -169.06475388209026
leaf_weight=21 21 22 37 31 20 20 7703 21 26 60 20 20 70 20 21 20 28 138 22 380 25 56 7137 36 20 55 1442 26 25 21
leaf_count=21 21 22 37 31 20 20 7703 21 26 60 20 20 70 20 21 20 28 138 22 380 25 56 7137 36 20 55 1442 26 25 21
internal_value=4.39389e-08 333.164 -1.40961 -282.457 -1.8633 130.767 -2.32848 85.135 -2.72251 -2.92915 67.1678 -3.33697 0.0660029 194.653 -1.78564 110.917 -2.94131 10.1916 -7.5898 -30.0271 -93.839 -45.0506 -6.07559 -40.6313 -41.7046 -61.745 -10.0156 -31.1753 -74.3843 -122.354
internal_weight=17564 74 17490 52 17453 61 17392 78 17314 17288 100 17188 9548 90 9458 96 9362 1659 7640 483 103 78 7157 57 80 76 1631 189 51 41
internal_count=17564 74 17490 52 17453 61 17392 78 17314 17288 100 17188 9548 90 9458 96 9362 1659 7640 483 103 78 7157 57 80 76 1631 189 51 41
is_linear=0
shrinkage=0.1


Tree=9
num_leaves=31
num_cat=0
split_feature=41 19 29 6 22 9 30 20 43 41 15 38 9 44 44 14 34 41 27 42 44 9 9 14 22 14 24 9 21 14
split_gain=6.68139e+08 6.77475e+09 6.18434e+08 1.37548e+08 8.72213e+07 7.7785e+08 4.85496e+07 2.72311e+08 4.46576e+07 1.14518e+08 4.27077e+07 4.14738e+08 4.0913e+07 2.2281e+07 2.43159e+09 3.43558e+09 3.66946e+07 4.47517e+07 3.00183e+07 1.01374e+09 2.85894e+07 2.6142e+07 1.28271e+09 2.40966e+07 2.49981e+07 1.54343e+07 2.92523e+07 1.42151e+07 1.28024e+07 1.18029e+07
threshold=0.010050000000000002 544.95000000000016 8223.6825000000008 41150.000000000007 73233.215000000011 859091.41000000015 3.2170000000000001 355.47500000000008 11794.175000000001 8264.1750000000011 73650.000000000015 2.7895000000000008 2005050.7600000002 803.00000000000011 898.80000000000007 91456.943000000014 140138.67000000001 0.020700000000000003 1614.1800000000001 0.56990000000000007 1491354.7500000002 71.185000000000016 56.760000000000005 198732.37000000002 303.38000000000005 208725.97800000003 23804.389000000003 6605.6550000000007 1219.9850000000004 149319.25300000003
decision_type=2 2 2 2 2 2 2 2 2 2 2 2 2 2 2 2 2 2 2 2 2 2 2 2 2 2 2 2 2 2
left_child=1 2 -1 4 6 -6 7 -2 9 10 13 12 -12 16 15 -15 17 -8 21 20 29 22 -16 -19 28 26 27 -26 -25 -20
right_child=3 -3 -4 -5 5 -7 8 -9 -10 -11 11 -13 -14 14 18 -17 -18 23 19 -21 -22 -23 -24 24 25 -27 -28 -29 -30 -31
leaf_value=-38.678026372736156 384.45302233014786 1562.2500120940033 -765.64433398437507 191.33596719277872 -131.7149314322123 628.97169589996338 -126.04308280944825 -36.790116902401572 -138.76439444224042 192.94794774691263 -6.1410765255198765 415.03118696975707 -166.79729866359546 -5.0612833568028046 -9.5755524090720758 1710.9758808326724 127.58184768676759 -5.5570828518359257 -7.5418137879805132 663.70987069917771 -123.51333435058594 -5.6427231696639994 718.18460789489745 -27.939794013613746 -94.054039492973914 -9.3462331421043956 -154.20483776005833 -10.41273307736202 -126.18757294019063 -70.739122348361548
leaf_weight=22 21 27 25 37 41 20 32 57 24 30 51 25 23 28 775 20 20 5770 165 23 30 9672 25 21 26 367 22 93 36 36
leaf_count=22 21 27 25 37 41 20 32 57 24 30 51 25 23 28 775 20 20 5770 165 23 30 9672 25 21 26 367 22 93 36 36
internal_value=-1.18461e-07 299.848 -425.362 -1.26865 -1.67697 117.691 -2.09563 76.6215 -2.45026 -2.26104 -2.60034 62.8914 -56.0748 -2.97815 -0.203837 709.954 -7.65805 -8.08286 -3.38187 30.5863 -32.452 -4.20577 13.167 -7.48701 -27.1962 -20.1503 -48.2716 -28.6873 -89.991 -18.8607
internal_weight=17564 74 47 17490 17453 61 17392 78 17314 17290 17260 99 74 17161 10774 48 6387 6367 10726 254 231 10472 800 6335 565 508 141 119 57 201
internal_count=17564 74 47 17490 17453 61 17392 78 17314 17290 17260 99 74 17161 10774 48 6387 6367 10726 254 231 10472 800 6335 565 508 141 119 57 201
is_linear=0
shrinkage=0.1


Tree=10
num_leaves=31
num_cat=0
split_feature=41 24 29 6 20 35 41 24 41 9 29 14 14 32 7 23 9 28 27 22 4 27 40 44 5 22 27 14 13 24
split_gain=5.41192e+08 6.11514e+09 8.07284e+08 1.11414e+08 7.77399e+07 7.93651e+08 5.203e+07 2.04454e+08 4.37614e+07 3.74165e+07 4.20794e+08 2.37768e+07 3.51015e+08 9.25091e+08 7.39799e+07 5.19137e+09 1.18518e+08 1.30203e+09 2.54252e+07 1.9003e+07 2.47448e+07 1.89324e+07 1.86389e+07 1.58851e+07 9.69115e+06 1.09079e+07 1.43268e+07 8.42962e+06 6.2596e+06 4.95574e+06
threshold=0.010050000000000002 31311.753000000004 8057.1715000000013 41150.000000000007 81317.195000000022 2.5965000000000003 0.020700000000000003 720.64850000000013 99950.000000000015 2005050.7600000002 21796.457500000004 149319.25300000003 150616.94150000004 25.836000000000002 41.848500000000008 1216.3550000000002 71.185000000000016 173.70500000000001 1614.1800000000001 303.38000000000005 51.500000000000007 486.00000000000006 0.56720000000000004 1491354.7500000002 40.087500000000013 303.38000000000005 138.42000000000004 182845.00750000004 22926.455000000005 26486.654500000004
decision_type=2 2 2 2 2 2 2 2 2 2 2 2 2 2 2 2 2 2 2 2 2 2 2 2 2 2 2 2 2 2
left_child=1 2 -1 4 6 -6 7 -2 9 11 -11 21 13 -13 18 -16 17 -17 24 20 27 -8 -20 28 -14 26 -26 -18 -23 -27
right_child=3 -3 -4 -5 5 -7 8 -9 -10 10 -12 12 14 -15 15 16 19 -19 22 -21 -22 23 -24 -25 25 29 -28 -29 -30 -31
leaf_value=-89.74224955240885 -133.26487780761718 1370.775928039551 -949.98053955078126 172.20233517208615 616.48914253234864 -181.83750441580108 -4.3811862296388426 234.95378343682543 127.43094059870793 -171.89225107828779 345.58069157918294 800.0853334903718 -5.5605628327553323 -9.4038360357284549 1542.9614832791415 834.6883067536354 -68.018421027206244 -26.378229194879534 -30.502355464812247 -7.6775331855977633 -13.352112895792182 -14.854810374522513 -154.32466064453126 -89.780684614181524 -127.82837520781018 -10.764999567869161 -20.852587052699061 -158.73176304817201 -51.991655508077372 -38.226512463688856
leaf_weight=24 25 30 20 37 20 33 11649 38 26 33 30 20 2737 48 22 20 21 144 31 1545 66 316 20 36 21 368 31 20 53 80
leaf_count=24 25 30 20 37 20 33 11649 38 26 33 30 20 2737 48 22 20 21 144 31 1545 66 316 20 36 21 368 31 20 53 80
internal_value=-6.20166e-08 269.863 -480.76 -1.14179 -1.50927 119.418 -1.87761 88.8353 -2.20725 -2.40196 74.5234 -2.68294 2.97323 228.681 -0.0209501 16.047 -2.45085 78.6299 -9.00298 -10.5 -51.2548 -5.12014 -79.0601 -26.3748 -7.89921 -20.7009 -64.0543 -112.269 -20.1888 -15.6688
internal_weight=17564 74 44 17490 17453 53 17400 63 17337 17311 63 17248 5194 68 5126 1838 1816 164 3288 1652 107 12054 51 405 3237 500 52 41 369 448
internal_count=17564 74 44 17490 17453 53 17400 63 17337 17311 63 17248 5194 68 5126 1838 1816 164 3288 1652 107 12054 51 405 3237 500 52 41 369 448
is_linear=0
shrinkage=0.1


Tree=11
num_leaves=31
num_cat=0
split_feature=41 7 6 23 20 3 20 30 24 41 15 34 9 16 17 44 27 22 29 29 40 14 14 24 8 24 42 41 8 40
split_gain=4.38366e+08 6.70163e+09 9.02453e+07 7.61055e+07 6.48957e+08 6.57075e+07 6.33563e+07 4.9392e+07 2.75996e+08 4.06982e+07 3.0652e+07 4.36381e+08 2.17504e+07 2.13373e+07 2.60475e+08 1.14207e+09 1.04886e+08 9.06257e+08 3.20009e+07 3.50466e+09 1.98633e+07 1.73501e+07 3.81674e+07 5.68884e+07 1.58356e+07 1.37959e+07 1.341e+07 1.27559e+07 1.0705e+07 1.1567e+07
threshold=0.010050000000000002 28.033000000000005 41150.000000000007 97950.000000000015 81317.195000000022 0.14137500000000003 81317.195000000022 3.2170000000000001 479.16150000000005 99950.000000000015 73650.000000000015 37834.345000000008 2005050.7600000002 3.7005000000000003 3.6915000000000004 9542.0500000000011 1614.1800000000001 624.47000000000014 73117.333500000022 74141.081500000015 0.020700000000000003 198732.37000000002 208725.97800000003 25783.677500000002 30.268500000000003 16781.665500000006 0.020150000000000005 0.59105000000000008 553.03800000000012 0.020700000000000003
decision_type=2 2 2 2 2 2 2 2 2 2 2 2 2 2 2 2 2 2 2 2 2 2 2 2 2 2 2 2 2 2
left_child=1 5 3 4 7 -1 -5 8 26 10 12 24 13 14 16 -16 18 27 -9 -20 -15 -22 23 25 -12 -23 -2 -18 29 -21
right_child=2 -3 -4 6 -6 -7 -8 9 -10 -11 11 -13 -14 20 15 -17 17 -19 19 28 21 22 -24 -25 -26 -27 -28 -29 -30 -31
leaf_value=-258.65714986165364 -108.58028186389379 1754.7057064964658 154.98211109058278 -14.076424809731543 529.86757066146185 -483.31470111349358 -216.3574287414551 -5.5635493346253639 376.46491720893169 125.48454003906249 -15.608514663821362 472.74823638916018 -89.063920277562644 -105.84994709014893 -26.429987407076187 815.80602539607457 -27.479017344060935 702.08614486694341 1047.5644557726919 62.798948623657225 -4.8194958746592036 -103.42166477550161 -9.7684069478774056 -209.66925488281251 -106.44666228634972 -9.9635416904730469 -4.389685742060343 -116.6575331978176 -78.334468293190014 -5.5580314882734791
leaf_weight=30 21 21 37 32 23 23 30 6711 22 25 61 20 29 20 69 21 53 20 32 25 7133 22 380 25 28 56 30 23 20 2522
leaf_count=30 21 21 37 32 23 23 30 6711 22 25 61 20 29 20 69 21 53 20 32 25 7133 22 380 25 28 56 30 23 20 2522
internal_value=-9.39894e-08 242.877 -1.02761 -1.35835 -0.964064 -356.15 -111.954 -1.66703 80.4158 -2.01349 -2.19806 50.6637 -2.53381 -2.38734 0.777325 170.092 -0.842736 103.148 -1.91504 7.50596 -6.32287 -6.06151 -24.4036 -78.3977 -44.1868 -36.3235 -47.2917 -54.4673 -5.45932 -4.88708
internal_weight=17564 74 17490 17453 17391 53 62 17368 73 17295 17270 109 17161 17132 9496 90 9406 96 9310 2599 7636 7616 483 103 89 78 51 76 2567 2547
internal_count=17564 74 17490 17453 17391 53 62 17368 73 17295 17270 109 17161 17132 9496 90 9406 96 9310 2599 7636 7616 483 103 89 78 51 76 2567 2547
is_linear=0
shrinkage=0.1


Tree=12
num_leaves=31
num_cat=0
split_feature=41 30 6 21 19 20 23 41 13 41 44 15 22 9 14 14 24 32 9 27 44 12 9 7 22 40 24 29 44 9
split_gain=3.55076e+08 6.00868e+09 7.30987e+07 7.0095e+07 9.98585e+08 1.11429e+08 6.25524e+07 4.64471e+07 2.01449e+08 4.45477e+07 4.29889e+07 2.7346e+07 4.03669e+08 3.53701e+07 2.22145e+07 5.28941e+08 1.41222e+09 9.90388e+08 2.78459e+07 1.90617e+07 9.10504e+08 3.8754e+07 1.66254e+07 1.56983e+07 2.37899e+07 1.63591e+07 1.19734e+07 1.07202e+07 6.51696e+06 6.96951e+06
threshold=0.010050000000000002 17.088500000000003 41150.000000000007 99999.99500000001 222.55000000000004 81317.195000000022 3890.8300000000004 0.020700000000000003 11985.885000000002 99950.000000000015 98.40000000000002 73650.000000000015 319.87500000000006 2005050.7600000002 198732.37000000002 208725.97800000003 25783.677500000002 40.94850000000001 943.22000000000014 1614.1800000000001 1491354.7500000002 21527.455000000005 2005050.7600000002 25.092000000000002 303.38000000000005 1.3248500000000003 13853.912000000002 73117.333500000022 301821.70000000001 21.400000000000002
decision_type=2 2 2 2 2 2 2 2 2 2 2 2 2 2 2 2 2 2 2 2 2 2 2 2 2 2 2 2 2 2
left_child=1 10 3 5 6 7 -5 8 -2 11 -1 14 -13 -14 19 16 17 18 -16 22 21 -21 -9 -17 25 27 -20 -25 29 -26
right_child=2 -3 -4 4 -6 -7 -8 9 -10 -11 -12 12 13 -15 15 23 -18 -19 26 20 -22 -23 -24 24 28 -27 -28 -29 -30 -31
leaf_value=-412.64611405997442 -141.83867200215658 1699.2492626953126 139.48389001794763 -9.085048364139185 721.00804572820664 -191.18260064894153 -195.69971167522931 -4.3604465216130945 228.22861940484302 137.34600670855977 -233.70663134765624 408.62525870402658 -15.460809872150421 -160.95476894378663 -142.10733787536623 -3.3118172196631344 713.26477677628804 594.66541441103516 -90.854541473388679 -15.468497666489169 672.46902404785169 -153.93090712807395 -80.157526792328937 -60.969201793670656 -55.752538636151485 -8.4930761344053529 -8.8712546368695211 -161.07435043998387 -67.688382274454298 -8.833817263977684
leaf_weight=29 24 20 37 82 20 31 23 13519 38 23 25 24 55 24 20 2420 37 29 20 249 20 22 29 20 34 22 163 23 22 460
leaf_count=29 24 20 37 82 20 31 23 13519 38 23 25 24 55 24 20 2420 37 29 20 249 20 22 29 20 34 22 163 23 22 460
internal_value=-4.61826e-08 218.589 -0.924848 -1.22251 73.3927 -1.76077 -49.9625 -1.42128 84.9768 -1.73208 -329.804 -1.91793 49.4539 -59.6615 -2.2272 5.18563 139.52 48.0174 -30.0751 -3.97877 21.3445 -26.709 -4.52269 -6.85566 -21.6166 -78.6299 -17.8312 -114.514 -14.4347 -12.063
internal_weight=17564 74 17490 17453 125 17328 105 17297 62 17235 54 17212 103 79 17109 3270 269 232 203 13839 291 271 13548 3001 581 65 183 43 516 494
internal_count=17564 74 17490 17453 125 17328 105 17297 62 17235 54 17212 103 79 17109 3270 269 232 203 13839 291 271 13548 3001 581 65 183 43 516 494
is_linear=0
shrinkage=0.1


Tree=13
num_leaves=31
num_cat=0
split_feature=41 4 1 22 30 6 43 41 27 15 27 44 28 30 24 36 14 14 18 12 24 24 14 44 9 42 9 7 22 18
split_gain=2.87612e+08 6.08584e+09 2.36407e+08 7.19361e+07 7.46004e+08 5.95665e+07 5.52006e+07 8.52428e+07 3.36459e+07 3.23608e+08 5.24961e+07 9.44417e+08 3.59339e+07 3.00011e+07 2.39547e+08 2.19596e+07 2.13127e+07 4.1829e+08 1.46855e+09 3.70019e+09 1.3967e+09 1.74178e+08 2.07286e+07 1.86415e+07 1.74094e+07 1.56655e+07 1.3416e+07 1.076e+07 2.16451e+07 1.18997e+07
threshold=0.010050000000000002 155.50000000000003 0.14802000000000001 73233.215000000011 17.463500000000003 41150.000000000007 11794.175000000001 8264.1750000000011 2463.9800000000005 73650.000000000015 1614.1800000000001 1359595.1500000001 1679.3350000000003 3.2170000000000001 585.65350000000012 2.8335000000000004 198732.37000000002 208725.97800000003 2.7005000000000003 33136.31500000001 14854.053000000002 25783.677500000002 3032.6250000000005 2016792.1500000001 1597.8550000000002 0.020150000000000005 2005050.7600000002 37.259000000000007 303.38000000000005 3.7005000000000003
decision_type=2 2 2 2 2 2 2 2 2 2 2 2 2 2 2 2 2 2 2 2 2 2 2 2 2 2 2 2 2 2
left_child=1 -1 -3 5 -5 6 7 8 9 10 13 12 -12 14 25 23 26 18 19 -18 -20 24 -6 -10 -22 -2 -15 -19 29 -29
right_child=3 2 -4 4 22 -7 -8 -9 15 -11 11 -13 -14 16 -16 -17 17 27 20 -21 21 -23 -24 -25 -26 -27 -28 28 -30 -31
leaf_value=1637.4268973214287 -112.78609809875489 -203.02126874923707 -634.82192411876861 608.27858276367192 -63.814165802001959 125.53554225612332 -153.03509626388549 167.14766242980957 -19.872918504929242 373.75696855627973 -138.46429876327517 700.1456088638306 -8.0937647037697538 -4.0527614501383296 348.4268676757813 -141.90121810913087 -44.4300235657131 -3.1213091126166841 803.4472445774079 1669.7411581552028 -116.38333587646486 -272.56223653157554 -206.06418696812221 -122.34521682739258 -16.642504844197205 -5.0988217381068637 -72.141774355132014 -120.74490626017253 -12.041972352987905 -26.273919681708023
leaf_weight=21 22 32 21 20 20 37 24 30 158 23 25 20 137 13559 21 20 34 2456 20 20 20 36 21 20 140 35 29 30 489 24
leaf_count=21 22 32 21 20 20 37 24 30 158 23 25 20 137 13559 21 20 34 2456 20 20 20 36 21 20 140 35 29 30 489 24
internal_value=1.16087e-07 196.73 -374.112 -0.832363 107.573 -1.21177 -1.48142 -1.27199 -1.56341 -1.08994 -1.59362 51.8267 -28.2127 -2.16772 59.7078 -42.5497 -2.45403 4.79532 124.012 590.448 7.40318 -73.8258 -136.674 -31.3867 -29.1101 -46.6623 -4.19808 -5.93777 -18.6767 -78.7578
internal_weight=17564 74 53 17490 61 17429 17392 17368 17338 17140 17117 182 162 16935 78 198 16857 3269 270 54 216 196 41 178 160 57 13588 2999 543 54
internal_count=17564 74 53 17490 61 17429 17392 17368 17338 17140 17117 182 162 16935 78 198 16857 3269 270 54 216 196 41 178 160 57 13588 2999 543 54
is_linear=0
shrinkage=0.1


Tree=14
num_leaves=31
num_cat=0
split_feature=41 24 29 23 20 21 22 6 6 2 22 13 41 14 20 41 9 10 22 6 9 15 14 14 24 9 27 44 24 34
split_gain=2.32966e+08 6.32694e+09 7.91752e+08 6.34137e+07 5.48749e+08 5.5678e+07 1.16462e+09 5.99353e+08 4.80154e+08 1.50302e+08 5.16116e+09 1.1217e+08 8.6629e+07 2.89463e+08 5.48247e+07 4.97815e+07 4.10528e+07 3.59613e+07 8.47969e+07 8.72222e+08 2.99286e+07 2.58592e+07 2.63596e+07 5.04802e+07 2.62019e+07 1.90644e+07 1.72666e+07 2.4384e+07 1.44362e+07 1.20056e+07
threshold=0.010050000000000002 31311.753000000004 8057.1715000000013 97950.000000000015 81317.195000000022 1602.3950000000002 1541.0650000000003 9999.5000000000018 41150.000000000007 0.15553000000000003 303.38000000000005 88835.000000000015 0.020700000000000003 252.49550000000002 81317.195000000022 36111.000000000007 2005050.7600000002 31859.625000000004 624.47000000000014 31.082500000000003 2005050.7600000002 31900.000000000004 198732.37000000002 208725.97800000003 25114.333000000002 1355.5450000000003 1614.1800000000001 1359595.1500000001 6391.3425000000007 207.96000000000001
decision_type=2 2 2 2 2 2 2 2 2 2 2 2 2 2 2 2 2 2 2 2 2 2 2 2 2 2 2 2 2 2
left_child=1 2 -1 4 5 6 7 9 11 12 -11 15 13 -2 -5 21 17 18 26 -20 -12 22 -7 24 25 -24 -14 -28 -23 -19
right_child=3 -3 -4 14 -6 8 -8 -9 -10 10 20 -13 16 -15 -16 -17 -18 29 19 -21 -22 28 23 -25 -26 -27 27 -29 -30 -31
leaf_value=-199.21636466979982 -122.31698968807858 1296.8731709798178 -1051.1391052246095 -10.653714786656202 487.74098669964337 -3.5423793501209881 731.81735390099618 394.23584318466675 -392.82659759521488 1211.0546141422458 -16.210152070087236 166.64720400760049 -2.9632664892600786 359.28604501577524 -198.82292231241863 -149.3437292734782 -116.98634506203234 -32.546363334540324 688.55439384460453 -8.9616891788997055 -132.45525592306385 -20.378919644355776 -145.77573732648577 -7.4645404145691563 -178.2607197154652 -40.686771416418338 -17.515577412639875 -110.5343705148408 -136.54575340022211 -108.00724215403848
leaf_weight=24 24 30 20 32 23 9000 22 39 32 36 598 38 6267 26 30 24 32 253 20 173 23 20 21 366 22 97 193 33 23 23
leaf_count=24 24 30 20 32 23 9000 22 39 32 36 598 38 6267 26 30 24 32 253 20 173 23 20 21 366 22 97 193 33 23 23
internal_value=-1.43874e-07 177.057 -586.454 -0.749127 -0.389983 -1.03503 5.26909 3.20396 -6.10944 1.22367 46.9678 -4.82186 -3.04292 128.117 -101.703 -5.5025 -3.98058 -3.46116 -2.00093 63.3198 -20.5155 -5.14098 -4.79098 -26.9993 -78.0689 -59.389 -3.94254 -31.098 -82.5147 -38.8348
internal_weight=17564 74 44 17490 17428 17405 7762 7740 9643 7701 657 9611 7044 50 62 9573 6994 6962 6686 193 621 9549 9506 506 140 118 6493 226 43 276
internal_count=17564 74 44 17490 17428 17405 7762 7740 9643 7701 657 9611 7044 50 62 9573 6994 6962 6686 193 621 9549 9506 506 140 118 6493 226 43 276
is_linear=0
shrinkage=0.1


Tree=15
num_leaves=31
num_cat=0
split_feature=41 22 4 6 9 21 22 20 9 43 41 41 29 34 15 44 44 0 14 22 14 24 42 40 44 0 28 44 34 40
split_gain=1.88702e+08 6.12978e+09 9.48961e+07 7.50842e+07 6.13838e+07 7.76476e+08 5.3005e+08 1.50202e+08 6.38719e+07 3.92199e+07 9.66098e+07 2.78177e+07 2.03808e+08 4.77828e+07 2.27716e+07 1.95749e+07 6.29933e+08 4.94212e+09 3.7193e+07 3.11775e+07 2.60593e+07 2.24154e+07 2.15223e+07 1.46135e+09 1.16505e+09 2.41451e+07 2.31301e+07 2.22606e+07 2.52065e+07 2.07517e+07
threshold=0.010050000000000002 508.22500000000008 14768.500000000002 41150.000000000007 1075023.9600000002 98250.000000000015 16.500000000000004 81317.195000000022 2005050.7600000002 11794.175000000001 8264.1750000000011 0.020700000000000003 1511.0140000000004 34.525000000000013 3.1375000000000006 597.05000000000007 898.80000000000007 0.37586000000000003 198732.37000000002 303.38000000000005 208725.97800000003 23804.389000000003 0.5234000000000002 0.53050000000000008 1085009.9000000001 0.040980000000000009 132.23000000000005 1359595.1500000001 33556.720000000008 1.3044000000000002
decision_type=2 2 2 2 2 2 2 2 2 2 2 2 2 2 2 2 2 2 2 2 2 2 2 2 2 2 2 2 2 2
left_child=1 2 -1 4 7 6 -6 9 -8 10 11 12 -2 -14 -10 18 17 -17 -13 29 21 -21 26 -24 25 -25 -18 -28 -29 -20
right_child=3 -3 -4 -5 5 -7 8 -9 14 -11 -12 15 13 -15 -16 16 22 -19 19 20 -22 -23 23 24 -26 -27 27 28 -30 -31
leaf_value=-596.77360607328865 328.54909763336184 1558.6069084861062 -321.45510177612306 141.62863901499156 448.67870334625241 629.7737638484864 -8.3071551091379412 -186.38881524692883 -41.108042977072984 -131.88411838697351 191.40365136953503 -3.7728804041632822 -160.83744798140094 50.049243890671505 -168.94882478212057 1667.3104792499544 -3.4001392468663938 -26.683672873435484 -154.20062618255616 -42.16028215744916 -8.6280026412471233 -152.03511491255327 856.41622256517405 -98.571381678404634 760.81690923690803 -3.684285249823215 -16.683346906518167 -129.05685655642779 -4.6963236365999492 -32.604585083007812
leaf_weight=21 20 22 31 37 25 21 278 44 22 23 26 5720 22 21 38 20 5710 124 32 119 362 22 20 27 20 3962 683 39 28 25
leaf_count=21 20 22 31 37 25 21 278 44 22 23 26 5720 22 21 38 20 5710 124 32 119 362 22 20 27 20 3962 683 39 28 25
internal_value=-1.69181e-08 159.351 -432.641 -0.674214 -0.975893 38.5635 4.36128 -1.86541 -28.5024 -1.38852 -1.21199 -1.50699 64.8189 -57.8463 -122.074 -1.75405 0.860462 208.593 -6.18083 -30.7763 -22.8334 -59.3039 -1.99143 3.74438 -0.509411 -4.32654 -5.56877 -22.0793 -77.0853 -100.869
internal_weight=17564 74 52 17490 17453 384 363 17069 338 17025 17002 16976 63 43 60 16913 10633 144 6280 560 503 141 10489 4029 4009 3989 6460 750 67 57
internal_count=17564 74 52 17490 17453 384 363 17069 338 17025 17002 16976 63 43 60 16913 10633 144 6280 560 503 141 10489 4029 4009 3989 6460 750 67 57
is_linear=0
shrinkage=0.1


Tree=16
num_leaves=31
num_cat=0
split_feature=14 40 41 6 6 14 24 9 29 3 21 30 20 41 39 9 0 41 16 30 24 27 27 10 44 4 22 40 18 11
split_gain=1.68144e+08 6.35697e+09 1.08522e+09 7.9842e+08 4.44435e+08 3.88672e+08 1.35007e+09 1.02177e+09 2.88593e+08 3.78458e+08 7.31208e+07 9.66261e+08 1.10509e+08 6.63776e+07 5.52104e+07 3.88202e+07 4.48757e+08 3.47007e+07 2.28007e+08 2.79615e+07 1.96469e+07 1.79965e+07 1.85134e+07 7.5567e+08 2.17136e+07 1.64306e+07 4.0653e+07 1.65829e+07 1.16581e+07 2.25205e+07
threshold=198732.37000000002 0.10500000000000002 0.010050000000000002 758.68750000000011 41150.000000000007 208725.97800000003 25783.677500000002 503.23000000000008 7622.6050000000005 0.14237500000000003 99999.99500000001 17.361500000000003 81317.195000000022 99950.000000000015 983886.95000000007 2005050.7600000002 0.158695 0.020700000000000003 3.8185000000000007 17.997500000000002 13853.912000000002 62509.000000000007 1614.1800000000001 21785.715000000004 1253782.9500000004 3461.0000000000005 303.38000000000005 0.64560000000000006 2.7005000000000003 32855.725000000013
decision_type=2 2 2 2 2 2 2 2 2 2 2 2 2 2 2 2 2 2 2 2 2 2 2 2 2 2 2 2 2 2
left_child=2 -2 8 5 10 6 7 -3 -1 -10 12 -12 13 15 -13 17 19 18 -4 -17 -9 22 -19 24 -24 26 27 -7 29 -22
right_child=1 3 4 -5 -6 25 -8 20 9 -11 11 14 -14 -15 -16 16 -18 21 -20 -21 28 -23 23 -25 -26 -27 -28 -29 -30 -31
leaf_value=-113.54571463844994 1754.6448970068068 713.58527374267578 240.95147812787224 572.20462267303469 -375.08516921997074 -144.62010057449342 681.10125930373738 -126.07226795014881 -263.85145111083983 -850.41124600497153 706.83179403305064 -19.303670657712683 -191.21297656643776 175.45688534691223 -205.8099391392299 -192.63733917236328 467.1977097511292 -3.5534374128229782 -161.62027460734052 -30.964931786578639 2.923781089782715 -84.702663562915944 -11.991655787763925 600.91253571283255 -119.72061105728149 -2.1136728560151745 -11.923506442525172 -30.473468017578128 -11.350774939219157 -147.14438316345215
leaf_weight=22 21 20 34 25 32 35 37 21 22 22 20 65 31 21 21 20 20 13521 24 23 20 27 290 21 20 2499 440 20 150 20
leaf_count=22 21 20 34 25 32 35 37 21 22 22 20 65 31 21 21 20 20 13521 24 23 20 27 290 21 20 2499 440 20 150 20
internal_value=6.49781e-09 20.3117 -4.71317 9.23135 -2.83151 4.91671 120.291 30.4639 -409.269 -557.131 -1.99014 80.7537 -2.61432 -2.19733 -64.8459 -2.46381 75.8574 -2.81785 74.3701 -106.161 -34.2869 -3.14042 -2.98144 20.3842 -18.9419 -5.41068 -22.0556 -103.112 -24.1423 -72.1103
internal_weight=17564 3308 14256 3287 14190 3262 268 231 66 44 14158 106 14052 14021 86 14000 63 13937 58 43 211 13879 13852 331 310 2994 495 55 190 40
internal_count=17564 3308 14256 3287 14190 3262 268 231 66 44 14158 106 14052 14021 86 14000 63 13937 58 43 211 13879 13852 331 310 2994 495 55 190 40
is_linear=0
shrinkage=0.1


Tree=17
num_leaves=31
num_cat=0
split_feature=41 19 29 6 22 40 43 41 8 9 34 39 17 9 9 29 40 41 24 44 41 0 1 28 4 20 12 22 42 41
split_gain=1.92506e+08 5.88179e+09 7.62909e+08 8.66314e+07 7.10869e+07 6.61448e+08 3.88954e+07 5.77702e+07 3.28867e+07 3.27398e+07 4.04901e+08 2.78e+07 2.53789e+07 1.91222e+07 1.72989e+09 3.81609e+09 4.53858e+07 3.55882e+07 2.36873e+08 3.42738e+07 1.03099e+09 3.36366e+07 7.83599e+08 2.43078e+07 2.26403e+07 1.91265e+07 4.42089e+07 1.47225e+07 1.45559e+07 1.02398e+07
threshold=0.010050000000000002 544.95000000000016 8223.6825000000008 41150.000000000007 73233.215000000011 0.60005000000000008 11794.175000000001 8264.1750000000011 9999.5000000000018 2005050.7600000002 39882.215000000004 1141690.5500000003 3.0435000000000003 12609.940000000001 12530.805000000002 57783.479000000014 0.10500000000000002 0.020700000000000003 720.64850000000013 1491354.7500000002 0.61840000000000017 1.1351150000000001 1.1403000000000001 131.31000000000003 17.500000000000004 1623.3450000000003 49561.985000000008 303.38000000000005 0.44890000000000002 5357.9000000000005
decision_type=2 2 2 2 2 2 2 2 2 2 2 2 2 2 2 2 2 2 2 2 2 2 2 2 2 2 2 2 2 2
left_child=1 2 -1 4 6 -6 7 8 9 13 -11 -7 -12 14 17 -16 -15 18 -2 21 24 23 -23 -19 -21 26 27 28 -25 -18
right_child=3 -3 -4 -5 5 11 -8 -9 -10 10 12 -13 -14 16 15 -17 29 19 -20 20 -22 22 -24 25 -26 -27 -28 -29 -30 -31
leaf_value=-85.295104009454917 -166.63537199600884 1337.2162564878111 -892.72342236328132 152.173095703125 561.22588152204241 -48.470976572036747 -128.59953460693359 137.44154042561851 -118.42501323819161 441.58191566467286 -30.9781157060103 -215.2043882751465 -186.62280807495119 -155.66532123565673 -0.99146674004468049 1664.9421322607996 -4.5999184251446303 -4.7426061796913919 254.09143414497376 -110.10204882144929 692.46727852225308 453.26025469585466 -2.4270427786113804 -111.93096183874668 -1.7169638718228857 -8.1180768262881511 -162.90068202400209 -22.960007701294764 -30.423594934225083 -62.188164615631109
leaf_weight=22 23 27 25 37 21 20 24 30 24 20 22 20 20 20 44 20 7733 1914 32 20 22 38 5439 39 530 572 25 700 50 31
leaf_count=22 23 27 25 37 21 20 24 30 24 20 22 20 20 20 44 20 7733 1914 32 20 22 38 5439 39 530 572 25 700 50 31
internal_value=-7.55704e-08 160.949 -514.778 -0.680976 -1.00502 106.758 -1.38299 -1.20719 -1.4471 -1.28495 71.2526 -131.838 -105.095 -1.54563 1.47308 519.613 -5.21741 -2.05318 78.1511 -2.52502 21.1927 -4.07072 0.734563 -12.046 -5.65824 -22.1317 -31.9791 -27.8308 -66.1403 -4.82986
internal_weight=17564 74 47 17490 17453 61 17392 17368 17338 17314 62 40 42 17252 9468 64 7784 9404 55 9349 572 8777 5477 3300 550 1386 814 789 89 7764
internal_count=17564 74 47 17490 17453 61 17392 17368 17338 17314 62 40 42 17252 9468 64 7784 9404 55 9349 572 8777 5477 3300 550 1386 814 789 89 7764
is_linear=0
shrinkage=0.1


Tree=18
num_leaves=31
num_cat=0
split_feature=41 24 29 6 20 4 25 15 27 41 6 44 30 20 41 29 22 14 14 22 17 24 24 9 6 24 18 12 41 15
split_gain=1.5593e+08 5.44709e+09 9.33729e+08 7.01715e+07 5.77339e+07 6.7108e+08 3.33715e+07 2.59953e+08 2.43573e+08 5.68132e+07 2.92788e+07 2.5993e+07 1.79987e+07 2.24989e+08 2.98274e+07 5.55016e+07 1.52057e+07 1.72293e+07 3.58445e+08 1.3504e+09 3.16668e+09 1.13397e+09 1.29016e+08 2.44522e+07 1.55523e+07 1.46672e+07 1.02684e+07 8.80805e+06 1.83358e+07 1.25987e+07
threshold=0.010050000000000002 31311.753000000004 8057.1715000000013 41150.000000000007 81317.195000000022 91814.500000000015 1679.3350000000003 73650.000000000015 1614.1800000000001 99950.000000000015 30.431500000000003 1491354.7500000002 3.2170000000000001 355.47500000000008 0.020700000000000003 230802.53050000002 16.500000000000004 198732.37000000002 208725.97800000003 303.38000000000005 2.6955000000000005 15422.205000000002 25783.677500000002 1597.8550000000002 611.71000000000015 479.16150000000005 2.7005000000000003 33136.31500000001 0.28235000000000005 2.6725000000000008
decision_type=2 2 2 2 2 2 2 2 2 2 2 2 2 2 2 2 2 2 2 2 2 2 2 2 2 2 2 2 2 2
left_child=1 2 -1 4 6 -6 7 8 9 12 11 -8 13 -2 15 -14 -16 -18 19 20 -19 -21 23 -23 27 -15 -25 -20 29 -29
right_child=3 -3 -4 -5 5 -7 10 -9 -10 -11 -12 -13 14 25 16 -17 17 18 24 21 -22 22 -24 26 -26 -27 -28 28 -30 -31
leaf_value=-143.05470225016276 325.57767977033342 1183.8938753763834 -1068.2134112548829 136.95578877217062 -173.71021574771768 560.38620498657235 -12.121914807788789 328.31244029998783 255.26500978212098 159.00527843128552 -110.29425861544726 -108.16008965353814 -201.14050438290553 -18.595350330897741 -20.371089159347292 28.769661748976933 -2.9104663264218553 1510.6499902271089 -1.571161078942255 712.38569321405328 -187.80742894877559 -134.41097560882568 -278.3591298421224 -71.224374253409252 -70.021596639686166 -124.3073230561756 -4.0237040716754509 -22.096742976795543 -9.9387103879731882 -126.86373475392659
leaf_weight=24 21 30 20 37 33 20 310 24 37 22 41 31 21 35 430 21 13212 21 2451 21 23 20 24 28 36 21 121 22 383 24
leaf_count=24 21 30 20 37 33 20 310 24 37 22 41 31 21 35 430 21 13212 21 2451 21 23 20 24 28 36 21 121 22 383 24
internal_value=2.07258e-08 144.855 -563.581 -0.612878 -0.904521 103.307 -1.22195 -0.565816 -1.03028 -1.58951 -30.4524 -20.8527 -1.79814 46.4395 -2.01847 -86.1854 -1.80825 -1.32113 5.29462 118.272 622.82 14.5332 -61.3989 -30.588 -4.70133 -58.2373 -16.652 -3.88483 -17.1035 -76.7578
internal_weight=17564 74 44 17490 17453 53 17400 17018 16994 16957 382 341 16935 77 16858 42 16816 16386 3174 258 44 214 193 169 2916 56 149 2880 429 46
internal_count=17564 74 44 17490 17453 53 17400 17018 16994 16957 382 341 16935 77 16858 42 16816 16386 3174 258 44 214 193 169 2916 56 149 2880 429 46
is_linear=0
shrinkage=0.1


Tree=19
num_leaves=31
num_cat=0
split_feature=14 40 41 14 21 6 6 29 14 14 2 23 20 20 41 24 24 20 14 41 4 22 15 9 44 24 28 2 44 7
split_gain=1.48609e+08 5.79492e+09 1.10672e+09 9.16591e+08 4.15023e+09 9.41976e+08 4.25173e+08 3.44732e+08 9.75484e+07 1.62196e+08 1.12289e+09 5.79318e+07 4.90156e+08 4.75018e+07 3.71669e+07 3.65367e+07 3.89144e+07 2.69523e+07 3.08499e+08 4.1832e+07 4.88453e+07 2.23859e+07 5.78001e+08 9.68303e+07 3.8436e+07 1.61273e+07 1.45814e+07 1.36088e+07 1.12508e+07 1.02882e+09
threshold=206166.62100000001 0.10500000000000002 0.010050000000000002 208725.97800000003 1320.3300000000002 690.0005000000001 41150.000000000007 9126.4260000000013 201209.50250000003 198732.37000000002 1.1341900000000003 97950.000000000015 81317.195000000022 81317.195000000022 99950.000000000015 25114.333000000002 15566.844500000001 212.08500000000004 294.99850000000009 0.020700000000000003 1345138.5000000002 16.500000000000004 465.50000000000006 2005050.7600000002 172014.10000000001 20659.592500000002 1274.5200000000002 1.2042450000000002 1491354.7500000002 30.002000000000006
decision_type=2 2 2 2 2 2 2 2 2 2 2 2 2 2 2 2 2 2 2 2 2 2 2 2 2 2 2 2 2 2
left_child=2 -2 7 4 -3 26 8 -1 9 11 25 12 14 -13 17 16 -10 18 -4 20 -19 22 -21 28 -25 -11 -5 -6 -23 -30
right_child=1 3 6 5 27 -7 -8 -9 15 10 -12 13 -14 -15 -16 -17 -18 19 -20 21 -22 23 -24 24 -26 -27 -28 -29 29 -31
leaf_value=-146.57141701834541 1716.5591503906251 1582.2022870254518 395.78774481614437 -3.6738263532268478 -177.36797493525916 638.17431864531147 -366.48954010009766 -608.99728200812092 -181.83635309392756 -65.657151603698736 762.07780609130862 -10.584615050951641 460.17122776197351 -188.5392920557658 125.17071957795518 -200.30226899851925 -33.942051385038646 -165.9241785222834 -16.433707399733034 -11.695852048305685 32.126868133544924 -3.4319790011778921 544.30742146044975 -202.25428271438136 -39.680221616304841 -183.23022125244142 -89.346440467834483 -69.364627723693843 -2.6724945702014589 700.95237774394809
leaf_weight=28 20 20 21 2970 28 23 32 38 22 28 21 30 23 30 23 23 93 33 134 287 20 11468 20 33 26 20 20 20 1989 21
leaf_count=28 20 20 21 2970 28 23 32 38 22 28 21 30 23 30 23 23 93 33 134 287 20 11468 20 33 26 20 20 20 1989 21
internal_value=9.8925e-08 19.865 -4.25924 8.85111 371.918 0.657091 -2.3863 -412.817 -1.57521 -0.763613 152.183 -1.50901 -1.0917 -99.562 -1.84545 -85.2461 -62.2349 -2.05335 39.4157 -2.51588 -91.1879 -2.17641 24.5259 -2.78198 -130.611 -114.646 -4.24689 -132.367 -2.2224 4.67881
internal_weight=17564 3101 14463 3081 68 3013 14397 66 14365 14227 69 14158 14098 60 14075 138 115 14052 155 13897 53 13844 307 13537 59 48 2990 48 13478 2010
internal_count=17564 3101 14463 3081 68 3013 14397 66 14365 14227 69 14158 14098 60 14075 138 115 14052 155 13897 53 13844 307 13537 59 48 2990 48 13478 2010
is_linear=0
shrinkage=0.1


Tree=20
num_leaves=31
num_cat=0
split_feature=41 22 18 6 8 20 2 43 41 9 29 4 22 14 40 40 44 13 41 38 21 44 14 25 16 27 41 15 24 14
split_gain=1.64165e+08 5.67914e+09 1.14891e+08 8.21784e+07 5.10193e+07 8.16377e+07 7.61019e+08 4.59791e+07 4.15183e+07 2.6626e+07 4.22959e+08 1.92543e+07 1.52821e+08 1.16925e+09 3.04086e+09 2.11006e+08 1.44658e+08 7.6078e+08 5.73002e+07 3.53197e+07 3.04337e+08 1.11323e+09 1.76506e+07 1.3462e+07 1.33835e+07 4.47784e+07 1.22557e+07 8.37683e+07 2.1825e+07 1.18329e+07
threshold=0.010050000000000002 508.22500000000008 2.8985000000000007 41150.000000000007 9999.5000000000018 81317.195000000022 0.14463000000000004 11794.175000000001 8264.1750000000011 2005050.7600000002 21796.457500000004 1.0000000180025095e-35 303.38000000000005 206166.62100000001 0.29455000000000003 0.18335000000000004 1491354.7500000002 14790.820000000002 0.020700000000000003 2.4655000000000005 1675.1650000000002 6852.8500000000013 191275.99500000002 140.61000000000004 3.0005000000000002 1614.1800000000001 0.10500000000000002 2.5755000000000003 21706.689500000004 198732.37000000002
decision_type=2 2 2 2 2 2 2 2 2 2 2 2 2 2 2 2 2 2 2 2 2 2 2 2 2 2 2 2 2 2
left_child=1 2 -1 4 5 7 -7 8 9 11 -11 12 13 15 -15 -2 18 -18 -14 23 21 -21 -17 -20 25 -25 27 -13 -29 -26
right_child=3 -3 -4 -5 -6 6 -8 -9 -10 10 -12 26 16 14 -16 22 17 -19 19 20 -22 -23 -24 24 29 -27 -28 28 -30 -31
leaf_value=-601.78425990513369 305.43016404651462 1495.4702056884767 -298.84581298828124 148.24485985008445 -138.30096054077148 596.06846015930182 -224.42468484731822 -139.40048344930014 116.64695363362631 -188.5751344203949 334.07309338887535 86.266281208594648 -172.34908283233642 1471.6007799911499 -109.96578984414379 -15.283254603435916 -13.029391104131092 670.22939052432775 -4.764049853245897 -12.313288521068172 -1.5037255851077402 842.41363639041776 -107.97833352522417 -26.11773372886617 -5.6255122511029994 -148.72504499030836 -3.444959411455244 -53.365157519635709 -191.65054125976565 -36.873394085448467
leaf_weight=21 21 22 31 37 27 20 26 24 30 32 30 30 20 20 31 310 88 20 846 64 3376 20 22 306 481 33 11368 21 25 162
leaf_count=21 21 22 31 37 27 20 26 24 30 32 30 30 20 20 31 310 88 20 846 64 3376 20 22 306 481 33 11368 21 25 162
internal_value=5.45445e-08 148.63 -421.186 -0.628854 -0.944463 -0.731642 132.311 -1.08377 -0.892504 -1.09602 64.3192 -1.33095 3.35202 62.6826 510.256 -1.98102 -1.07368 113.5 -3.40487 -2.7659 3.17446 191.193 -21.4257 -14.0097 -21.9749 -38.053 -3.71253 -43.7361 -128.52 -13.4982
internal_weight=17564 74 52 17490 17453 17426 46 17380 17356 17326 62 17264 5820 404 51 353 5416 108 5308 5288 3460 84 332 1828 982 339 11444 76 46 643
internal_count=17564 74 52 17490 17453 17426 46 17380 17356 17326 62 17264 5820 404 51 353 5416 108 5308 5288 3460 84 332 1828 982 339 11444 76 46 643
is_linear=0
shrinkage=0.1


Tree=21
num_leaves=31
num_cat=0
split_feature=14 42 29 41 29 1 6 23 20 20 43 13 23 41 23 20 22 14 14 16 14 9 14 14 21 14 24 7 43 27
split_gain=1.38709e+08 7.64326e+09 1.48715e+09 1.41632e+09 5.19221e+08 5.6457e+08 4.4793e+08 5.59966e+07 3.95329e+08 4.82565e+07 4.02816e+07 3.67188e+07 1.83681e+08 4.68248e+07 3.07748e+07 3.54714e+08 3.1509e+07 7.11801e+08 3.43177e+09 5.12386e+08 8.81241e+07 8.60761e+07 4.96851e+07 3.60761e+08 9.86934e+08 5.57931e+07 3.40506e+07 3.18993e+07 2.66372e+07 2.55953e+07
threshold=251602.48000000001 0.01485 1511.0140000000004 0.010050000000000002 7622.6050000000005 0.14566000000000004 41150.000000000007 97950.000000000015 81317.195000000022 81317.195000000022 11794.175000000001 88835.000000000015 4036.7750000000001 8264.1750000000011 211.36500000000004 213.18500000000003 303.38000000000005 206166.62100000001 214473.99700000003 13200.000000000002 198732.37000000002 2005050.7600000002 201209.50250000003 198732.37000000002 1639.9500000000003 208725.97800000003 25114.333000000002 38.838000000000008 0.020700000000000003 49.610000000000007
decision_type=2 2 2 2 2 2 2 2 2 2 2 2 2 2 2 2 2 2 2 2 2 2 2 2 2 2 2 2 2 2
left_child=3 -2 -3 4 -1 -6 7 8 10 -9 11 13 -13 14 29 -16 17 19 -19 20 28 22 23 -18 -25 26 -24 -20 -17 -5
right_child=1 2 -4 6 5 -7 -8 9 -10 -11 -12 12 -14 -15 15 16 21 18 27 -21 -22 -23 25 24 -26 -27 -28 -29 -30 -31
leaf_value=-49.975365656072448 1921.8700714610875 805.58337998144009 -2.5358458374107373 -22.413655507035344 -321.17053457406854 -1009.4766945578835 -358.74208426339288 -7.318080075581868 414.06900900135872 -186.68088804602624 -136.04941794655539 -40.90394191298374 325.9161452484131 -127.90308459051724 410.68215670358569 -119.33932548165322 -1.5205918473493185 1436.2556012916566 -15.255221947630247 489.90070992424376 -215.67297722816465 -123.94572505622075 -60.048175095187304 812.69116935729983 -88.326363052860387 -11.433286565367647 -188.70417520205183 -165.08060209486223 -3.2777126510858809 -125.57238697203307
leaf_weight=22 21 23 2298 321 26 22 35 30 23 30 22 43 20 29 21 20 11903 20 30 21 20 58 144 20 31 478 24 27 1756 26
leaf_count=22 21 23 2298 321 26 22 35 30 23 30 22 43 20 29 21 20 11903 20 30 21 20 58 144 20 31 478 24 27 1756 26
internal_value=2.01328e-07 22.656 5.47223 -3.48576 -452.263 -636.644 -1.41248 -0.585166 -0.200969 -96.9995 -0.834746 -0.63659 75.5469 -0.957652 -0.710908 -0.0100933 -0.602764 11.4268 309.224 -1.19317 -6.93536 -2.40273 -1.84324 -0.383461 265.014 -28.856 -78.4276 -86.2251 -4.58471 -30.1431
internal_weight=17564 2342 2321 15222 70 48 15152 15117 15057 60 15034 15012 63 14949 14920 14573 14552 1894 77 1817 1796 12658 12600 11954 51 646 168 57 1776 347
internal_count=17564 2342 2321 15222 70 48 15152 15117 15057 60 15034 15012 63 14949 14920 14573 14552 1894 77 1817 1796 12658 12600 11954 51 646 168 57 1776 347
is_linear=0
shrinkage=0.1


Tree=22
num_leaves=31
num_cat=0
split_feature=41 4 14 6 9 21 22 20 9 23 41 16 30 29 27 41 0 41 9 16 32 40 11 2 23 44 6 14 22 14
split_gain=2.05173e+08 5.41379e+09 2.81156e+08 1.02036e+08 4.79789e+07 6.37582e+08 3.90168e+08 1.70263e+08 5.63018e+07 3.53661e+07 3.24599e+07 2.08809e+07 4.54337e+07 2.05847e+08 4.5532e+07 8.2341e+08 6.31586e+07 3.98967e+07 1.01786e+08 4.50989e+07 1.9156e+07 1.74778e+07 1.74559e+07 1.5442e+07 1.71633e+09 3.32396e+09 2.96313e+07 3.87638e+07 7.44362e+07 2.96636e+07
threshold=0.010050000000000002 155.50000000000003 756.15100000000018 41150.000000000007 1075023.9600000002 98250.000000000015 16.500000000000004 81317.195000000022 2005050.7600000002 97950.000000000015 99950.000000000015 10.025000000000002 3.2170000000000001 1.0000000180025095e-35 1614.1800000000001 0.61840000000000017 0.084205000000000016 0.10500000000000002 11909.895000000002 2.5535000000000001 9.3570000000000011 0.020700000000000003 18665.445000000003 0.30952500000000005 1216.3550000000002 1.0000000180025095e-35 39.358500000000006 198732.37000000002 303.38000000000005 208725.97800000003
decision_type=2 2 2 2 2 2 2 2 2 2 2 2 2 2 2 2 2 2 2 2 2 2 2 2 2 2 2 2 2 2
left_child=1 -1 -3 4 7 6 -6 10 -8 -9 11 12 13 -2 17 16 -16 18 19 -14 -13 -21 -10 26 25 -25 -19 -28 -29 -30
right_child=3 2 -4 -5 5 -7 8 9 22 -11 -12 20 14 -15 15 -17 -18 23 -20 21 -22 -23 -24 24 -26 -27 27 28 29 -31
leaf_value=1524.9844540550596 330.09352873021908 -185.65907115936281 -656.5573525565012 165.18504341744088 384.11617968750005 569.63205798921138 -6.3258206851190799 -296.51139343261724 -36.858235874176025 -116.45877519448598 112.53013256835939 -112.45514656066894 105.78146417555602 -52.460722634731191 -225.35690793124115 638.60892929077147 -24.348181357207125 -2.150338357640615 -259.66561620803105 -118.62704055220993 -13.586214370899853 -11.543274446896145 -151.27814162254333 -68.21332374080535 -1.5496933590858937 1585.3370172286034 -8.7472267076136578 -207.30499430689321 -96.520512256287702 -10.946123613630023
leaf_weight=21 22 32 21 37 25 21 278 20 20 24 25 20 23 39 22 20 54 6064 21 27 972 35 40 31 8837 20 567 29 57 140
leaf_count=21 22 32 21 37 25 21 278 20 20 24 25 20 23 39 22 20 54 6064 21 27 972 35 40 31 8837 20 567 29 57 140
internal_value=-1.19987e-07 166.161 -372.241 -0.703023 -1.0547 33.9018 2.90919 -1.84112 -25.2866 -198.301 -1.33338 -1.50083 -0.628383 85.5097 -0.957875 67.7034 -82.5349 -1.37372 -62.5184 -13.8114 -15.5795 -58.1765 -113.138 -0.962071 1.78865 580.238 -4.52753 -22.7057 -57.7255 -35.7062
internal_weight=17564 74 53 17490 17453 384 363 17069 338 44 17025 17000 16008 61 15947 96 76 15851 106 85 992 62 60 15745 8888 51 6857 793 226 197
internal_count=17564 74 53 17490 17453 384 363 17069 338 44 17025 17000 16008 61 15947 96 76 15851 106 85 992 62 60 15745 8888 51 6857 793 226 197
is_linear=0
shrinkage=0.1


Tree=23
num_leaves=31
num_cat=0
split_feature=41 24 29 6 24 22 20 13 30 41 43 4 41 26 31 24 9 11 22 14 20 31 44 44 4 14 22 40 14 9
split_gain=1.6619e+08 5.69065e+09 7.78299e+08 8.26489e+07 5.27842e+07 8.18479e+08 1.45962e+08 1.39007e+08 1.02566e+08 7.61222e+07 4.18436e+07 4.00689e+07 3.73304e+07 8.25607e+07 5.08903e+07 3.99703e+07 3.39574e+07 4.21199e+08 2.48817e+07 2.46427e+07 4.04662e+07 2.45336e+07 1.66225e+07 1.73126e+09 3.21852e+09 4.93356e+07 6.23154e+07 6.94073e+07 4.30806e+07 2.0972e+07
threshold=0.010050000000000002 31311.753000000004 8057.1715000000013 41150.000000000007 154.38300000000004 36593.410000000011 81317.195000000022 88835.000000000015 3.2170000000000001 99950.000000000015 0.020700000000000003 67230.000000000015 0.10500000000000002 64.970000000000013 16.557500000000005 21027.484500000002 2005050.7600000002 19284.000000000004 16.500000000000004 198732.37000000002 652.55500000000018 18.137000000000004 803.00000000000011 898.80000000000007 9.5000000000000018 198732.37000000002 303.38000000000005 0.49995000000000006 208725.97800000003 71.185000000000016
decision_type=2 2 2 2 2 2 2 2 2 2 2 2 2 2 2 2 2 2 2 2 2 2 2 2 2 2 2 2 2 2
left_child=1 2 -1 4 6 7 10 8 -6 12 -2 -8 13 14 -10 -15 18 21 19 -14 -21 -18 25 24 -24 -20 27 -27 -28 -25
right_child=3 -3 -4 -5 5 -7 11 -9 9 -11 -12 -13 16 15 -16 -17 17 -19 22 20 -22 -23 23 29 -26 26 28 -29 -30 -31
leaf_value=-190.62345326741536 -135.96456641980581 1211.5600732421876 -1035.2774819946289 148.66657516891891 172.7013443554149 624.24238292149141 -107.51430213928222 240.034939066569 -83.383573516209935 -179.12773157755535 -11.690348853954207 -305.28902180989587 -14.883382960187156 -55.330455763443666 125.91692675076997 -234.72450324164498 -190.25449752807617 438.40807703336077 -1.5172410506234169 -24.242280335426329 -193.09217097542503 -37.22380811517889 1569.2457186603547 17.848823977544392 -104.46330576296208 -272.75061319524593 -70.034903620311198 -24.303769470297773 -4.710625845556101 -1.7475196488011968
leaf_weight=24 28 30 20 37 34 21 20 24 21 24 837 21 299 23 26 27 20 21 5399 40 22 22 20 580 27 22 140 23 362 9350
leaf_count=24 28 30 20 37 34 21 20 24 21 24 837 21 299 23 26 27 20 21 5399 40 22 22 20 580 27 22 140 23 362 9350
internal_value=7.70455e-08 149.544 -574.557 -0.632721 -0.949232 0.337598 -24.4516 -0.455213 -0.804975 -1.1632 -15.7131 -208.814 -0.903459 -62.7565 32.3997 -152.203 -0.536435 72.739 -0.819925 -26.7807 -84.1568 -110.096 -0.231351 2.26295 607.753 -4.41662 -33.0341 -145.767 -22.9286 -0.60292
internal_weight=17564 74 44 17490 17453 16547 906 16526 16502 16468 865 41 16444 97 47 50 16347 63 16284 361 62 42 15923 9977 47 5946 547 45 502 9930
internal_count=17564 74 44 17490 17453 16547 906 16526 16502 16468 865 41 16444 97 47 50 16347 63 16284 361 62 42 15923 9977 47 5946 547 45 502 9930
is_linear=0
shrinkage=0.1


Tree=24
num_leaves=31
num_cat=0
split_feature=41 22 44 6 24 22 20 13 30 41 43 4 41 9 13 9 11 22 31 14 7 15 18 27 22 24 14 44 27 29
split_gain=1.34614e+08 5.72284e+09 1.30793e+08 6.69456e+07 4.29291e+07 5.45322e+08 1.13847e+08 1.08464e+08 6.92809e+07 6.37951e+07 3.38241e+07 3.29762e+07 3.01313e+07 7.00737e+07 4.59605e+07 2.94551e+07 3.65299e+08 1.99963e+07 1.98722e+07 1.76834e+07 3.48771e+07 1.49127e+07 2.65589e+09 2.9956e+07 9.72235e+07 1.94376e+07 1.03036e+09 7.56508e+08 6.91332e+07 1.46443e+07
threshold=0.010050000000000002 508.22500000000008 98.40000000000002 41150.000000000007 99.482000000000014 36593.410000000011 81317.195000000022 88835.000000000015 3.2170000000000001 8264.1750000000011 0.020700000000000003 67230.000000000015 0.10500000000000002 11909.895000000002 12252.660000000002 2005050.7600000002 19284.000000000004 16.500000000000004 18.137000000000004 198732.37000000002 19.708500000000004 2.7575000000000007 2.6975000000000002 128.81000000000003 303.38000000000005 13531.455000000004 193907.12400000004 1491354.7500000002 1614.1800000000001 94385.095000000016
decision_type=2 2 2 2 2 2 2 2 2 2 2 2 2 2 2 2 2 2 2 2 2 2 2 2 2 2 2 2 2 2
left_child=1 2 -1 4 6 7 10 8 -6 12 -2 -8 13 14 29 17 18 19 -17 -14 -21 23 -23 -19 -25 26 27 -24 -27 -10
right_child=3 -3 -4 -5 5 -7 11 -9 9 -11 -12 -13 15 -15 -16 16 -18 21 -20 20 -22 22 25 24 -26 28 -28 -29 -30 -31
leaf_value=-590.02303331163193 -129.16467401123049 1486.6011760364881 -272.59774560546879 133.79990630278718 134.12726454483837 476.58904236157736 -96.762873134613045 207.7064709777832 -23.174058970698606 -113.83793112182619 -10.984183140503344 -278.3563985443115 -13.437473002233004 -217.91492236909414 87.560848499166568 -171.22904743194582 420.16887657165529 -1.7500336315650498 -33.501428014581855 -22.609558723283854 -180.78829635620119 836.5399369917418 -1.8999634103710648 -178.14564476991313 -14.925629773442175 -5.0650193367117859 685.6703422741457 560.56994783878326 -146.19351678030833 -134.51727992466519
leaf_weight=27 25 22 25 37 38 24 20 25 27 50 774 20 304 21 29 20 20 4511 22 46 20 38 6518 39 568 4192 22 24 35 21
leaf_count=27 25 22 25 37 38 24 20 25 27 50 774 20 304 21 29 20 20 4511 22 46 20 38 6518 39 568 4192 22 24 35 21
internal_value=1.65105e-08 134.59 -437.415 -0.569449 -0.854309 0.260202 -22.924 -0.428881 -0.743 -1.0531 -14.6819 -187.56 -0.710854 -55.995 -11.835 -0.380073 68.4156 -0.641478 -99.086 -23.6238 -70.5425 -0.108246 1.99406 -4.55644 -25.4126 -0.944757 2.46107 0.163515 -6.23358 -71.8867
internal_weight=17564 74 52 17490 17453 16614 839 16590 16565 16527 799 40 16477 98 77 16379 62 16317 42 370 66 15947 10829 5118 607 10791 6564 6542 4227 48
internal_count=17564 74 52 17490 17453 16614 839 16590 16565 16527 799 40 16477 98 77 16379 62 16317 42 370 66 15947 10829 5118 607 10791 6564 6542 4227 48
is_linear=0
shrinkage=0.1


Tree=25
num_leaves=31
num_cat=0
split_feature=14 42 41 6 4 6 19 21 4 20 41 9 41 23 25 15 27 44 36 14 7 23 24 14 22 24 24 43 30 14
split_gain=1.17884e+08 6.19234e+09 1.4177e+09 1.40357e+09 5.02959e+08 4.71201e+08 8.08463e+07 5.08932e+07 7.92106e+08 1.55706e+08 4.33953e+07 4.2088e+07 4.08941e+07 2.02224e+08 3.09045e+07 2.79177e+08 2.52187e+08 4.08363e+07 2.99659e+07 2.53118e+07 2.85765e+08 4.04428e+09 1.07241e+09 9.40206e+07 8.95623e+07 6.21315e+07 4.86448e+07 2.13468e+07 1.97786e+07 1.91216e+07
threshold=251602.48000000001 0.01485 0.010050000000000002 503.22200000000004 6769.5000000000009 41150.000000000007 664.40000000000009 99999.99500000001 142043.00000000003 81317.195000000022 99950.000000000015 273424.25000000006 0.020700000000000003 354.55500000000006 1679.3350000000003 73650.000000000015 1614.1800000000001 1491354.7500000002 2.8075000000000006 198732.37000000002 41.848500000000008 1232.5150000000001 15948.457500000002 208725.97800000003 303.38000000000005 25783.677500000002 15256.027000000002 0.15560000000000004 6.448500000000001 208725.97800000003
decision_type=2 2 2 2 2 2 2 2 2 2 2 2 2 2 2 2 2 2 2 2 2 2 2 2 2 2 2 2 2 2
left_child=2 -2 4 -3 -1 7 -6 9 11 10 12 -9 13 -4 15 16 19 18 -16 28 23 -22 -23 25 -24 26 -21 -25 -14 -26
right_child=1 3 5 -5 6 -7 -8 8 -10 -11 -12 -13 14 -15 17 -17 -18 -19 -20 20 21 22 24 27 29 -27 -28 -29 -30 -31
leaf_value=-848.14617808948867 1730.3579020182294 -1.8308168921870598 -157.56769020774149 839.52750293731697 -156.28196060745805 -367.63302664620539 -417.89485357375372 -16.673519123031433 639.66581384181973 -224.70004218316851 136.90111428965693 -178.27437389373779 -58.3613170154511 225.28393066203273 -12.525256947282784 340.60637995402021 275.38855982693758 -153.09652740478518 -130.78779303509256 -194.26804481788918 1427.5724430265882 719.03264257431033 -211.0427753155048 -111.01345250265939 -52.481037937361627 -267.20577115145596 -35.61672056422514 -7.2355666038334876 -2.1996734571128416 -3.3246836313760904
leaf_weight=22 21 2301 22 20 27 35 21 83 20 31 23 20 63 37 313 24 33 25 23 27 21 20 26 21 116 22 68 353 13477 249
leaf_count=22 21 2301 22 20 27 35 21 83 20 31 23 20 63 37 313 24 33 25 23 27 21 20 26 21 116 22 68 353 13477 249
internal_value=-4.68282e-08 20.8861 -3.21346 5.41915 -452.209 -1.13917 -270.738 -0.290638 63.7718 -0.81616 -0.352323 -48.0523 -0.563623 82.5257 -0.893055 -0.174491 -0.738698 -29.7948 -20.6206 -1.36873 14.6541 73.9743 4.81239 -37.538 -31.7206 -115.775 -80.7071 -13.0627 -2.46099 -18.947
internal_weight=17564 2342 15222 2321 70 15152 48 15117 123 14994 14963 103 14940 59 14881 14520 14496 361 336 14463 923 432 411 491 391 117 95 374 13540 365
internal_count=17564 2342 15222 2321 70 15152 48 15117 123 14994 14963 103 14940 59 14881 14520 14496 361 336 14463 923 432 411 491 391 117 95 374 13540 365
is_linear=0
shrinkage=0.1


Tree=26
num_leaves=31
num_cat=0
split_feature=41 4 3 6 20 21 21 41 15 38 9 6 14 18 41 10 42 14 4 14 22 27 32 27 44 24 15 3 44 20
split_gain=1.77512e+08 5.19704e+09 2.29319e+08 8.48922e+07 4.831e+07 6.56914e+08 3.84344e+07 5.7629e+07 4.62909e+07 3.88329e+08 3.23027e+07 2.43488e+07 9.24842e+07 2.42466e+07 1.89557e+07 3.37947e+08 2.07834e+07 6.37972e+07 1.48296e+07 1.11229e+08 9.26212e+08 3.32433e+09 9.87258e+08 8.64446e+07 8.74146e+08 6.76534e+07 4.82852e+07 2.73407e+07 1.92714e+07 1.38495e+07
threshold=0.010050000000000002 155.50000000000003 0.14237500000000003 41150.000000000007 81317.195000000022 99999.99500000001 7014.0000000000009 99950.000000000015 73650.000000000015 2.7895000000000008 2005050.7600000002 758.68750000000011 198732.37000000002 10575.000000000002 0.020700000000000003 12154.330000000002 0.01485 130111.22400000002 5.5000000000000009 198732.37000000002 303.38000000000005 138.42000000000004 40.94850000000001 1614.1800000000001 1006457.2500000001 15566.844500000001 4001.5390000000002 98.500000000000014 250182.95000000004 41142.305000000008
decision_type=2 2 2 2 2 2 2 2 2 2 2 2 2 2 2 2 2 2 2 2 2 2 2 2 2 2 2 2 2 2
left_child=1 -1 -3 4 6 -6 7 8 11 10 -10 14 -13 29 15 -2 17 -16 19 23 21 -21 25 27 26 -22 -25 -18 -27 -8
right_child=3 2 -4 -5 5 -7 13 -9 9 -11 -12 12 -14 -15 16 -17 18 -19 -20 20 22 -23 -24 24 -26 28 -28 -29 -30 -31
leaf_value=1485.8982759021578 305.18976090042679 -160.98791186992941 -577.08010559082038 150.65801705025339 -202.23003362840223 512.2660957336426 -13.950603690377305 169.42071166992187 -2.0120295206705729 445.72440112885982 -156.42201389312746 -12.176849231251911 -240.02757728576663 -84.811909011314654 -8.9181048157314464 -205.04984649658206 -2.3408632621311951 -205.24479833602905 -2.461278735488313 -183.88464012145997 -209.72242680788042 1459.5927265548708 592.22602630191375 -164.19175438514125 651.95353501059799 -17.180578454935326 -3.9669715656953701 -116.69283418201265 -117.63060600280762 -66.51076526112027
leaf_weight=21 27 26 27 37 31 22 700 20 42 21 20 163 20 58 96 25 4798 20 10656 32 20 20 27 26 22 424 68 21 20 54
leaf_count=21 27 26 27 37 31 22 700 20 42 21 20 163 20 58 96 25 4798 20 10656 32 20 20 27 26 22 424 68 21 20 54
internal_value=5.22778e-09 154.554 -372.959 -0.653917 -0.974696 94.3533 -1.26506 -0.225222 -0.43001 74.0635 -51.8217 -0.805076 -37.0786 -22.5075 -0.397883 59.8823 -0.59078 -42.7675 -0.287538 3.9409 46.8988 448.222 4.39608 -0.78577 84.5193 -29.8095 -48.2845 -2.83918 -21.7054 -17.7149
internal_weight=17564 74 53 17490 17453 53 17400 16588 16568 83 62 16485 183 812 16302 52 16250 116 16134 5478 543 52 491 4935 116 464 94 4819 444 754
internal_count=17564 74 53 17490 17453 53 17400 16588 16568 83 62 16485 183 812 16302 52 16250 116 16134 5478 543 52 491 4935 116 464 94 4819 444 754
is_linear=0
shrinkage=0.1


Tree=27
num_leaves=31
num_cat=0
split_feature=41 24 29 6 43 20 35 41 25 15 27 36 44 22 8 42 29 29 19 41 7 42 14 22 14 25 2 21 14 10
split_gain=1.43785e+08 5.32524e+09 7.91025e+08 6.87627e+07 4.20831e+07 4.61685e+07 6.62653e+08 4.22576e+07 3.15445e+07 2.57911e+08 1.97379e+08 3.55163e+07 2.46218e+07 2.30832e+07 2.10742e+07 1.76682e+07 1.72529e+07 1.33639e+09 3.39652e+09 6.58386e+07 3.30097e+07 8.46412e+07 2.98042e+07 3.86046e+07 3.03549e+07 2.2588e+07 1.53264e+07 3.22231e+08 1.12538e+09 2.10522e+07
threshold=0.010050000000000002 31311.753000000004 7622.6050000000005 41150.000000000007 11794.175000000001 81317.195000000022 2.5965000000000003 8264.1750000000011 1679.3350000000003 73650.000000000015 1614.1800000000001 2.8335000000000004 1491354.7500000002 16.500000000000004 9999.5000000000018 0.026000000000000006 74141.081500000015 73117.333500000022 9.1000000000000014 0.020700000000000003 37.259000000000007 0.21940000000000001 198732.37000000002 303.38000000000005 208725.97800000003 163.64000000000001 0.96028000000000013 1602.3950000000002 189399.39100000003 29569.145000000004
decision_type=2 2 2 2 2 2 2 2 2 2 2 2 2 2 2 2 2 2 2 2 2 2 2 2 2 2 2 2 2 2
left_child=1 2 -1 4 5 7 -7 8 9 10 13 12 -10 15 16 -2 17 19 -19 -15 -18 -22 -23 -24 25 -25 29 28 -28 -21
right_child=3 -3 -4 -5 -6 6 -8 -9 11 -11 -12 -13 -14 14 -16 -17 20 18 -20 26 21 22 23 24 -26 -27 27 -29 -30 -31
leaf_value=-137.36562499999999 -115.98574272155761 1166.4508257802327 -985.37127387306907 135.59222181165541 -128.00587929945726 543.08858520507818 -195.21058656015705 117.61503946940104 -14.524673883696336 334.09634193752123 247.12503414154054 -159.6949169921875 -109.28287495930991 157.69684812105621 -103.45355852127075 -19.763121318358642 -1.4993996971601085 -53.27917694463963 1536.2749166584017 -2.2811260023518907 -227.59291311264039 -2.8255432660551545 -172.9338580903553 -20.493523370651971 -19.512987298930522 -153.16230709191527 -21.615538386294716 -0.78137771934969702 850.23630453109752 -17.199982926675951
leaf_weight=22 20 30 22 37 26 20 31 30 319 23 32 20 30 26 20 416 2608 41 20 4174 20 466 21 21 273 33 57 7463 20 1223
leaf_count=22 20 30 22 37 26 20 31 30 319 23 32 20 30 26 20 416 2608 41 20 4174 20 466 21 21 273 33 57 7463 20 1223
internal_value=5.70673e-08 139.099 -561.368 -0.588526 -0.877226 -0.687558 94.3185 -0.966409 -1.1715 -0.542794 -0.996769 -30.0969 -22.6701 -1.46597 -0.865344 -24.177 -0.740737 0.923325 467.886 -1.27406 -7.0373 -24.3548 -19.3613 -41.504 -33.0635 -101.569 -1.59355 1.31846 204.839 -5.66185
internal_weight=17564 74 44 17490 17453 17427 51 17376 17346 16977 16954 369 349 16922 16486 436 16466 13024 61 12963 3442 834 814 348 327 54 12937 7540 77 5397
internal_count=17564 74 44 17490 17453 17427 51 17376 17346 16977 16954 369 349 16922 16486 436 16466 13024 61 12963 3442 834 814 348 327 54 12937 7540 77 5397
is_linear=0
shrinkage=0.1


Tree=28
num_leaves=31
num_cat=0
split_feature=41 22 18 6 23 20 9 25 15 27 41 36 44 22 29 29 14 41 7 43 20 8 25 14 29 9 8 5 6 22
split_gain=1.16465e+08 5.52184e+09 1.18543e+08 5.56978e+07 4.45946e+07 3.40755e+08 3.65356e+07 3.11848e+07 1.90258e+08 1.04509e+08 5.15218e+07 2.79611e+07 2.5949e+07 1.87221e+07 1.65251e+07 1.0824e+09 3.26178e+09 5.33188e+07 3.29289e+07 1.23476e+08 2.58017e+07 3.8501e+07 1.50617e+07 1.40092e+07 5.01819e+07 1.57544e+07 1.21899e+07 7.03906e+08 2.23494e+07 4.7021e+07
threshold=0.010050000000000002 508.22500000000008 2.8985000000000007 41150.000000000007 97950.000000000015 81317.195000000022 468579.7900000001 1679.3350000000003 73650.000000000015 1614.1800000000001 99950.000000000015 2.8075000000000006 1491354.7500000002 16.500000000000004 74141.081500000015 73117.333500000022 193907.12400000004 0.020700000000000003 37.259000000000007 0.20415000000000003 1253.7150000000004 42.138000000000012 202.02500000000001 198732.37000000002 129852.20100000002 1075023.9600000002 242.01450000000003 244.49100000000001 39.358500000000006 303.38000000000005
decision_type=2 2 2 2 2 2 2 2 2 2 2 2 2 2 2 2 2 2 2 2 2 2 2 2 2 2 2 2 2 2
left_child=1 2 -1 4 5 7 -6 8 9 10 13 12 -9 23 15 17 22 -15 -16 -20 21 -21 -17 25 -25 -2 28 -28 -19 -30
right_child=3 -3 -4 -5 6 -7 -8 11 -10 -11 -12 -13 -14 14 18 16 -18 26 19 20 -22 -23 -24 24 -26 -27 27 -29 29 -31
leaf_value=-620.12697928292414 -6.6175482487222954 1453.2451582475142 -312.41118636592745 122.03299131651184 -30.509457188117796 384.16567143149996 -192.7100351878575 -13.807160292625429 280.99502003987635 167.12016799514359 155.40916283017114 -133.77331132888796 -108.18662180900574 141.92716792179988 -1.373146624653377 -151.73271408081055 1468.0803048706057 -2.03980903572312 -247.66009858449303 -25.701124033434638 -11.613210649725872 -174.15485519409182 -30.4764585404169 -177.42276889038087 -10.348889768123627 -89.100949951171884 455.08284601534115 -0.91786357954562348 -98.492431463711512 -12.804785548717488
leaf_weight=21 314 22 31 37 41 23 21 325 24 37 21 24 32 26 2607 20 20 4169 24 58 739 25 21 25 64 25 34 7774 69 891
leaf_count=21 314 22 31 37 41 23 21 325 24 37 21 24 32 26 2607 20 20 4169 24 58 739 25 21 25 64 25 34 7774 69 891
internal_value=-6.90934e-08 125.189 -436.681 -0.529673 -0.789503 -0.487689 -85.4484 -0.997076 -0.362475 -0.760552 -1.12754 -29.291 -22.2669 -1.32199 -0.785637 0.845009 421.097 -1.13257 -6.93609 -24.0787 -17.5507 -70.4161 -89.6259 -21.9704 -57.2798 -12.7004 -1.42009 1.0678 -5.20745 -18.9636
internal_weight=17564 74 52 17490 17453 17391 62 17368 16987 16963 16926 381 357 16905 16477 13024 61 12963 3453 846 822 83 41 428 89 339 12937 7808 5129 960
internal_count=17564 74 52 17490 17453 17391 62 17368 16987 16963 16926 381 357 16905 16477 13024 61 12963 3453 846 822 83 41 428 89 339 12937 7808 5129 960
is_linear=0
shrinkage=0.1


Tree=29
num_leaves=31
num_cat=0
split_feature=14 14 22 41 42 4 6 29 43 21 30 20 9 14 14 19 14 14 24 41 28 6 0 24 24 41 24 6 27 15
split_gain=1.02546e+08 5.26713e+09 1.0786e+10 1.3971e+09 5.59245e+08 5.40731e+08 4.82235e+08 8.8001e+07 4.44155e+07 4.39831e+07 6.93178e+08 1.5282e+08 6.32191e+07 3.82676e+07 6.29668e+08 3.36384e+09 4.59864e+07 1.27275e+08 1.00131e+09 3.96244e+07 3.77002e+07 4.05376e+07 3.55855e+07 2.74858e+07 2.75569e+07 2.63829e+07 2.13292e+08 2.56726e+07 1.67717e+07 1.71726e+08
threshold=251602.48000000001 259190.51150000002 736.75500000000011 0.010050000000000002 0.020150000000000005 6769.5000000000009 41150.000000000007 160775.36900000004 11794.175000000001 99999.99500000001 17.432000000000006 81317.195000000022 67046.330000000016 208725.97800000003 206166.62100000001 1.0000000180025095e-35 201209.50250000003 198732.37000000002 17950.121500000005 8264.1750000000011 345.84500000000008 611.71000000000015 0.53724500000000008 15566.844500000001 25114.333000000002 0.020700000000000003 720.64850000000013 267.70950000000011 2463.9800000000005 73650.000000000015
decision_type=2 2 2 2 2 2 2 2 2 2 2 2 2 2 2 2 2 2 2 2 2 2 2 2 2 2 2 2 2 2
left_child=3 2 -2 5 -3 -1 8 -7 9 11 -11 13 -12 14 16 22 17 19 -19 25 21 -15 -16 -18 -25 26 -5 -6 29 -27
right_child=1 4 -4 6 27 7 -8 -9 -10 10 12 -13 -14 20 15 -17 23 18 -20 -21 -22 -23 -24 24 -26 28 -28 -29 -30 -31
leaf_value=-859.25409379438918 -32.860315744611952 -486.81369314988456 2592.2266951243087 -161.50142180124919 -0.5126061194196524 -125.15472221374512 -371.69804129464291 -395.95755373636882 -133.25916080474855 597.46613906860352 -4.0601508560180664 -222.13691740958922 -193.57471771240236 -14.291043570091089 -247.91421148126776 1393.2706607055666 -160.28826710094108 729.5899996948242 -117.95242388352104 116.45466645339441 -158.46600120544434 -149.46348916758663 -73.53120115661622 -13.814038085937501 -136.19276740032694 -0.88824547119280961 227.86280503553505 -114.31713233947754 -30.345530513399524 272.58719562032951
leaf_weight=22 45 24 24 24 2229 24 35 24 25 20 75 31 23 627 22 20 22 20 46 29 20 23 25 92 23 13703 34 20 190 23
leaf_count=22 45 24 24 24 2229 24 35 24 25 20 75 31 23 627 22 20 22 20 46 29 20 23 25 92 23 13703 34 20 190 23
internal_value=2.90077e-08 19.48 880.213 -2.99713 -6.64869 -448.718 -0.93796 -260.556 -0.0795488 0.141064 60.9542 -0.338163 -48.5381 0.12197 1.21839 307.06 -0.224058 0.337387 138.879 -0.315596 -23.235 -19.0741 -155.157 -57.8808 -38.2898 -0.557927 66.7466 -1.52465 -0.838443 -0.429996
internal_weight=17564 2342 69 15222 2273 70 15152 48 15117 15092 118 14974 98 14943 14273 67 14206 14069 66 14003 670 650 47 137 115 13974 58 2249 13916 13726
internal_count=17564 2342 69 15222 2273 70 15152 48 15117 15092 118 14974 98 14943 14273 67 14206 14069 66 14003 670 650 47 137 115 13974 58 2249 13916 13726
is_linear=0
shrinkage=0.1


Tree=30
num_leaves=31
num_cat=0
split_feature=41 19 29 6 22 40 21 13 10 41 39 15 38 29 18 14 14 29 34 40 14 14 35 26 6 27 41 23 20 17
split_gain=1.75297e+08 4.86607e+09 8.50308e+08 7.15806e+07 4.45953e+07 5.80312e+08 3.3894e+07 4.92201e+07 1.42577e+08 6.97044e+07 2.89914e+07 2.79205e+07 4.03548e+08 6.65239e+07 2.68311e+07 2.58789e+07 6.08922e+08 3.0641e+09 8.43075e+07 9.57252e+07 3.91026e+07 1.09517e+08 1.09772e+09 3.44814e+07 3.07809e+07 3.04906e+07 8.33347e+08 5.39759e+07 2.8606e+07 2.75303e+08
threshold=0.010050000000000002 544.95000000000016 8223.6825000000008 41150.000000000007 73233.215000000011 0.60005000000000008 7014.0000000000009 88835.000000000015 56507.81500000001 36111.000000000007 1141690.5500000003 73650.000000000015 2.7895000000000008 126.18850000000002 10575.000000000002 208725.97800000003 206166.62100000001 73117.333500000022 2.0100000000000002 0.19215000000000002 201209.50250000003 198732.37000000002 2.4685000000000001 337.55500000000001 611.71000000000015 1614.1800000000001 0.61840000000000017 593.75500000000011 212.08500000000004 3.1805000000000008
decision_type=2 2 2 2 2 2 2 2 2 2 2 2 2 2 2 2 2 2 2 2 2 2 2 2 2 2 2 2 2 2
left_child=1 2 -1 4 6 -6 7 9 -9 11 -7 15 13 -13 -8 16 20 -18 19 -17 21 25 -23 24 -21 28 27 -27 29 -2
right_child=3 -3 -4 -5 5 10 14 8 -10 -11 -12 12 -14 -15 -16 18 17 -19 -20 23 -22 22 -24 -25 -26 26 -28 -29 -30 -31
leaf_value=-7.6153930664062504 -13.651534782967918 1223.479869249132 -860.03941567993172 138.29324852195947 510.09157380603614 -53.94033517837525 -16.641753572056086 299.31916728973391 -78.274431076049808 -152.83108723958333 -224.20909554481506 3.4266784667968753 448.53417861938482 -218.16079573631288 -93.003433429951571 -251.07840895879838 -199.39835463733209 1263.5147642655807 -0.080434916519450644 -24.316035037584474 -54.11332833856568 -152.76538758388787 743.97414382934573 -149.04926275634767 -135.57612879826473 -10.200576856538847 619.2890168970282 -165.97244655902568 -1.3377811705531515 378.1124434698196
leaf_weight=22 123 27 25 37 21 20 755 20 20 30 20 42 20 20 49 21 41 22 2284 570 133 43 20 25 26 154 22 26 12905 21
leaf_count=22 123 27 25 37 21 20 755 20 20 30 20 42 20 20 49 21 41 22 2284 570 133 43 20 25 26 154 22 26 12905 21
internal_value=-1.37844e-07 153.587 -461.032 -0.649825 -0.944381 84.4088 -1.24375 -0.271855 110.522 -0.539668 -139.075 -0.263076 57.9438 -68.0532 -21.2956 -0.553473 1.29318 311.46 -9.07987 -41.0966 -0.159973 0.378993 131.914 -33.9957 -29.1697 -0.246371 38.3079 -32.701 -0.843194 43.4807
internal_weight=17564 74 47 17490 17453 61 17392 16588 40 16548 40 16518 82 62 804 16436 13510 63 2926 642 13447 13314 63 621 596 13251 202 180 13049 144
internal_count=17564 74 47 17490 17453 61 17392 16588 40 16548 40 16518 82 62 804 16436 13510 63 2926 642 13447 13314 63 621 596 13251 202 180 13049 144
is_linear=0
shrinkage=0.1


Tree=31
num_leaves=31
num_cat=0
split_feature=41 4 14 6 22 34 40 25 15 27 41 36 41 29 29 22 7 23 43 41 14 14 12 8 14 24 9 13 21 42
split_gain=1.4199e+08 4.8458e+09 2.35711e+08 5.79803e+07 3.61222e+07 5.89249e+08 4.23155e+07 3.01864e+07 1.4105e+08 9.98277e+07 5.00298e+07 3.63737e+07 4.20817e+07 2.39229e+07 8.28368e+08 2.95343e+09 4.85429e+07 9.38452e+07 5.68083e+07 4.25428e+07 3.74884e+07 6.65762e+07 2.82377e+07 2.72489e+07 1.97067e+07 1.93968e+07 1.55316e+07 1.42665e+07 1.39718e+07 1.34924e+07
threshold=0.010050000000000002 155.50000000000003 756.15100000000018 41150.000000000007 73233.215000000011 8942.720000000003 0.61025000000000007 1679.3350000000003 73650.000000000015 1614.1800000000001 99950.000000000015 2.8075000000000006 799.8999500000001 74141.081500000015 73117.333500000022 596.91500000000008 37.259000000000007 1256.7500000000002 0.20415000000000003 0.020700000000000003 198732.37000000002 208725.97800000003 48570.865000000013 42.138000000000012 251602.48000000001 17727.507000000005 1652483.6500000001 88835.000000000015 49049.495000000003 0.5234000000000002
decision_type=2 2 2 2 2 2 2 2 2 2 2 2 2 2 2 2 2 2 2 2 2 2 2 2 2 2 2 2 2 2
left_child=1 -1 -3 4 7 6 -6 8 9 10 13 12 28 14 19 -16 -15 18 -18 -2 -19 22 -22 -20 -23 -17 27 29 -9 -21
right_child=3 2 -4 -5 5 -7 -8 11 -10 -11 -12 -13 -14 16 15 25 17 20 23 26 21 24 -24 -25 -26 -27 -28 -29 -30 -31
leaf_value=1423.7968110584079 126.62528170072115 -200.30915908813478 -631.47381373814187 124.46396088471283 -240.24922398158483 520.96932922363283 -37.005521430969239 -3.2053823498123926 241.75143305460611 163.23203718855575 149.49848105690697 -148.39807726542156 -138.64664797101702 -1.9382959475845807 1366.2545809555054 -39.030376677079637 -253.97714299740997 -0.12669605365093375 -39.698840807305011 -5.0288160882775692 -85.203874674151024 -5.1566338213752303 -233.33992248448459 -156.10326100667319 -73.101791957386752 -173.39289136614119 -80.162389289855966 -55.126401947955699 -68.562889784735603 1.516333187407354
leaf_weight=21 26 32 21 37 21 20 20 282 24 37 22 24 28 2696 20 22 23 503 61 5204 31 170 22 30 57 21 25 49 37 7978
leaf_count=21 26 32 21 37 21 20 20 282 24 37 22 24 28 2696 20 22 23 503 61 5204 31 170 22 30 57 21 25 49 37 7978
internal_value=2.98988e-08 138.228 -371.148 -0.584842 -0.849943 75.9679 -141.106 -1.11937 -0.5043 -0.846369 -1.20432 -29.338 -21.1033 -1.40006 0.549983 362.304 -8.64286 -28.7939 -113.563 -1.16591 -16.4521 -45.7794 -146.694 -78.0739 -22.2178 -104.649 -1.41656 -1.26777 -10.786 -1.06757
internal_weight=17564 74 53 17490 17453 61 41 17392 17021 16997 16960 371 347 16938 13345 63 3593 897 114 13282 783 280 53 91 227 43 13256 13231 319 13182
internal_count=17564 74 53 17490 17453 61 41 17392 17021 16997 16960 371 347 16938 13345 63 3593 897 114 13282 783 280 53 91 227 43 13256 13231 319 13182
is_linear=0
shrinkage=0.1


Tree=32
num_leaves=31
num_cat=0
split_feature=41 24 4 6 43 21 14 20 32 41 14 14 17 42 34 0 40 27 14 14 9 6 24 24 27 15 27 44 16 20
split_gain=1.15012e+08 4.84353e+09 7.72993e+08 4.6964e+07 3.64202e+07 3.54905e+07 6.38917e+08 1.33144e+08 4.89364e+07 2.57491e+07 1.98594e+07 4.18521e+08 3.26584e+09 1.39318e+08 5.80147e+07 4.09062e+07 3.29024e+07 3.22825e+07 2.79016e+07 8.59119e+07 9.01399e+08 2.76426e+07 2.16755e+07 2.12057e+07 1.99901e+07 5.731e+07 3.39992e+07 6.46455e+08 5.15822e+07 2.14392e+07
threshold=0.010050000000000002 31311.753000000004 6769.5000000000009 41150.000000000007 11794.175000000001 99999.99500000001 3032.6250000000005 81317.195000000022 17.868500000000001 8264.1750000000011 208725.97800000003 206166.62100000001 2.7375000000000003 0.020150000000000005 2.0100000000000002 0.53724500000000008 0.19295000000000004 327.95500000000004 201209.50250000003 198732.37000000002 9586.510000000002 611.71000000000015 15566.844500000001 25114.333000000002 10527.595000000003 73650.000000000015 1614.1800000000001 1193920.8500000003 1764.2750000000003 212.08500000000004
decision_type=2 2 2 2 2 2 2 2 2 2 2 2 2 2 2 2 2 2 2 2 2 2 2 2 2 2 2 2 2 2
left_child=1 2 -1 4 5 7 -7 9 -8 10 11 18 -13 -12 16 -14 -15 21 19 24 -21 -18 -20 -24 25 26 29 28 -28 -2
right_child=3 -3 -4 -5 -6 6 8 -9 -10 -11 13 12 15 14 -16 -17 17 -19 22 20 -22 -23 23 -25 -26 -27 27 -29 -30 -31
leaf_value=-944.13450237771747 36.938043368592552 1104.1909687042237 -104.98251488095239 112.01755701013514 -119.03124677217926 569.56807754516603 -161.76170703342984 -208.02145708145636 -5.9606041035718391 91.971443277994808 -258.8688772028143 1320.4184043884279 -313.68313842773438 -158.96212530136108 1.0822192059713867 -124.99423323030827 -19.842882605680487 -153.70171329498294 -136.22594673850321 674.35490837097177 -129.79420668145886 -119.87737452408362 -6.4163219659224797 -113.77013758783755 -38.484489883645608 122.54098969509728 -168.1926419691606 527.65601148605344 -4.8199774568185871 -1.4597996135945746
leaf_weight=23 147 30 21 37 26 20 28 31 72 30 22 20 20 20 2329 27 582 20 22 20 46 29 92 23 137 38 22 24 159 13447
leaf_count=23 147 30 21 37 26 20 28 31 72 30 22 20 20 20 2329 27 582 20 22 20 46 29 92 23 137 38 22 24 159 13447
internal_value=1.40506e-07 124.405 -543.63 -0.526358 -0.764949 -0.588503 53.6073 -0.964275 -49.5849 -0.592732 -0.753751 0.804108 250.147 -8.14554 -6.29456 -205.287 -32.6855 -28.6831 -0.374278 0.063949 113.887 -24.5908 -45.2846 -27.8871 -0.473645 -0.0973004 -0.435025 39.986 -24.6774 -1.04458
internal_weight=17564 74 44 17490 17453 17427 120 17307 100 17276 17246 14244 67 3002 2980 47 651 631 14177 14040 66 611 137 115 13974 13837 13799 205 181 13594
internal_count=17564 74 44 17490 17453 17427 120 17307 100 17276 17246 14244 67 3002 2980 47 651 631 14177 14040 66 611 137 115 13974 13837 13799 205 181 13594
is_linear=0
shrinkage=0.1


Tree=33
num_leaves=31
num_cat=0
split_feature=14 42 41 29 29 6 22 6 14 24 22 20 13 41 41 26 24 41 30 14 22 22 10 17 9 5 41 14 14 21
split_gain=9.5113e+07 5.43265e+09 1.37971e+09 1.09176e+09 4.97527e+08 4.8329e+08 3.20197e+08 6.1415e+07 6.06781e+07 3.8417e+07 6.05559e+08 1.09652e+08 9.31521e+07 8.19413e+07 7.71811e+07 3.6412e+08 5.18674e+07 4.30425e+07 2.72971e+07 2.44565e+07 2.42284e+07 5.69396e+08 3.9206e+09 4.1646e+08 1.31598e+08 5.35959e+07 5.25095e+07 4.45492e+07 2.15963e+08 8.89395e+08
threshold=251602.48000000001 0.01485 0.010050000000000002 1511.0140000000004 9126.4260000000013 41150.000000000007 321.00500000000005 39.358500000000006 259190.51150000002 154.38300000000004 36593.410000000011 81317.195000000022 88835.000000000015 8264.1750000000011 0.020700000000000003 64.970000000000013 1.0010000000000001 0.020700000000000003 6.3255000000000008 198732.37000000002 303.38000000000005 301.50000000000006 34338.540000000008 8867.5000000000018 2005050.7600000002 29.828500000000002 13.193350000000001 201209.50250000003 198732.37000000002 1639.9500000000003
decision_type=2 2 2 2 2 2 2 2 2 2 2 2 2 2 2 2 2 2 2 2 2 2 2 2 2 2 2 2 2 2
left_child=2 -2 4 -3 -1 9 -6 -5 -9 11 12 17 13 14 15 -11 -13 -4 -16 -19 21 23 26 -20 27 -26 -23 28 -22 -30
right_child=1 3 5 7 6 -7 -8 8 -10 10 -12 16 -14 -15 18 -17 -18 19 20 -21 24 22 -24 -25 25 -27 -28 -29 29 -31
leaf_value=-119.30845554896764 1619.9417968750001 689.82137567271366 -153.85995657784599 0.95343061812103214 -400.24082901694561 -372.00571079799107 -953.09005996704116 -206.82775234646272 -32.307473915501646 441.00562500000001 551.10080810546879 -70.603229313804988 201.54744275963824 -128.95713581941567 -90.653319491762105 -162.4181067657471 -295.61985275268552 -5.6657482549287437 -5.9356937220970227 -112.65059557828036 -0.063141210048846833 -167.95396649977741 1494.7604610443116 452.71607921600344 -19.077363777160645 -221.32015348986576 -2.4911724610762165 -26.173575346810477 726.09124103486545 -129.24454385080648
leaf_weight=28 21 23 21 2195 22 35 20 27 76 20 20 21 23 49 33 20 20 743 1954 22 11300 34 20 20 20 38 44 644 20 31
leaf_count=28 21 23 21 2195 22 35 20 27 76 20 20 21 23 49 33 20 20 743 1954 22 11300 34 20 20 20 38 44 644 20 31
internal_value=-1.04995e-07 18.7608 -2.88646 4.27357 -445.825 -0.840153 -663.502 -2.58788 -78.0555 0.0191971 1.23193 -20.936 0.461267 0.136638 0.582165 139.294 -180.367 -12.6196 0.190269 -8.74244 0.402506 10.3915 245.665 -1.28877 -1.31467 -151.581 -74.616 -0.588081 0.863514 206.181
internal_weight=17564 2342 15222 2321 70 15152 42 2298 103 15117 14290 827 14270 14247 14198 40 41 786 14158 765 14125 2072 98 1974 12053 58 78 11995 11351 51
internal_count=17564 2342 15222 2321 70 15152 42 2298 103 15117 14290 827 14270 14247 14198 40 41 786 14158 765 14125 2072 98 1974 12053 58 78 11995 11351 51
is_linear=0
shrinkage=0.1


Tree=34
num_leaves=31
num_cat=0
split_feature=41 22 12 6 20 21 42 14 20 5 41 20 13 25 15 27 44 36 41 41 18 17 29 15 29 29 9 14 14 24
split_gain=1.57066e+08 5.18918e+09 1.29593e+08 6.74189e+07 3.7781e+07 5.58988e+08 3.45892e+07 3.57187e+08 1.93663e+08 3.83273e+07 3.45659e+07 2.84238e+07 2.15218e+07 1.91612e+07 1.28254e+08 1.14103e+08 2.60164e+07 3.21778e+07 1.99324e+07 1.60169e+07 1.29373e+07 1.87769e+09 2.85084e+09 2.95266e+07 2.77152e+07 2.40456e+08 1.11616e+09 6.44966e+07 9.10755e+07 8.82769e+07
threshold=0.010050000000000002 508.22500000000008 11275.580000000002 41150.000000000007 81317.195000000022 99999.99500000001 0.01485 179388.04550000004 320.02500000000003 18.944000000000006 99950.000000000015 41142.305000000008 88835.000000000015 1679.3350000000003 73650.000000000015 1614.1800000000001 1140614.8500000003 2.8075000000000006 0.26005000000000006 0.63705000000000012 2.6975000000000002 2.6795000000000004 17238.278000000002 2.7765000000000004 52907.194500000005 51999.455000000009 5956.1750000000002 198732.37000000002 208725.97800000003 25783.677500000002
decision_type=2 2 2 2 2 2 2 2 2 2 2 2 2 2 2 2 2 2 2 2 2 2 2 2 2 2 2 2 2 2
left_child=1 2 -1 4 6 -6 7 8 -2 -10 11 12 13 14 15 20 17 19 -18 -15 21 23 -23 -8 25 -22 -27 -26 29 -29
right_child=3 -3 -4 -5 5 -7 10 -9 9 -11 -12 -13 -14 16 -16 -17 18 -19 -20 -21 24 22 -24 -25 27 26 -28 28 -30 -31
