tree
version=v4
num_class=1
num_tree_per_iteration=1
label_index=0
max_feature_idx=120
objective=regression
feature_names=return_ADAUSDT return_BNBUSDT return_BTCUSDT return_EOSUSDT return_ETHUSDT return_LTCUSDT return_NEOUSDT return_QTUMUSDT return_XRPUSDT market_return_mean market_return_std volatility_ADAUSDT volatility_BNBUSDT volatility_BTCUSDT volatility_EOSUSDT volatility_ETHUSDT volatility_LTCUSDT volatility_NEOUSDT volatility_QTUMUSDT volatility_XRPUSDT market_volatility_mean market_volatility_std momentum_ADAUSDT momentum_BNBUSDT momentum_BTCUSDT momentum_EOSUSDT momentum_ETHUSDT momentum_LTCUSDT momentum_NEOUSDT momentum_QTUMUSDT momentum_XRPUSDT market_momentum_mean market_momentum_std price_to_sma_ADAUSDT price_to_sma_BNBUSDT price_to_sma_BTCUSDT price_to_sma_EOSUSDT price_to_sma_ETHUSDT price_to_sma_LTCUSDT price_to_sma_NEOUSDT price_to_sma_QTUMUSDT price_to_sma_XRPUSDT market_price_to_sma_mean market_price_to_sma_std price_std_ADAUSDT price_std_BNBUSDT price_std_BTCUSDT price_std_EOSUSDT price_std_ETHUSDT price_std_LTCUSDT price_std_NEOUSDT price_std_QTUMUSDT price_std_XRPUSDT market_price_std_mean market_price_std_std rsi_ADAUSDT rsi_BNBUSDT rsi_BTCUSDT rsi_EOSUSDT rsi_ETHUSDT rsi_LTCUSDT rsi_NEOUSDT rsi_QTUMUSDT rsi_XRPUSDT market_rsi_mean market_rsi_std macd_ADAUSDT macd_BNBUSDT macd_BTCUSDT macd_EOSUSDT macd_ETHUSDT macd_LTCUSDT macd_NEOUSDT macd_QTUMUSDT macd_XRPUSDT market_macd_mean market_macd_std macd_signal_ADAUSDT macd_signal_BNBUSDT macd_signal_BTCUSDT macd_signal_EOSUSDT macd_signal_ETHUSDT macd_signal_LTCUSDT macd_signal_NEOUSDT macd_signal_QTUMUSDT macd_signal_XRPUSDT market_macd_signal_mean market_macd_signal_std bb_position_ADAUSDT bb_position_BNBUSDT bb_position_BTCUSDT bb_position_EOSUSDT bb_position_ETHUSDT bb_position_LTCUSDT bb_position_NEOUSDT bb_position_QTUMUSDT bb_position_XRPUSDT market_bb_position_mean market_bb_position_std skewness_ADAUSDT skewness_BNBUSDT skewness_BTCUSDT skewness_EOSUSDT skewness_ETHUSDT skewness_LTCUSDT skewness_NEOUSDT skewness_QTUMUSDT skewness_XRPUSDT market_skewness_mean market_skewness_std kurtosis_ADAUSDT kurtosis_BNBUSDT kurtosis_BTCUSDT kurtosis_EOSUSDT kurtosis_ETHUSDT kurtosis_LTCUSDT kurtosis_NEOUSDT kurtosis_QTUMUSDT kurtosis_XRPUSDT market_kurtosis_mean market_kurtosis_std
feature_infos=[-17.169539135406069:11.965631325750687] [-18.403200612221767:13.414391006302235] [-22.614976569975411:21.571879592354524] [-21.234936926316962:12.96304646263323] [-20.361004378316732:14.616357990042308] [-22.23666279718579:21.360352404263111] [-21.686507982488529:17.190375141520398] [-18.80390054473358:19.425589070131679] [-15.540686242007313:21.386701781997434] [-20.041026713561628:11.265981871785103] [-1.1403167512804144:20.014845374614879] [-1.3881187180085821:11.957504966266736] [-1.1712156638363846:12.363074212447346] [-1.3135048167179602:16.793826708478335] [-1.2447378013439463:11.217174838215113] [-1.3885799802439081:14.323234667567636] [-1.3823131686398133:12.463780051394625] [-1.3711679276322835:12.782174870786017] [-1.2865508791217264:12.280102826234717] [-1.08310766280111:10.077686600918478] [-1.4368739346309547:13.4092691471857] [-1.1421470256481532:10.226733449755972] [-10.027703145140984:6.6405624268091872] [-9.822543747811844:11.614812169028239] [-13.633742070888347:8.9875538524242256] [-11.227403239200179:10.66467108002321] [-10.889056376855871:7.5025514057592266] [-10.998418907432688:8.1667991079123503] [-11.242664220580735:11.119729636986513] [-10.048984942154712:12.137136967690997] [-14.313036706985839:10.233324476350774] [-11.458588179057662:7.5264631828586444] [-1.1809115122998783:14.881257627950445] [-11.952765855823776:7.625338040614289] [-14.505404771997101:13.258764161023617] [-17.406782752661705:7.0681080027231804] [-13.71764318240124:13.118435364345341] [-12.785700397245433:5.9787309353925] [-14.441121143921885:9.6154236218832487] [-14.420634037890435:13.556115084126402] [-12.826778371152143:14.705611749076278] [-12.432615146439256:12.113148038971229] [-13.929994806287027:5.690485230262067] [-1.1546788024703336:16.465259143233975] [-0.70582246553580275:10.758372395728578] [-0.77461073378468448:10.576042325699669] [-0.92407787066678726:8.5936028066746708] [-0.62781392580716688:22.413140196891945] [-0.89605765239013679:10.081466915503023] [-0.77323260524906112:15.201688504711587] [-0.60305163249950811:21.296738823974749] [-0.56678364566487982:23.697522318004896] [-0.7113285506379371:11.267759315250212] [-0.93573657162865653:8.4435961630881931] [-0.9235057418056698:8.6002753238240022] [-2.9565600072735432:2.9587677799915575] [-3.0968714173096505:2.781842323548676] [-3.0458399388814956:2.9254244943426548] [-3.102606225979144:3.0185758580293869] [-2.9532124866248761:2.8799118903284553] [-3.1644921436278386:3.0211319155476861] [-3.1355119916464531:3.026198746012704] [-2.9651522824428667:3.0466660304421458] [-3.1294670445887087:3.1245925359421727] [-3.2304764049198713:2.8476552773865347] [-2.129939173418455:5.4960876935118401] [-10.571061181639806:7.4189053434602794] [-10.749798705584933:8.7961880892759368] [-7.9714549075528582:6.3568343839134132] [-11.90931301146321:16.442824985785339] [-9.2113363704937399:5.6792394734082681] [-12.842176304118542:7.7543019932520156] [-12.161824706031195:16.207979644862075] [-8.9534824781005451:22.155412040102135] [-11.063626375690857:10.087681519487965] [-8.0062781404865699:6.0313261780832086] [-0.77618637514730171:9.2883929407165091] [-8.9141138107054854:7.1807814048838008] [-9.8327701310926958:8.7704318989535892] [-7.4544470270376522:6.2439754063243464] [-11.776820651762147:15.39902121359769] [-8.4452606035503006:5.327635801690108] [-12.818947404621731:7.0523295882794184] [-12.048051020509897:14.862688881826616] [-8.9236554093208174:21.511997451294295] [-10.395014470025911:9.5062426935471329] [-7.496790917437484:5.9304923040882844] [-0.78717329716453366:8.6717557594897663] [-3.0856390105088627:3.108346206676869] [-3.1407926853207329:3.0371492773545499] [-3.1708384112738477:3.1461604834363857] [-3.2169851420709685:3.2183586106604203] [-3.22193558464217:3.0628761602559176] [-3.1964802618395303:3.2034859768450787] [-3.03078743411485:3.0213121368614266] [-3.1486115767934906:3.0002780028521556] [-3.1685807753347337:3.163146574018687] [-3.5154212070541768:3.1062219282699388] [-1.7631515548267385:5.7009137135747538] [-4.0038869966804631:3.8676528671347308] [-3.9087957788072112:3.8447136680968113] [-3.4902936135343641:3.423105247956677] [-3.5322916882453663:3.6844714446516988] [-3.6860844811605067:3.6403254296304994] [-3.6378294344722133:3.7630202168373441] [-3.8508263223294987:3.6598816801585907] [-3.5998250871665931:3.9623295960956364] [-3.7172333824218011:3.7340330578187411] [-4.5453260165958236:3.9822772730600295] [-2.1260590506575783:4.5415704053361159] [-1.384807240716871:6.1277685357927831] [-1.3827453283657947:5.9887881922867727] [-1.3442866730473049:5.0443708967153729] [-1.3389284573762952:5.3980986502885058] [-1.3971516286296692:5.5084098360018379] [-1.4418600662721872:5.75177627271741] [-1.4278060711286555:5.9682073397083411] [-1.4566449667657346:6.092543896391871] [-1.3417124129750735:5.5640015800106726] [-1.6157934940923899:7.3047738147349435] [-1.6603325746299176:4.6767074797710748]
tree_sizes=3311 3302 3264

Tree=0
num_leaves=31
num_cat=0
split_feature=3 43 85 29 29 44 100 0 94 36 16 114 7 109 23 37 59 46 3 18 95 51 8 117 72 114 91 93 96 106
split_gain=0.00954602 0.0185516 0.0193802 0.00576209 0.00818905 0.0120523 0.00878056 0.00810269 0.00905086 0.00691198 0.00483648 0.00410376 0.0037154 0.00464439 0.00429018 0.00353443 0.0145904 0.00855052 0.0033807 0.00447278 0.00332887 0.00296214 0.00689788 0.00357689 0.00297694 0.0138184 0.00507319 0.00466064 0.00404888 0.00322843
threshold=-4.0532725621644774 3.2475619857933018 -1.9952352298924332 -3.8044672945092768 -2.9816394390971177 4.5322189205143006 -1.4588805171733108 4.063976117046761 -1.3241793039631682 -3.3317173867209022 3.2497528535635536 -0.75017955098856171 -3.7137423850931763 -0.32514177194336397 -1.760675528742655 -3.2010482626869581 -0.99617318250858433 -0.22085072430480501 0.16294845248415932 1.3106308220031946 -1.4944925250581342 6.2593748957986426 -0.58855844512977329 0.12301332608075273 -3.0119633559452024 -1.0907413470378071 -1.348280426897458 -1.1277530618969507 -0.93256250707630028 0.94396745804360427
decision_type=2 2 2 2 2 2 2 2 2 2 2 2 2 2 2 2 2 2 2 2 2 2 2 2 2 2 2 2 2 2
left_child=1 2 -1 7 5 6 -5 8 -2 -8 -10 -11 13 -4 -14 16 17 -6 19 -19 -20 24 -23 -24 25 -17 -27 -28 -29 -30
right_child=3 -3 12 4 15 -7 9 -9 10 11 -12 -13 14 -15 -16 21 -18 18 20 -21 -22 22 23 -25 -26 26 27 28 29 -31
leaf_value=-0.0033558909235858114 0.0020755895341998784 0.0038225345120848197 0.0011354270399084303 -0.0032906200322714947 -0.0028716388984899423 -0.0041913180021439581 0.001959947521274668 0.0032753067072818442 0.00045983896946347094 -0.0020140997312609187 -0.0015766352739541366 -9.7354966260305143e-05 0.0033443697563797625 -0.0013702962164531148 0.00092900176067242115 0.004043924988977184 -0.0040046609873777483 7.2701571351730326e-05 -0.0020373470813453616 0.0021321771840373347 0.00041526811639320079 0.0012135442941328773 -0.00074469504491278397 -0.0029025600465538816 3.0816161191141013e-05 0.0020551163824891537 -0.0015490597207215963 0.0013316633820521556 -0.00015397241583338861 0.0015034145419493929
leaf_weight=11.999999999999998 23 19 19.000000000000004 9.9999999999999982 9.9999999999999982 9.9999999999999982 12.999999999999998 11.999999999999998 29 14.999999999999991 19 49.000000000000007 10.999999999999995 11.999999999999998 28.000000000000004 9.9999999999999982 10.999999999999998 39 11.000000000000002 14.999999999999998 9.9999999999999982 13.999999999999998 33 10.999999999999998 25617 13.999999999999998 15.999999999999998 28 120 12.999999999999998
leaf_count=12 23 19 19 10 10 10 13 12 29 15 19 49 11 12 28 10 11 39 11 15 10 14 33 11 25617 14 16 28 120 13
internal_value=3.29048e-05 0.00100317 0.000337331 2.91572e-05 2.64704e-05 -0.000890626 -0.000499301 0.000860895 0.000438343 -0.000123422 -0.000325604 -0.000562464 0.000985132 0.000133082 0.00163657 2.99344e-05 -0.000575694 -0.000119759 0.000234165 0.000663576 -0.000822213 3.22202e-05 -0.00068158 -0.00130743 3.37853e-05 0.000417148 0.000221829 7.10675e-05 0.000238373 1.56444e-05
internal_weight=0 101 82 26152 26069 97 87 83 71 77 48 64 70 31 39 25972 96 85 75 54 21 25876 58 44 25818 201 191 177 161 133
internal_count=26253 101 82 26152 26069 97 87 83 71 77 48 64 70 31 39 25972 96 85 75 54 21 25876 58 44 25818 201 191 177 161 133
is_linear=0
shrinkage=1


Tree=1
num_leaves=31
num_cat=0
split_feature=3 43 85 25 89 23 13 96 92 110 117 103 31 90 72 117 77 94 104 116 6 8 6 105 105 2 14 10 22 2
split_gain=0.00775051 0.0150111 0.0157179 0.00469235 0.0121787 0.00741478 0.0116729 0.00742796 0.0101045 0.00836014 0.00543674 0.00459262 0.00414379 0.00371881 0.00348227 0.00677009 0.00720508 0.00341015 0.00351416 0.00350037 0.00335162 0.00550244 0.00303016 0.00662466 0.00319781 0.00381367 0.0112451 0.00387691 0.00341799 0.00310154
threshold=-4.0532725621644774 3.2475619857933018 -1.9952352298924332 -4.1765907760344598 -1.2838364873698349 -2.6064583859770569 5.2797665355048471 -1.5076657354478127 -1.5501952542899577 -0.36045541132716002 -0.45010057136672371 -0.71212565938822558 -4.2497907535717729 -1.0233182458792121 -5.1324854373222246 -0.71566279846956171 -0.57045977469477027 -1.9439359932189493 -1.003180746991468 -0.25681514872638611 -1.1129077453336775 -0.66892403600211459 -2.2370856103969534 1.3989460692400328 0.93600245985614006 -1.2388392350607051 1.4352321982711349 1.707405426695692 -2.4184620217062807 -0.32345081254320274
decision_type=2 2 2 2 2 2 2 2 2 2 2 2 2 2 2 2 2 2 2 2 2 2 2 2 2 2 2 2 2 2
left_child=1 2 -1 4 10 6 7 -5 9 -9 -2 12 13 -6 -10 16 -16 18 -4 -19 -17 -22 23 24 25 27 -27 28 -7 -24
right_child=3 -3 17 5 11 22 -8 8 14 -11 -12 -13 -14 -15 15 20 -18 19 -20 -21 21 -23 29 -25 -26 26 -28 -29 -30 -31
leaf_value=-0.0030501983241704631 0.00066699730656359277 0.003410866017453862 0.00080765101981685274 0.00070369161209595573 -0.00098950113594515015 -0.0019545232912662569 -0.0035067947405310984 -0.00067777696949942448 0.0013510384642008272 -0.0049020548805140413 0.0036838727800985872 0.0013341043385875402 -0.0023187866085737623 0.0013075696540179101 -0.0041585469635186719 0.00081918745261998671 -0.00024750970171896606 0.0029348916077147316 -0.0014652603829687055 0.0007979724698267967 -0.0024284221973380421 -0.00015930100314761377 6.2129380318992893e-05 -0.0025124661294066222 0.0013862300659533743 -0.00040093062693433184 -0.0040150870761641493 0.00090091452880378662 -0.00013403718128734751 -1.7492253559074624e-05
leaf_weight=11.999999999999998 11.000000000000002 19 21.000000000000004 46 17 10.999999999999998 12.999999999999998 10.000000000000002 9.9999999999999982 9.9999999999999982 15.999999999999998 15.999999999999998 11.000000000000002 11.999999999999998 10.000000000000002 23 9.9999999999999982 11.999999999999998 9.9999999999999982 27 12.999999999999998 67 6599 12.999999999999998 11.999999999999998 69 9.9999999999999982 35 206 18902
leaf_count=12 11 19 21 46 17 11 13 10 10 10 16 16 11 12 10 23 10 12 10 27 13 67 6599 13 12 69 10 35 206 18902
internal_value=0 0.000874274 0.00027399 -3.37304e-06 0.000747188 -5.80137e-06 -0.000594785 -0.000399362 -0.000737559 -0.00284129 0.0024925 -7.67422e-05 -0.000666267 -4.39513e-06 -0.000413501 -0.000565187 -0.0022541 0.000858488 4.19701e-05 0.0014817 -0.000227347 -0.000540789 -9.3342e-07 -0.000290692 -0.000203498 -0.000264193 -0.000871526 -6.98039e-05 -0.000231014 3.07257e-06
internal_weight=0 101 82 26152 83 26069 212 199 153 20 27 56 40 29 133 123 20 70 31 39 103 80 25857 356 343 331 79 252 217 25501
internal_count=26253 101 82 26152 83 26069 212 199 153 20 27 56 40 29 133 123 20 70 31 39 103 80 25857 356 343 331 79 252 217 25501
is_linear=0
shrinkage=0.1


Tree=2
num_leaves=31
num_cat=0
split_feature=3 18 17 43 29 29 44 44 0 7 60 119 93 23 68 119 21 22 21 113 80 114 17 118 104 2 88 34 96 15
split_gain=0.00629446 0.012539 0.0193956 0.010682 0.0038853 0.00615244 0.00903463 0.00725928 0.00602398 0.00616545 0.00639394 0.00426058 0.00419314 0.00366709 0.00518101 0.00307586 0.00278637 0.00277414 0.00556605 0.00291209 0.00275909 0.00610286 0.00462907 0.00598388 0.00440159 0.00394218 0.00368311 0.00366911 0.0153136 0.0186585
threshold=-4.0532725621644774 2.5881653708744561 2.4848863303065412 3.2475619857933018 -3.8044672945092768 -2.9816394390971177 4.5322189205143006 -0.4810253003755926 4.063976117046761 -1.4827030588337458 -1.7082449909307036 0.2203303326929143 -1.644776094756401 -2.9663203376054486 -1.2557456316877811 -0.60634932969131372 0.14801339570835456 3.757201591254725 2.4526858773217168 -0.43838266243614399 -2.4130553414284805 -1.0743447054154507 3.9921615144288771 -0.33249526529255163 -0.95073075890551306 -0.71245372495801373 0.079158809660179671 -3.1457049702718289 -1.5367218729321883 1.5872380107251554
decision_type=2 2 2 2 2 2 2 2 2 2 2 2 2 2 2 2 2 2 2 2 2 2 2 2 2 2 2 2 2 2
left_child=1 2 13 -3 8 6 7 -6 9 11 -11 -2 -9 -1 -15 -14 -16 20 -19 -20 21 -7 27 -24 25 -23 -26 28 -22 -30
right_child=4 3 -4 -5 5 17 -8 12 -10 10 -12 -13 15 14 16 -17 -18 18 19 -21 22 24 23 -25 26 -27 -28 -29 29 -31
leaf_value=0.0024779511681613225 0.00033525625386286132 0.00056554526036933089 -0.0037434381109807849 0.0047189209537206941 -0.0029972272709227884 0.0021456659199879514 -0.0036598811625734675 0.0015021462819548317 0.0027621845570319241 0.00025844592584228239 -0.0025624901604425023 0.0027568393736951725 -0.0019092546444429679 -0.0014663305887055807 -0.00013758503269539784 -0.00010768639721190157 0.0015293402856954123 -9.928299735390552e-05 -0.0006452164296324455 -0.0029832404621370403 0.00044594735789846914 -0.0023736917092785849 0.00028063787263026777 -0.0017031311012571226 0.00071157360676857295 -0.00018056992265639855 -0.00011995546815948535 3.2503672747091256e-07 0 -0.0051246102586545474
leaf_weight=10.999999999999998 19 13.000000000000002 10.999999999999998 12.999999999999998 9.9999999999999982 17 9.9999999999999982 12.999999999999998 11.999999999999998 27.999999999999996 11.000000000000002 12.999999999999998 11.999999999999991 10.999999999999998 13.999999999999998 52.000000000000007 28 78 12.000000000000002 11.999999999999998 43 9.9999999999999982 25 36 140 53 83 25435 14.000000000000002 13.999999999999998
leaf_count=11 19 13 11 13 10 17 10 13 12 28 11 13 12 11 14 52 28 78 12 12 43 10 25 36 140 53 83 25435 14 14
internal_value=0 0.000787871 0.000117744 0.0026817 -3.05165e-06 -5.26473e-06 -0.000800182 -0.000459605 0.000679913 0.000313558 -0.000512021 0.00135082 -0.000116712 0.000797488 0.000429446 -0.000461349 0.000949994 -2.25707e-06 -0.000522722 -0.00185663 -1.66136e-07 0.000299776 -3.76004e-06 -0.000873808 0.000186487 -0.000544876 0.000397605 -1.63969e-06 -0.000719466 -0.00254443
internal_weight=0 101 75 26 26152 26069 97 87 83 71 39 32 77 64 53 64 42 25972 102 24 25870 303 25567 61 286 63 223 25506 71 28
internal_count=26253 101 75 26 26152 26069 97 87 83 71 39 32 77 64 53 64 42 25972 102 24 25870 303 25567 61 286 63 223 25506 71 28
is_linear=0
shrinkage=0.1


end of trees

feature_importances:
return_EOSUSDT=4
momentum_QTUMUSDT=4
return_BTCUSDT=3
momentum_BNBUSDT=3
market_price_to_sma_std=3
price_std_ADAUSDT=3
bb_position_XRPUSDT=3
kurtosis_ETHUSDT=3
kurtosis_QTUMUSDT=3
return_ADAUSDT=2
return_NEOUSDT=2
return_QTUMUSDT=2
return_XRPUSDT=2
volatility_NEOUSDT=2
volatility_QTUMUSDT=2
market_volatility_std=2
momentum_ADAUSDT=2
macd_NEOUSDT=2
macd_signal_XRPUSDT=2
bb_position_LTCUSDT=2
bb_position_NEOUSDT=2
skewness_LTCUSDT=2
skewness_NEOUSDT=2
market_kurtosis_mean=2
market_return_std=1
volatility_BTCUSDT=1
volatility_EOSUSDT=1
volatility_ETHUSDT=1
volatility_LTCUSDT=1
momentum_EOSUSDT=1
market_momentum_mean=1
price_to_sma_BNBUSDT=1
price_to_sma_EOSUSDT=1
price_to_sma_ETHUSDT=1
price_std_BTCUSDT=1
price_std_QTUMUSDT=1
rsi_ETHUSDT=1
rsi_LTCUSDT=1
macd_BTCUSDT=1
macd_signal_ADAUSDT=1
macd_signal_EOSUSDT=1
bb_position_ADAUSDT=1
bb_position_BNBUSDT=1
bb_position_BTCUSDT=1
bb_position_EOSUSDT=1
bb_position_ETHUSDT=1
bb_position_QTUMUSDT=1
skewness_BNBUSDT=1
skewness_ETHUSDT=1
skewness_QTUMUSDT=1
market_skewness_std=1
kurtosis_ADAUSDT=1
kurtosis_EOSUSDT=1
kurtosis_NEOUSDT=1
kurtosis_XRPUSDT=1

parameters:
[boosting: gbdt]
[objective: regression]
[metric: l2]
[tree_learner: serial]
[device_type: cpu]
[data_sample_strategy: bagging]
[data: ]
[valid: ]
[num_iterations: 1000]
[learning_rate: 0.1]
[num_leaves: 31]
[num_threads: 8]
[seed: 0]
[deterministic: 0]
[force_col_wise: 0]
[force_row_wise: 0]
[histogram_pool_size: -1]
[max_depth: -1]
[min_data_in_leaf: 10]
[min_sum_hessian_in_leaf: 0.001]
[bagging_fraction: 1]
[pos_bagging_fraction: 1]
[neg_bagging_fraction: 1]
[bagging_freq: 0]
[bagging_seed: 3]
[feature_fraction: 1]
[feature_fraction_bynode: 1]
[feature_fraction_seed: 2]
[extra_trees: 0]
[extra_seed: 6]
[early_stopping_round: 0]
[early_stopping_min_delta: 0]
[first_metric_only: 0]
[max_delta_step: 0]
[lambda_l1: 0.01]
[lambda_l2: 0.01]
[linear_lambda: 0]
[min_gain_to_split: 0]
[drop_rate: 0.1]
[max_drop: 50]
[skip_drop: 0.5]
[xgboost_dart_mode: 0]
[uniform_drop: 0]
[drop_seed: 4]
[top_rate: 0.2]
[other_rate: 0.1]
[min_data_per_group: 100]
[max_cat_threshold: 32]
[cat_l2: 10]
[cat_smooth: 10]
[max_cat_to_onehot: 4]
[top_k: 20]
[monotone_constraints: ]
[monotone_constraints_method: basic]
[monotone_penalty: 0]
[feature_contri: ]
[forcedsplits_filename: ]
[refit_decay_rate: 0.9]
[cegb_tradeoff: 1]
[cegb_penalty_split: 0]
[cegb_penalty_feature_lazy: ]
[cegb_penalty_feature_coupled: ]
[path_smooth: 0]
[interaction_constraints: ]
[verbosity: 0]
[saved_feature_importance_type: 0]
[use_quantized_grad: 0]
[num_grad_quant_bins: 4]
[quant_train_renew_leaf: 0]
[stochastic_rounding: 1]
[linear_tree: 0]
[max_bin: 255]
[max_bin_by_feature: ]
[min_data_in_bin: 3]
[bin_construct_sample_cnt: 200000]
[data_random_seed: 1]
[is_enable_sparse: 1]
[enable_bundle: 1]
[use_missing: 1]
[zero_as_missing: 0]
[feature_pre_filter: 1]
[pre_partition: 0]
[two_round: 0]
[header: 0]
[label_column: ]
[weight_column: ]
[group_column: ]
[ignore_column: ]
[categorical_feature: ]
[forcedbins_filename: ]
[precise_float_parser: 0]
[parser_config_file: ]
[objective_seed: 5]
[num_class: 1]
[is_unbalance: 0]
[scale_pos_weight: 1]
[sigmoid: 1]
[boost_from_average: 1]
[reg_sqrt: 0]
[alpha: 0.9]
[fair_c: 1]
[poisson_max_delta_step: 0.7]
[tweedie_variance_power: 1.5]
[lambdarank_truncation_level: 30]
[lambdarank_norm: 1]
[label_gain: ]
[lambdarank_position_bias_regularization: 0]
[eval_at: ]
[multi_error_top_k: 1]
[auc_mu_weights: ]
[num_machines: 1]
[local_listen_port: 12400]
[time_out: 120]
[machine_list_filename: ]
[machines: ]
[gpu_platform_id: -1]
[gpu_device_id: -1]
[gpu_use_dp: 0]
[num_gpu: 1]

end of parameters

pandas_categorical:null
