tree
version=v4
num_class=1
num_tree_per_iteration=1
label_index=0
max_feature_idx=120
objective=regression
feature_names=return_ADAUSDT return_BNBUSDT return_BTCUSDT return_EOSUSDT return_ETHUSDT return_LTCUSDT return_NEOUSDT return_QTUMUSDT return_XRPUSDT market_return_mean market_return_std volatility_ADAUSDT volatility_BNBUSDT volatility_BTCUSDT volatility_EOSUSDT volatility_ETHUSDT volatility_LTCUSDT volatility_NEOUSDT volatility_QTUMUSDT volatility_XRPUSDT market_volatility_mean market_volatility_std momentum_ADAUSDT momentum_BNBUSDT momentum_BTCUSDT momentum_EOSUSDT momentum_ETHUSDT momentum_LTCUSDT momentum_NEOUSDT momentum_QTUMUSDT momentum_XRPUSDT market_momentum_mean market_momentum_std price_to_sma_ADAUSDT price_to_sma_BNBUSDT price_to_sma_BTCUSDT price_to_sma_EOSUSDT price_to_sma_ETHUSDT price_to_sma_LTCUSDT price_to_sma_NEOUSDT price_to_sma_QTUMUSDT price_to_sma_XRPUSDT market_price_to_sma_mean market_price_to_sma_std price_std_ADAUSDT price_std_BNBUSDT price_std_BTCUSDT price_std_EOSUSDT price_std_ETHUSDT price_std_LTCUSDT price_std_NEOUSDT price_std_QTUMUSDT price_std_XRPUSDT market_price_std_mean market_price_std_std rsi_ADAUSDT rsi_BNBUSDT rsi_BTCUSDT rsi_EOSUSDT rsi_ETHUSDT rsi_LTCUSDT rsi_NEOUSDT rsi_QTUMUSDT rsi_XRPUSDT market_rsi_mean market_rsi_std macd_ADAUSDT macd_BNBUSDT macd_BTCUSDT macd_EOSUSDT macd_ETHUSDT macd_LTCUSDT macd_NEOUSDT macd_QTUMUSDT macd_XRPUSDT market_macd_mean market_macd_std macd_signal_ADAUSDT macd_signal_BNBUSDT macd_signal_BTCUSDT macd_signal_EOSUSDT macd_signal_ETHUSDT macd_signal_LTCUSDT macd_signal_NEOUSDT macd_signal_QTUMUSDT macd_signal_XRPUSDT market_macd_signal_mean market_macd_signal_std bb_position_ADAUSDT bb_position_BNBUSDT bb_position_BTCUSDT bb_position_EOSUSDT bb_position_ETHUSDT bb_position_LTCUSDT bb_position_NEOUSDT bb_position_QTUMUSDT bb_position_XRPUSDT market_bb_position_mean market_bb_position_std skewness_ADAUSDT skewness_BNBUSDT skewness_BTCUSDT skewness_EOSUSDT skewness_ETHUSDT skewness_LTCUSDT skewness_NEOUSDT skewness_QTUMUSDT skewness_XRPUSDT market_skewness_mean market_skewness_std kurtosis_ADAUSDT kurtosis_BNBUSDT kurtosis_BTCUSDT kurtosis_EOSUSDT kurtosis_ETHUSDT kurtosis_LTCUSDT kurtosis_NEOUSDT kurtosis_QTUMUSDT kurtosis_XRPUSDT market_kurtosis_mean market_kurtosis_std
feature_infos=[-17.169539135406069:11.965631325750687] [-18.403200612221767:13.414391006302235] [-22.614976569975411:21.571879592354524] [-21.234936926316962:12.96304646263323] [-20.361004378316732:14.616357990042308] [-22.23666279718579:21.360352404263111] [-21.686507982488529:17.190375141520398] [-18.80390054473358:19.425589070131679] [-15.540686242007313:21.386701781997434] [-20.041026713561628:11.265981871785103] [-1.1403167512804144:20.014845374614879] [-1.3881187180085821:11.957504966266736] [-1.1712156638363846:12.363074212447346] [-1.3135048167179602:16.793826708478335] [-1.2447378013439463:11.217174838215113] [-1.3885799802439081:14.323234667567636] [-1.3823131686398133:12.463780051394625] [-1.3711679276322835:12.782174870786017] [-1.2865508791217264:12.280102826234717] [-1.08310766280111:10.077686600918478] [-1.4368739346309547:13.4092691471857] [-1.1421470256481532:10.226733449755972] [-10.027703145140984:6.6405624268091872] [-9.822543747811844:11.614812169028239] [-13.633742070888347:8.9875538524242256] [-11.227403239200179:10.66467108002321] [-10.889056376855871:7.5025514057592266] [-10.998418907432688:8.1667991079123503] [-11.242664220580735:11.119729636986513] [-10.048984942154712:12.137136967690997] [-14.313036706985839:10.233324476350774] [-11.458588179057662:7.5264631828586444] [-1.1809115122998783:14.881257627950445] [-11.952765855823776:7.625338040614289] [-14.505404771997101:13.258764161023617] [-17.406782752661705:7.0681080027231804] [-13.71764318240124:13.118435364345341] [-12.785700397245433:5.9787309353925] [-14.441121143921885:9.6154236218832487] [-14.420634037890435:13.556115084126402] [-12.826778371152143:14.705611749076278] [-12.432615146439256:12.113148038971229] [-13.929994806287027:5.690485230262067] [-1.1546788024703336:16.465259143233975] [-0.70582246553580275:10.758372395728578] [-0.77461073378468448:10.576042325699669] [-0.92407787066678726:8.5936028066746708] [-0.62781392580716688:22.413140196891945] [-0.89605765239013679:10.081466915503023] [-0.77323260524906112:15.201688504711587] [-0.60305163249950811:21.296738823974749] [-0.56678364566487982:23.697522318004896] [-0.7113285506379371:11.267759315250212] [-0.93573657162865653:8.4435961630881931] [-0.9235057418056698:8.6002753238240022] [-2.9565600072735432:2.9587677799915575] [-3.0968714173096505:2.781842323548676] [-3.0458399388814956:2.9254244943426548] [-3.102606225979144:3.0185758580293869] [-2.9532124866248761:2.8799118903284553] [-3.1644921436278386:3.0211319155476861] [-3.1355119916464531:3.026198746012704] [-2.9651522824428667:3.0466660304421458] [-3.1294670445887087:3.1245925359421727] [-3.2304764049198713:2.8476552773865347] [-2.129939173418455:5.4960876935118401] [-10.571061181639806:7.4189053434602794] [-10.749798705584933:8.7961880892759368] [-7.9714549075528582:6.3568343839134132] [-11.90931301146321:16.442824985785339] [-9.2113363704937399:5.6792394734082681] [-12.842176304118542:7.7543019932520156] [-12.161824706031195:16.207979644862075] [-8.9534824781005451:22.155412040102135] [-11.063626375690857:10.087681519487965] [-8.0062781404865699:6.0313261780832086] [-0.77618637514730171:9.2883929407165091] [-8.9141138107054854:7.1807814048838008] [-9.8327701310926958:8.7704318989535892] [-7.4544470270376522:6.2439754063243464] [-11.776820651762147:15.39902121359769] [-8.4452606035503006:5.327635801690108] [-12.818947404621731:7.0523295882794184] [-12.048051020509897:14.862688881826616] [-8.9236554093208174:21.511997451294295] [-10.395014470025911:9.5062426935471329] [-7.496790917437484:5.9304923040882844] [-0.78717329716453366:8.6717557594897663] [-3.0856390105088627:3.108346206676869] [-3.1407926853207329:3.0371492773545499] [-3.1708384112738477:3.1461604834363857] [-3.2169851420709685:3.2183586106604203] [-3.22193558464217:3.0628761602559176] [-3.1964802618395303:3.2034859768450787] [-3.03078743411485:3.0213121368614266] [-3.1486115767934906:3.0002780028521556] [-3.1685807753347337:3.163146574018687] [-3.5154212070541768:3.1062219282699388] [-1.7631515548267385:5.7009137135747538] [-4.0038869966804631:3.8676528671347308] [-3.9087957788072112:3.8447136680968113] [-3.4902936135343641:3.423105247956677] [-3.5322916882453663:3.6844714446516988] [-3.6860844811605067:3.6403254296304994] [-3.6378294344722133:3.7630202168373441] [-3.8508263223294987:3.6598816801585907] [-3.5998250871665931:3.9623295960956364] [-3.7172333824218011:3.7340330578187411] [-4.5453260165958236:3.9822772730600295] [-2.1260590506575783:4.5415704053361159] [-1.384807240716871:6.1277685357927831] [-1.3827453283657947:5.9887881922867727] [-1.3442866730473049:5.0443708967153729] [-1.3389284573762952:5.3980986502885058] [-1.3971516286296692:5.5084098360018379] [-1.4418600662721872:5.75177627271741] [-1.4278060711286555:5.9682073397083411] [-1.4566449667657346:6.092543896391871] [-1.3417124129750735:5.5640015800106726] [-1.6157934940923899:7.3047738147349435] [-1.6603325746299176:4.6767074797710748]
tree_sizes=3229

Tree=0
num_leaves=31
num_cat=0
split_feature=2 35 37 88 21 118 56 8 38 26 9 40 35 37 8 37 91 17 30 116 72 49 6 27 36 44 39 35 7 110
split_gain=0.00570172 0.00614096 0.0164168 0.0279447 0.0124744 0.00761046 0.00609111 0.00523803 0.00464113 0.00744406 0.00429775 0.00398427 0.00388211 0.00344121 0.00704131 0.00490749 0.00459572 0.00343489 0.00340443 0.00826502 0.00333986 0.00265716 0.0030345 0.00466934 0.00565386 0.00290058 0.00759478 0.00456958 0.00344704 0.00273095
threshold=-0.32345081254320274 -3.8733771491879594 -3.8868863068235124 -1.431381963406231 2.4526858773217168 0.029290806368962429 -1.5338483741246878 -4.0352502472507785 3.3719107902082412 -0.069022178352977775 2.4588035804859616 -3.0342193312156183 2.2601158972726645 -3.8868863068235124 1.9854338042469819 -3.2010482626869581 -1.2891877612049452 -1.1460250923778037 -3.0880831291425426 0.67273777074731489 -1.4964881196818067 0.036547503662314511 -2.2370856103969534 0.01213426098600298 -0.72897487224617019 -0.055604848957281829 -2.1220294282023624 -2.1870884339043282 -1.4302067276474146 -1.092999778491327
decision_type=2 2 2 2 2 2 2 2 2 2 2 2 2 2 2 2 2 2 2 2 2 2 2 2 2 2 2 2 2 2
left_child=1 4 3 -3 5 -1 7 -7 13 -10 12 -9 -11 14 -2 16 -15 -4 19 20 -17 22 23 -19 -25 26 -23 28 -28 -27
right_child=8 2 17 -5 -6 6 -8 11 9 10 -12 -13 -14 15 -16 18 -18 21 -20 -21 -22 25 -24 24 -26 29 27 -29 -30 -31
leaf_value=0.0022746309672432301 -0.00041836395979529537 0.00072122857254796539 0.0019330977550077338 -0.0054374911855329649 0.0041804851701763733 -0.0011571057556805401 -0.0023296155761831998 0.0023377977329268845 -0.0032607049224123667 -9.1967949641759471e-05 0.00094353324657578993 -0.00015762647593204999 -0.0018965597750332005 -0.0021718865885086464 0.0032625161195390185 0.0010983480895323048 0.00014915902644147846 -5.646140856087716e-05 6.6593563355384956e-05 -0.0027099455624588842 -0.00053812259512449399 0.0021496376612073933 0.00013020793987119587 -0.0034220544284478942 -0.00034293697629876954 0.00087454413388335915 -0.0022353148359939221 0.00043075870321934002 2.3703238641973234e-05 0.00016379406545025479
leaf_weight=18 10.000000000000002 15.000000000000002 10.999999999999998 13.999999999999998 10.999999999999998 12.999999999999995 9.9999999999999982 14.999999999999995 9.9999999999999982 33 19 10.000000000000009 20 19 9.9999999999999982 17 13.999999999999998 123 18859 14.999999999999998 45 25 4331 10.000000000000002 17 56 11.000000000000002 531 20 1941
leaf_count=18 10 15 11 14 11 13 10 15 10 33 19 10 20 19 10 17 14 123 18859 15 45 25 4331 10 17 56 11 531 20 1941
internal_value=8.83885e-05 0.00016433 0.000154551 -0.00221836 0.00105347 0.000516614 -0.000122132 0.000432959 5.97896e-05 -0.000691279 -0.000320111 0.00129994 -0.000792056 6.3086e-05 0.00137277 6.16517e-05 -0.00115719 0.000164421 6.38293e-05 -0.00060013 -7.3196e-05 0.000161523 0.000114683 -0.00032688 -0.00152125 0.000242363 0.000438426 0.00036049 -0.000810622 0.00018423
internal_weight=0 7182 7105 29 77 66 48 38 19071 82 72 25 53 18989 20 18969 33 7076 18936 77 62 7065 4481 150 27 2584 587 562 31 1997
internal_count=26253 7182 7105 29 77 66 48 38 19071 82 72 25 53 18989 20 18969 33 7076 18936 77 62 7065 4481 150 27 2584 587 562 31 1997
is_linear=0
shrinkage=1


end of trees

feature_importances:
price_to_sma_BTCUSDT=3
price_to_sma_ETHUSDT=3
return_XRPUSDT=2
return_BTCUSDT=1
return_NEOUSDT=1
return_QTUMUSDT=1
market_return_mean=1
volatility_NEOUSDT=1
market_volatility_std=1
momentum_ETHUSDT=1
momentum_LTCUSDT=1
momentum_XRPUSDT=1
price_to_sma_EOSUSDT=1
price_to_sma_LTCUSDT=1
price_to_sma_NEOUSDT=1
price_to_sma_QTUMUSDT=1
price_std_ADAUSDT=1
price_std_LTCUSDT=1
rsi_BNBUSDT=1
macd_NEOUSDT=1
bb_position_ADAUSDT=1
bb_position_EOSUSDT=1
kurtosis_ADAUSDT=1
kurtosis_NEOUSDT=1
kurtosis_XRPUSDT=1

parameters:
[boosting: gbdt]
[objective: regression]
[metric: l2]
[tree_learner: serial]
[device_type: cpu]
[data_sample_strategy: bagging]
[data: ]
[valid: ]
[num_iterations: 1000]
[learning_rate: 0.1]
[num_leaves: 31]
[num_threads: 8]
[seed: 0]
[deterministic: 0]
[force_col_wise: 0]
[force_row_wise: 0]
[histogram_pool_size: -1]
[max_depth: -1]
[min_data_in_leaf: 10]
[min_sum_hessian_in_leaf: 0.001]
[bagging_fraction: 1]
[pos_bagging_fraction: 1]
[neg_bagging_fraction: 1]
[bagging_freq: 0]
[bagging_seed: 3]
[feature_fraction: 1]
[feature_fraction_bynode: 1]
[feature_fraction_seed: 2]
[extra_trees: 0]
[extra_seed: 6]
[early_stopping_round: 0]
[early_stopping_min_delta: 0]
[first_metric_only: 0]
[max_delta_step: 0]
[lambda_l1: 0.01]
[lambda_l2: 0.01]
[linear_lambda: 0]
[min_gain_to_split: 0]
[drop_rate: 0.1]
[max_drop: 50]
[skip_drop: 0.5]
[xgboost_dart_mode: 0]
[uniform_drop: 0]
[drop_seed: 4]
[top_rate: 0.2]
[other_rate: 0.1]
[min_data_per_group: 100]
[max_cat_threshold: 32]
[cat_l2: 10]
[cat_smooth: 10]
[max_cat_to_onehot: 4]
[top_k: 20]
[monotone_constraints: ]
[monotone_constraints_method: basic]
[monotone_penalty: 0]
[feature_contri: ]
[forcedsplits_filename: ]
[refit_decay_rate: 0.9]
[cegb_tradeoff: 1]
[cegb_penalty_split: 0]
[cegb_penalty_feature_lazy: ]
[cegb_penalty_feature_coupled: ]
[path_smooth: 0]
[interaction_constraints: ]
[verbosity: 0]
[saved_feature_importance_type: 0]
[use_quantized_grad: 0]
[num_grad_quant_bins: 4]
[quant_train_renew_leaf: 0]
[stochastic_rounding: 1]
[linear_tree: 0]
[max_bin: 255]
[max_bin_by_feature: ]
[min_data_in_bin: 3]
[bin_construct_sample_cnt: 200000]
[data_random_seed: 1]
[is_enable_sparse: 1]
[enable_bundle: 1]
[use_missing: 1]
[zero_as_missing: 0]
[feature_pre_filter: 1]
[pre_partition: 0]
[two_round: 0]
[header: 0]
[label_column: ]
[weight_column: ]
[group_column: ]
[ignore_column: ]
[categorical_feature: ]
[forcedbins_filename: ]
[precise_float_parser: 0]
[parser_config_file: ]
[objective_seed: 5]
[num_class: 1]
[is_unbalance: 0]
[scale_pos_weight: 1]
[sigmoid: 1]
[boost_from_average: 1]
[reg_sqrt: 0]
[alpha: 0.9]
[fair_c: 1]
[poisson_max_delta_step: 0.7]
[tweedie_variance_power: 1.5]
[lambdarank_truncation_level: 30]
[lambdarank_norm: 1]
[label_gain: ]
[lambdarank_position_bias_regularization: 0]
[eval_at: ]
[multi_error_top_k: 1]
[auc_mu_weights: ]
[num_machines: 1]
[local_listen_port: 12400]
[time_out: 120]
[machine_list_filename: ]
[machines: ]
[gpu_platform_id: -1]
[gpu_device_id: -1]
[gpu_use_dp: 0]
[num_gpu: 1]

end of parameters

pandas_categorical:null
